svm_type c_svc
kernel_type rbf
gamma 0.0078125
nr_class 3
total_sv 31
rho -0.0321298 0.259048 0.492877
label 46 49 50
nr_sv 10 10 11
SV
8 8 2:0.00884 3:0.01925 4:0.01343 5:-0.00604 6:0.0085 7:0.01029 8:0.00145 9:0.01511 10:0.00045 11:0.00168 12:0.02865 
8 8 1:-0.00425 2:0.00895 3:0.02059 4:0.01018 5:-0.00492 6:0.01208 7:0.01421 8:0.00201 9:0.01499 10:0.00224 11:0.00403 12:0.02786 
8 8 1:0.00179 2:0.01141 3:0.02842 4:0.01085 5:-0.00213 6:0.01734 7:0.00526 8:0.00123 9:0.0085 10:0.00213 11:0.00213 12:0.02283 
8 8 1:0.14614 2:0.0216 3:0.11537 4:-0.29653 5:-0.17904 6:0.41536 7:-0.04207 8:-0.0028 9:-0.01253 10:0.05606 11:0.00235 12:-0.01645 
8 8 1:-0.01343 2:-0.01041 3:0.03894 4:-0.35774 5:-0.32193 6:0.49515 7:-0.16315 8:-0.0226 9:0.00436 10:0.10362 11:-0.00559 12:-0.05662 
8 8 1:-0.21305 2:-0.06691 3:0.07844 4:-0.19224 5:0.00179 6:0.29217 7:-0.29272 8:-0.06591 9:0.06535 10:0.12197 11:-0.00067 12:-0.03883 
8 8 1:0.18665 2:0.00224 3:0.06871 4:-0.2154 5:0.00067 6:0.21529 7:-0.03189 8:-0.00425 9:0.20086 10:0.01029 11:-0.03805 12:0.19 
8 8 1:0.2238 2:-0.2116 3:0.46236 4:0.04655 5:-0.17277 6:0.538 7:-0.04901 8:-0.00078 9:-0.00034 10:0.03189 11:0.0047 12:-0.02126 
8 8 1:0.14021 2:-0.14166 3:0.43483 4:-0.04062 5:-0.44009 6:0.63737 7:-0.04588 8:-0.00134 9:-0.00336 10:0.04095 11:0.00582 12:-0.01018 
8 8 1:0.02853 2:0.0273 3:0.13103 4:-0.28064 5:-0.6123 6:0.60156 7:-0.04756 8:-0.0028 9:-0.00772 10:0.03502 11:0.00459 12:-0.01141 
-8 8 1:-0.18732 2:-0.0771 3:-0.00671 4:-0.13461 5:0.0169 6:0.26509 7:-0.24618 8:-0.03894 9:0.10015 10:0.10821 11:-0.00369 12:0.06356 
-8 8 1:-0.18262 2:-0.05349 3:0.07766 4:-0.09668 5:0.01276 6:0.2934 7:-0.23991 8:-0.04409 9:0.03771 10:0.12421 11:-0.00492 12:-0.03312 
-8 8 1:-0.17355 2:-0.0564 3:0.01913 4:-0.1307 5:0.02204 6:0.20723 7:-0.24136 8:-0.03749 9:0.09176 10:0.05505 11:0.00302 12:0.05103 
-8 8 1:-0.17143 2:-0.05472 3:0.01757 4:-0.12488 5:0.02327 6:0.20444 7:-0.23275 8:-0.03279 9:0.09243 10:0.05819 11:0.00179 12:0.05696 
-8 8 1:-0.16695 2:-0.0527 3:0.01287 4:-0.13036 5:0.02473 6:0.20768 7:-0.22726 8:-0.0301 9:0.09288 10:0.04856 11:0.0066 12:0.05696 
-8 8 1:-0.1618 2:-0.04006 3:0.0602 4:-0.09545 5:0.02383 6:0.21171 7:-0.16953 8:-0.02193 9:0.09411 10:0.06121 11:0.00369 12:0.05013 
-8 8 1:-0.19672 2:-0.05606 3:0.07866 4:-0.14077 5:0.01712 6:0.24562 7:-0.26721 8:-0.04778 9:0.09813 10:0.09411 11:0.00123 12:0.01455 
-8 8 1:-0.20321 2:-0.03525 3:0.06837 4:-0.16538 5:0.03547 6:0.27012 7:-0.26587 8:-0.04968 9:0.09355 10:0.0912 11:0.00515 12:0.01119 
-8 8 1:-0.15039 2:-0.0574 3:-0.01757 4:-0.12331 5:0.02148 6:0.2229 7:-0.25166 8:-0.04073 9:0.11626 10:0.07654 11:0.00123 12:0.05293 
-8 8 1:-0.13484 2:-0.04655 3:-0.01466 4:-0.08985 5:0.02562 6:0.22368 7:-0.15442 8:-0.00347 9:0.10272 10:0.05875 11:0.00067 12:0.0752 
-8 -8 1:0.14211 2:-0.01052 3:-0.04051 4:-0.12174 5:-0.00582 6:0.01231 7:-0.32249 8:-0.727 9:0.40563 10:-0.10071 11:-0.07184 12:0.22693 
-8 -8 1:0.14077 2:-0.01208 3:-0.04062 4:-0.11772 5:-0.00504 6:0.01264 7:-0.32517 8:-0.72196 9:0.40496 10:-0.09601 11:-0.07027 12:0.22738 
-8 -8 1:0.1439 2:-0.0132 3:-0.04196 4:-0.11693 5:-0.00425 6:0.01197 7:-0.33625 8:-0.71961 9:0.39668 10:-0.09209 11:-0.0658 12:0.22212 
-8 -8 1:0.14256 2:-0.01119 3:-0.04409 4:-0.10765 5:-0.00548 6:0.0085 7:-0.38303 8:-0.70798 9:0.36121 10:-0.06568 11:-0.04163 12:0.189 
-8 -8 1:0.13741 2:-0.01119 3:-0.04308 4:-0.12242 5:-0.00492 6:0.01477 7:-0.3743 8:-0.71928 9:0.35147 10:-0.08348 11:-0.06624 12:0.22436 
-8 -8 1:0.12488 2:-0.00929 3:-0.0423 4:-0.13831 5:-0.00627 6:0.02037 7:-0.38191 8:-0.72644 9:0.33457 10:-0.09601 11:-0.07441 12:0.23644 
-8 -8 1:0.12991 2:-0.00906 3:-0.04073 4:-0.13596 5:-0.00504 6:0.01981 7:-0.3903 8:-0.73897 9:0.30884 10:-0.10048 11:-0.04722 12:0.17837 
-8 -1.400359066427289 1:0.1185 2:-0.00582 3:-0.03458 4:-0.12365 5:-0.00078 6:0.03044 7:-0.33972 8:-0.75509 9:0.35293 10:-0.11637 11:-0.08717 12:0.24774 
-8 -8 1:0.04185 2:-0.01186 3:-0.05931 4:-0.01343 5:-0.02753 6:-0.0442 7:-0.36859 8:-0.74155 9:0.348 10:-0.09713 11:-0.06691 12:0.2257 
-8 -8 1:0.00828 2:-0.01085 3:-0.04398 4:-0.00526 5:-0.02686 6:-0.03928 7:-0.35483 8:-0.76124 9:0.33312 10:-0.12969 11:-0.08124 12:0.22827 
-0 -6.599640933572711 1:0.00045 2:-0.00929 3:-0.04107 4:-0.00985 5:-0.02272 6:-0.03267 7:-0.33133 8:-0.7552 9:0.36568 10:-0.12734 11:-0.11917 12:0.28265 
