svm_type c_svc
kernel_type rbf
gamma 0.0078125
nr_class 5
total_sv 63
rho 0.0480769 0.18271 -0.0417407 -0.191671 -0.0738377 -0.0448924 0.253491 -0.164165 -0.089159 -0.00546365
label 46 49 50 51 52
nr_sv 20 4 15 13 11
SV
0 0 0 8 1:0.13159 2:0.00507 3:0.00189 4:0.62983 5:0.0043 6:0.00032 7:0.07397 9:0.06751 10:0.02798 11:0.00532 12:0.02596 
0 8 0 0 1:0.10387 2:0.00497 3:0.00497 4:0.34831 5:0.00556 6:0.00621 7:0.07966 9:0.05398 10:0.19113 11:0.01724 12:0.00916 15:0.00195 16:0.0105 17:0.00199 18:0.00403 19:0.03008 20:0.00152 21:0.00541 22:0.08129 23:0.00254 24:0.00929 25:0.00049 28:0.00392 30:0.00126 31:0.00374 32:0.00071 33:0.0065 34:0.00276 35:0.00171 36:0.00224 39:0.001 40:0.00281 42:0.002 43:0.00471 44:0.0004 45:0.00218 46:0.00165 47:0.00097 48:0.00119 52:0.00051 55:0.00247 57:0.00075 61:0.00108 66:0.00038 67:0.0006 70:0.00112 79:0.00049 91:0.00057 
5.34183954430325 4.025267707678273 2.115173516124223 8 1:0.3182 2:0.01059 3:0.01566 4:0.59879 5:0.0039 6:0.01055 7:0.01841 8:0.00081 9:0.06467 10:0.22404 11:0.00722 12:0.01103 13:0.02707 14:0.00229 15:0.01117 16:0.04568 17:0.00076 18:0.01054 19:0.06341 20:0.00913 21:0.02334 22:0.04009 23:0.00975 24:0.02601 26:0.00031 27:0.00674 28:0.00416 29:0.00071 30:0.00573 31:0.00257 32:0.00085 33:0.00076 34:0.00573 35:0.0013 37:0.01295 38:0.0006 39:0.00342 40:0.00175 43:0.00134 46:0.00087 49:0.00037 51:0.00049 52:0.00032 55:0.00171 57:0.00059 58:0.00112 60:0.00041 61:0.00082 63:0.00157 70:0.00091 73:0.00057 79:0.00071 85:0.00038 91:0.00034 92:0.00045 96:0.00037 
0 0 8 3.25723412727411 1:0.34354 2:0.01228 4:0.49711 5:0.00556 6:0.00527 7:0.00675 8:0.00264 9:0.06141 10:0.05868 11:0.00179 12:0.05279 13:0.00203 14:0.00169 15:0.00544 16:0.00194 17:0.00215 18:0.00267 20:0.00039 21:0.00299 22:0.00387 24:0.00129 25:0.00383 26:0.00281 27:0.00654 29:0.00294 30:0.00241 31:0.00054 32:0.0022 33:0.00353 35:0.00501 36:0.00273 37:0.0008 38:0.00072 39:0.00101 40:0.00079 41:0.00079 42:0.00184 44:0.00087 45:0.00457 47:0.00067 48:0.00453 49:0.00249 50:0.00047 51:0.00047 52:0.00041 53:0.00051 54:0.00049 55:0.00081 56:0.00069 57:0.00124 58:0.00157 59:0.00132 60:0.00101 61:0.00083 65:0.00054 67:0.00093 69:0.00054 70:0.00058 71:0.00047 72:0.00037 73:0.0005 79:0.00093 82:0.00049 94:0.00043 
1.209651830850809 8 8 0 1:0.45271 2:0.00751 3:0.3091 4:0.30236 6:0.43121 7:0.00264 8:0.02343 9:0.11873 10:0.00296 11:0.01662 12:0.10129 16:0.00129 19:0.00068 22:0.00155 34:0.00078 55:0.0007 
0 8 8 0 1:0.5287 2:0.00532 3:0.42589 4:0.33656 5:0.00047 6:0.57972 7:0.0024 8:0.04308 9:0.22025 10:0.00296 11:0.02931 12:0.17222 35:0.00038 
0 8 8 0 1:0.0718 2:0.00442 3:0.05749 4:0.03074 5:0.00118 6:0.03509 7:0.10129 8:0.00133 9:0.01016 10:0.25968 11:0.01056 34:0.00038 
0 8 8 0 1:0.27426 2:0.00394 3:0.02343 4:0.23965 5:0.00296 6:0.02223 7:0.02183 8:0.00556 9:0.19635 10:0.25381 11:0.00559 12:0.11882 15:0.00045 16:0.00074 18:0.00127 19:0.0143 20:0.00155 21:0.00297 22:0.01056 23:0.00069 24:0.00192 31:0.01188 32:0.00248 33:0.00302 34:0.0047 35:0.00066 36:0.00053 43:0.01307 44:0.001 45:0.00223 46:0.00279 47:0.00042 55:0.00676 56:0.00049 57:0.00437 58:0.00238 67:0.00251 69:0.0009 70:0.00239 71:0.00047 79:0.00141 81:0.00109 82:0.00051 91:0.00192 
3.809376800927941 0 8 0 1:0.46899 2:0.01566 3:0.00138 4:0.48593 5:0.01099 6:0.00471 7:0.01611 8:0.00351 9:0.02536 10:0.01668 12:0.01935 13:0.00284 15:0.00033 16:0.00084 19:0.00138 20:0.00043 22:0.00132 31:0.00041 37:0.0006 40:0.00088 
3.765924654878965 8 8 0 1:1.40789 2:0.00306 3:0.0818 4:0.3319 5:0.00501 6:0.00686 7:0.53164 8:0.03739 9:0.01059 10:0.04645 11:0.00825 12:0.02536 13:0.00077 14:0.00116 16:0.00244 19:0.00032 20:0.00107 23:0.00051 24:0.00069 26:0.00077 28:0.00084 32:0.00043 44:0.00039 
1.848669962065028 8 8 0 1:0.79975 2:0.00121 3:0.0491 4:0.05465 5:0.00179 6:0.00179 7:0.14495 8:0.00367 9:0.00164 10:0.2701 11:0.00751 12:0.01989 21:0.00032 30:0.00031 
0 8 8 0 1:0.16253 2:0.00722 3:0.00527 4:0.08649 5:0.00058 6:0.00133 7:0.05461 9:0.05009 10:0.25764 11:0.01059 12:0.00617 13:0.00066 15:0.00034 16:0.0008 28:0.0004 34:0.00037 94:0.0003 
0 8 0 0 1:0.03217 2:0.00118 3:0.01935 4:0.04473 5:0.00072 6:0.00717 7:0.20175 8:0.00104 9:0.05649 10:0.31812 11:0.01112 12:0.00974 16:0.00059 22:0.00038 28:0.00048 34:0.00032 
0 8 0 0 3:0.02282 5:0.00033 6:0.00254 7:0.37988 8:0.00445 9:0.07291 10:0.57967 11:0.02222 12:0.01462 13:0.00075 16:0.00332 19:0.00333 22:0.00496 25:0.00061 28:0.00065 30:0.00044 36:0.00033 41:0.0003 
0 8 8 0 1:0.34118 2:0.00651 3:0.00469 4:0.31806 5:0.00471 6:0.00162 7:0.00199 9:0.02728 10:0.08414 11:0.00372 12:0.02172 16:0.0013 
0 0 8 0 1:0.62658 2:0.00274 3:0.00751 4:0.50552 5:0.00081 6:0.00105 7:0.03977 8:0.00069 9:0.04999 10:0.00471 11:0.01056 12:0.03586 13:0.0004 17:0.00051 19:0.00073 22:0.00091 25:0.00046 36:0.00033 
0 0 0 8 1:0.35546 2:0.00299 3:0.02672 4:0.64262 5:0.00105 6:0.00974 8:0.00092 9:0.11324 10:0.00686 11:0.00471 12:0.0925 13:0.00101 15:0.00042 16:0.00062 18:0.0008 21:0.00035 24:0.0004 28:0.00041 36:0.00066 
0 8 0 8 1:0.11731 3:0.08069 4:0.61088 5:0.00049 6:0.0456 7:0.02468 8:0.00147 9:0.30016 10:0.04915 11:0.00787 12:0.20722 22:0.00081 28:0.00033 
0 8 0 8 1:0.10913 3:0.06138 4:0.68197 6:0.04747 7:0.02662 8:0.00037 9:0.29144 10:0.06751 11:0.0086 12:0.20175 
0 8 8 0 1:0.15586 2:0.00787 3:0.00751 4:0.22597 5:0.00367 6:0.01718 7:0.03662 9:0.03288 10:0.0482 11:0.00367 12:0.01663 16:0.00178 21:0.00063 22:0.00032 24:0.00082 
-1.437239942177706 1.334268466390699 1.316894406099669 7.634445999105371 1:0.57356 2:5.18025 3:0.32972 4:1.81715 5:1.13969 6:0.01274 7:0.00372 8:0.00198 9:0.00049 10:0.07784 11:0.01103 12:0.00471 13:0.02308 14:0.34181 15:0.13847 16:0.11149 17:0.35431 18:0.00913 19:0.00232 20:0.00041 21:0.00091 22:0.01259 24:0.0061 25:0.01263 26:0.01578 27:0.01986 28:0.01349 29:0.11523 31:0.00296 32:0.00041 34:0.02633 35:0.00156 36:0.00079 37:0.00419 38:0.0029 39:0.00693 40:0.00512 41:0.0326 42:0.00129 43:0.00053 45:0.00054 46:0.00656 47:0.0007 49:0.00111 51:0.00182 52:0.00465 53:0.00099 54:0.00345 58:0.00264 61:0.0006 62:0.00119 63:0.00042 64:0.00575 65:0.00342 66:0.00086 70:0.0005 72:0.0005 73:0.00034 76:0.003 77:0.00257 82:0.00059 86:0.00036 88:0.0028 89:0.00329 
-8 8 8 8 1:0.7538 2:0.32119 3:0.00281 4:0.02055 5:0.45376 6:0.0086 7:0.00121 8:0.00179 9:0.00105 10:0.04734 11:0.00936 12:0.00858 13:0.06547 14:1.0115 15:0.11504 16:0.51157 17:0.2039 18:0.02207 20:0.00187 21:0.001 22:0.0037 23:0.00195 24:0.00249 25:0.00463 26:0.15947 27:0.0207 28:0.1051 29:0.03619 30:0.00306 31:0.00054 33:0.00065 34:0.00198 35:0.00037 36:0.00134 37:0.00038 38:0.05399 39:0.00206 40:0.02043 41:0.01337 42:0.00067 46:0.00036 49:0.00083 50:0.04337 51:0.00234 52:0.02327 53:0.00766 57:0.00033 62:0.0234 63:0.00264 64:0.01619 65:0.00329 74:0.02592 75:0.00194 76:0.01994 77:0.0058 78:0.00059 85:0.00038 86:0.01538 87:0.00115 88:0.00979 89:0.00431 90:0.00037 
-5.924530519420219 4.744148244866878 7.481499443667072 4.518553043364973 1:0.81502 2:2.2315 3:0.07447 4:0.51473 5:0.88311 6:0.04304 7:0.00532 8:0.00325 9:0.00101 10:0.05313 11:0.00938 12:0.00359 13:0.10098 14:2.26956 15:0.24354 16:1.23403 17:0.44307 18:0.00283 19:0.00837 20:0.00207 21:0.00322 22:0.0402 24:0.01396 25:0.02406 26:0.24278 27:0.02358 28:0.18799 29:0.05447 30:0.00189 32:0.00032 33:0.00211 34:0.00059 35:0.00105 36:0.00243 37:0.00069 38:0.13451 39:0.00634 40:0.04593 41:0.04135 42:0.00056 44:0.00071 46:0.0012 47:0.00045 48:0.00059 49:0.00053 50:0.08541 51:0.00296 52:0.05095 53:0.03568 54:0.00056 58:0.00105 59:0.00086 60:0.00053 61:0.00076 62:0.06048 63:0.00224 64:0.02822 65:0.03613 69:0.00033 72:0.00064 74:0.03663 75:0.00062 76:0.01757 77:0.02214 85:0.00052 86:0.04068 87:0.00188 88:0.01896 89:0.01986 
-0.6136923314280676 0.9850714698966129 0 7.006117420206187 1:0.09981 2:0.1928 3:0.00819 4:0.12867 5:0.49027 6:0.18451 7:0.00101 8:0.00092 9:0.00127 10:0.11298 11:0.01143 12:0.01513 13:0.57632 14:4.14494 15:0.80799 16:1.06106 17:1.47345 18:0.15893 19:0.03702 20:0.00415 22:0.17265 23:0.00106 24:0.00881 25:0.46584 26:0.34241 27:0.10596 28:0.83778 29:0.3331 30:0.0201 31:0.00725 32:0.00324 33:0.005 34:0.02282 35:0.00497 36:0.00618 37:0.19624 38:0.18063 39:0.06268 40:0.35999 41:0.02744 42:0.02872 43:0.00201 44:0.00297 45:0.00311 46:0.013 47:0.00074 48:0.00604 49:0.03447 50:0.04888 51:0.00306 52:0.31381 53:0.02658 54:0.00114 55:0.00312 56:0.0007 58:0.01083 59:0.00546 61:0.03307 62:0.07844 63:0.02094 64:0.00147 65:0.02309 66:0.00248 73:0.00241 74:0.07617 75:0.03111 76:0.07006 77:0.0651 78:0.00413 85:0.01027 86:0.00426 87:0.01225 88:0.06846 89:0.00442 90:0.00071 91:0.0006 94:0.0015 95:0.00049 
-8 -0 0 0 1:0.18291 3:0.0853 4:0.03821 6:0.0482 7:1.32611 8:0.09569 9:0.0743 10:0.06339 11:0.03002 12:0.25968 13:0.00164 16:0.012 18:0.00034 19:0.23718 20:0.28001 21:0.032 22:0.07557 23:0.00344 24:0.0123 25:0.00047 27:0.00113 28:0.00932 30:0.0009 31:0.02929 32:0.01608 33:0.00878 34:0.00033 35:0.00538 36:0.00136 40:0.00154 41:0.0003 43:0.01988 44:0.01411 45:0.00041 46:0.00304 47:0.00032 48:0.00107 49:0.00042 54:0.00036 55:0.00873 56:0.00325 58:0.00153 67:0.00785 68:0.00448 69:0.00069 70:0.0023 72:0.00104 79:0.00538 80:0.00361 82:0.00138 91:0.00782 92:0.0019 93:0.00104 94:0.00167 
-8 -0 8 8 1:0.27426 3:0.11318 4:0.0718 6:0.03293 7:0.28986 8:0.15124 9:0.05862 10:0.25769 11:0.08187 12:0.19467 16:0.00202 18:0.00066 19:0.36949 20:0.52049 21:0.00467 22:0.02962 23:0.00441 24:0.00326 28:0.00136 30:0.00068 31:0.07498 32:0.10378 33:0.00967 34:0.00268 35:0.00393 36:0.00132 40:0.00051 43:0.0717 44:0.02809 45:0.00153 46:0.00034 48:0.00083 52:0.00064 55:0.0333 56:0.01882 57:0.00807 58:0.00333 59:0.00137 60:0.00046 67:0.01967 68:0.01747 70:0.00105 71:0.00097 79:0.01667 80:0.00702 81:0.00223 82:0.00103 83:0.00098 84:0.00125 91:0.02152 92:0.01204 93:0.00504 94:0.00038 
-8 -7.063488181154191 8 8 1:0.3068 2:0.00065 3:0.08901 4:0.11055 5:0.00069 6:0.02729 7:0.63762 8:0.34976 9:0.1854 10:0.16036 11:0.05778 12:0.20487 13:0.00113 16:0.00541 18:0.00082 19:0.18042 20:0.1765 21:0.02721 22:0.01352 23:0.00132 24:0.01018 25:0.00038 28:0.0023 31:0.03848 32:0.04538 33:0.00367 34:0.00515 36:0.00041 43:0.00588 44:0.01156 45:0.00306 46:0.00594 47:0.00095 48:0.00078 52:0.00044 55:0.01 56:0.00519 58:0.00047 60:0.00101 67:0.01074 68:0.00552 69:0.00145 71:0.00105 72:0.00065 76:0.00035 79:0.00726 80:0.00861 81:0.00261 82:0.00072 91:0.00882 92:0.00621 93:0.00144 94:0.00208 
-8 -0 8 3.15100123041811 1:0.28064 2:0.00179 3:0.06045 4:0.08649 5:0.00095 6:0.02729 7:0.3684 8:0.2501 9:0.09779 10:0.16633 11:0.06372 12:0.18081 13:0.00075 16:0.00152 17:0.00031 19:0.61184 20:0.42028 21:0.01759 22:0.02878 23:0.00269 24:0.00138 25:0.00031 28:0.00423 31:0.12028 32:0.09188 33:0.00782 34:0.00999 35:0.00103 36:0.00251 40:0.00087 41:0.00039 43:0.05946 44:0.02604 45:0.01128 46:0.0029 47:0.0004 52:0.00055 55:0.04878 56:0.01914 57:0.00391 58:0.0051 59:0.00194 67:0.02784 68:0.0151 69:0.00085 71:0.00062 79:0.01609 80:0.00589 81:0.00316 82:0.0021 91:0.01501 92:0.00845 93:0.00207 94:0.00198 
-8 -0 1.403456730949668 0 1:0.26 2:0.00042 3:0.08296 4:0.06455 5:0.00037 6:0.02223 7:0.04441 8:0.3145 9:0.07829 10:0.19113 11:0.09375 12:0.17931 13:0.00166 16:0.00773 17:0.00037 19:0.7397 20:0.69633 21:0.00262 22:0.03708 23:0.00279 24:0.00035 25:0.00075 28:0.00354 31:0.08684 32:0.0434 33:0.00946 34:0.00454 40:0.00108 42:0.00038 43:0.10739 44:0.05127 45:0.00838 46:0.00239 47:0.00131 48:0.00065 54:0.00032 55:0.05805 56:0.02114 57:0.00813 58:0.00075 59:0.00033 60:0.00289 67:0.03262 68:0.02164 69:0.00134 70:0.00494 71:0.00104 72:0.00101 79:0.02203 80:0.0078 81:0.00099 82:0.00057 84:0.00143 91:0.01674 92:0.00786 93:0.00033 94:0.00107 95:0.00108 
-8 -0 8 0 1:0.28711 2:0.00069 3:0.06858 4:0.05369 5:0.00065 6:0.01668 7:0.01774 8:0.30797 9:0.07108 10:0.18248 11:0.09507 12:0.15121 13:0.00092 16:0.0067 17:0.0003 18:0.00054 19:0.74547 20:0.65719 21:0.00205 22:0.06157 23:0.00749 24:0.00294 28:0.00127 30:0.00037 31:0.14385 32:0.06583 33:0.01384 34:0.01954 35:0.00345 36:0.00123 39:0.00034 40:0.00077 43:0.09066 44:0.03953 45:0.0014 46:0.00698 47:0.00209 52:0.00041 55:0.05064 56:0.02022 57:0.00731 58:0.00556 64:0.00054 67:0.04567 68:0.01597 69:0.01684 70:0.00666 71:0.00203 72:0.00098 79:0.02487 80:0.01672 81:0.00532 84:0.00052 91:0.01797 92:0.01052 93:0.00063 94:0.00439 95:0.0014 96:0.00136 
-8 -0 0 0 1:0.28064 2:0.00203 3:0.06349 4:0.07842 5:0.00146 6:0.02292 7:0.12114 8:0.51733 9:0.21294 10:0.26844 11:0.1001 12:0.14511 16:0.00088 19:0.57573 20:0.67637 21:0.00681 22:0.04391 23:0.00404 24:0.0037 28:0.00207 31:0.05853 32:0.05025 34:0.00695 35:0.00108 36:0.00274 43:0.0093 44:0.01445 46:0.00399 48:0.00132 55:0.02263 56:0.01444 57:0.00267 58:0.00216 59:0.00153 60:0.00142 67:0.01397 68:0.01207 69:0.00245 70:0.00436 71:0.00141 72:0.00153 79:0.01198 80:0.0108 82:0.00071 83:0.00048 84:0.00201 91:0.01056 92:0.00645 93:0.00058 94:0.00092 96:0.00044 
-8 -0 8 2.144405291841633 1:0.23374 2:0.00095 3:0.05181 4:0.10033 5:0.00101 6:0.01718 7:0.0172 8:1.1419 9:0.33069 10:0.1359 11:0.06771 12:0.18929 13:0.00117 16:0.00599 19:0.21211 20:0.18932 21:0.00322 22:0.03034 23:0.00044 24:0.01468 25:0.00079 28:0.00205 31:0.03486 32:0.00974 33:0.00438 34:0.02188 35:0.00115 36:0.00159 40:0.00035 42:0.00041 43:0.03374 44:0.00403 45:0.00564 46:0.00052 47:0.00052 48:0.00184 55:0.02548 56:0.00394 57:0.00056 58:0.01086 59:0.00119 67:0.01329 68:0.0003 69:0.00281 70:0.00377 71:0.00073 72:0.00147 79:0.00636 80:0.00121 81:0.00074 82:0.00279 83:0.00124 91:0.00433 92:0.0004 93:0.00369 94:0.00466 
-8 -0 0 0 1:0.27424 2:0.00041 3:0.06252 4:0.11724 5:0.00079 6:0.01878 7:0.15643 8:1.79472 9:0.23374 10:0.21487 11:0.0616 12:0.22597 13:0.00083 16:0.00614 17:0.00057 19:0.02617 20:0.1677 21:0.00692 22:0.02329 23:0.00396 24:0.00194 25:0.00047 26:0.00067 27:0.00058 28:0.00235 29:0.0004 30:0.00065 31:0.0225 32:0.02541 34:0.00724 35:0.00585 36:0.00034 37:0.00034 40:0.00055 43:0.01573 44:0.00832 45:0.011 46:0.00196 47:0.00836 48:0.00051 56:0.00226 58:0.00137 59:0.00276 60:0.00059 67:0.00186 68:0.00679 69:0.00409 70:0.00031 71:0.00053 72:0.00143 79:0.00056 80:0.00572 81:0.00498 83:0.00035 84:0.00208 91:0.00048 92:0.00103 93:0.00662 94:0.00105 95:0.00126 96:0.00047 
-8 -0 8 4.031285991895912 1:0.18425 2:0.00052 3:0.0565 4:0.06647 6:0.00974 7:0.2883 8:0.8118 9:0.16738 10:0.08195 11:0.0604 12:0.17222 13:0.00146 16:0.00921 18:0.0005 19:0.10361 20:0.34054 22:0.05208 23:0.00496 24:0.00579 26:0.00043 28:0.00034 31:0.01998 32:0.08309 33:0.00165 34:0.00689 35:0.00764 36:0.00101 38:0.0003 39:0.00054 40:0.00096 42:0.00054 43:0.00195 44:0.05372 45:0.00107 46:0.00241 47:0.00173 48:0.00046 54:0.00044 55:0.00142 56:0.02878 58:0.00065 59:0.00138 67:0.00159 68:0.01387 71:0.00149 79:0.0058 80:0.01308 81:0.00037 82:0.00079 83:0.00057 84:0.00095 91:0.00246 92:0.01061 93:0.00112 
-8 -8 8 8 1:0.38739 2:0.00105 3:0.0594 4:0.02935 5:0.00033 6:0.00592 7:0.09048 8:0.16621 9:0.33967 10:0.03899 11:0.00573 12:0.24992 13:0.00208 15:0.00036 16:0.05213 17:0.00366 19:0.13859 20:0.62477 21:0.07498 22:0.02309 23:0.00167 24:0.00655 25:0.00043 27:0.00056 28:0.01137 29:0.00063 30:0.00051 31:0.09655 32:0.22483 33:0.00525 34:0.03774 35:0.00979 36:0.01264 37:0.00066 39:0.00085 40:0.00035 41:0.00035 42:0.00104 43:0.02326 44:0.05911 45:0.00042 46:0.01217 47:0.00098 48:0.00433 51:0.00046 52:0.00039 54:0.00082 56:0.03759 57:0.00084 59:0.0014 61:0.00037 64:0.00124 67:0.00386 68:0.02376 69:0.0011 70:0.00231 71:0.0016 72:0.00409 79:0.00441 80:0.02581 81:0.00147 82:0.00454 83:0.00165 84:0.00159 91:0.00409 92:0.02096 93:0.00263 94:0.00234 95:0.00062 96:0.00155 
-4.025267707678273 -0 0 0 1:0.33656 2:0.00299 3:0.05366 4:0.07726 5:0.00179 6:0.01566 7:2.00241 8:0.00612 9:0.14365 10:0.05213 11:0.05602 12:0.29366 13:0.00165 16:0.00833 17:0.00132 19:0.04493 20:0.21871 21:0.03986 22:0.08561 23:0.00251 24:0.00085 25:0.00052 28:0.0007 30:0.00045 31:0.02836 32:0.02999 33:0.01299 34:0.03478 35:0.00104 36:0.00232 42:0.00042 43:0.01149 44:0.01205 45:0.00141 46:0.00408 55:0.00468 56:0.00936 57:0.00127 58:0.00185 60:0.00051 67:0.00415 68:0.00698 69:0.0011 70:0.00307 71:0.00034 79:0.00119 80:0.00287 81:0.00046 82:0.00038 83:0.00044 84:0.0004 91:0.00265 92:0.00538 93:0.0012 94:0.00121 95:0.00039 
-8 -0 4.246213273372913 1.454608540415459 1:0.40258 2:0.00316 3:0.07842 4:0.14187 5:0.00497 6:0.01241 7:1.16399 8:0.16787 9:0.16066 10:0.26448 11:0.00066 12:0.17553 13:0.00055 16:0.00037 18:0.00031 19:0.59587 20:0.06533 21:0.00951 22:0.13328 23:0.00055 24:0.0092 28:0.00072 30:0.0012 31:0.15596 32:0.01425 33:0.0214 34:0.06968 35:0.00249 36:0.0136 40:0.00034 43:0.06825 44:0.00238 45:0.00548 46:0.04841 47:0.00067 48:0.00066 54:0.0003 55:0.144 56:0.0114 57:0.01609 58:0.03742 59:0.00206 60:0.0053 66:0.00033 67:0.05215 68:0.00229 69:0.00237 70:0.03301 71:0.00447 72:0.00147 79:0.02548 80:0.00439 81:0.00469 82:0.01375 83:0.00049 91:0.01066 92:0.00231 93:0.00395 94:0.00283 96:0.00033 
-8 -0 5.654493403991223 0 1:0.40025 2:0.00586 3:0.03288 4:0.11078 5:0.00345 6:0.00105 7:1.09834 8:0.28808 9:0.0558 10:0.30691 11:0.00088 12:0.19797 13:0.00049 15:0.0012 16:0.00135 18:0.00425 19:0.4847 20:0.13478 21:0.02489 22:0.03182 23:0.00591 24:0.00064 25:0.00086 28:0.00395 29:0.0004 30:0.00264 31:0.10198 32:0.02692 33:0.05119 34:0.03068 35:0.00069 36:0.0189 43:0.02987 44:0.00195 45:0.00272 46:0.02172 47:0.00143 48:0.02019 52:0.00135 55:0.11694 56:0.02263 57:0.01399 58:0.03694 59:0.00268 60:0.00041 67:0.03838 68:0.00853 69:0.00397 70:0.01078 71:0.00031 72:0.00138 79:0.05475 80:0.00338 81:0.0054 82:0.01237 83:0.00363 91:0.10224 92:0.01009 93:0.00712 94:0.01088 95:0.00207 
-8 -0 0 0 1:0.34838 2:0.00299 3:0.0483 4:0.10519 5:0.00215 6:0.01247 7:1.56702 8:0.25608 9:0.04713 10:0.18795 11:0.00994 12:0.23183 13:0.00035 16:0.00057 18:0.00123 19:0.20254 20:0.04666 21:0.01653 22:0.01074 23:0.00112 28:0.00156 31:0.08134 32:0.00081 33:0.01267 34:0.00856 35:0.00066 36:0.00603 43:0.0264 44:0.00592 45:0.00166 46:0.04384 47:0.00078 48:0.00176 55:0.06831 56:0.00343 57:0.01914 58:0.02016 59:0.00237 60:0.00044 67:0.0528 68:0.00194 69:0.00883 70:0.01293 71:0.00362 72:0.00063 79:0.01052 80:0.00265 81:0.00248 82:0.02862 83:0.00039 91:0.01349 92:0.00162 93:0.00169 94:0.00832 96:0.00034 
-2.115173516124223 -0 -0 0 1:1.3931 2:0.05352 3:0.00212 4:0.0793 5:0.1482 6:0.88103 7:0.0189 8:0.00276 9:0.00754 10:0.18756 11:0.00716 12:0.01878 13:0.00885 14:0.03237 15:0.00575 16:0.04216 17:0.00544 18:0.00092 22:0.00315 25:0.00283 26:0.00367 27:0.00064 28:0.02486 29:0.0048 34:0.00044 36:0.00099 37:0.00176 38:0.00077 39:0.00064 40:0.01354 42:0.00106 46:0.00037 47:0.00065 50:0.0012 52:0.00119 53:0.00211 54:0.00101 62:0.00083 64:0.00164 65:0.00177 66:0.00045 70:0.0003 74:0.00174 75:0.00034 76:0.00063 77:0.00037 86:0.00056 88:0.00152 89:0.00058 
-8 -0 -8 0 1:1.38441 2:0.10811 3:0.07562 4:0.0104 5:0.18248 6:0.48965 8:0.00234 9:0.00527 10:0.17721 11:0.01185 12:0.01365 13:0.0134 14:0.00822 15:0.0127 16:0.0131 17:0.001 18:0.05018 22:0.00125 23:0.00031 24:0.00042 25:0.00373 28:0.00266 29:0.00051 30:0.00626 34:0.00073 37:0.004 38:0.00033 39:0.00179 40:0.0018 41:0.00034 42:0.00465 48:0.00046 53:0.00033 54:0.00075 60:0.0003 61:0.00045 64:0.00083 66:0.00065 73:0.0006 75:0.0005 76:0.0007 78:0.00048 87:0.0003 90:0.00081 
-8 -0 -8 8 1:0.71908 2:0.17452 3:0.00643 4:0.10926 5:0.2618 6:1.10568 7:0.00067 8:0.00092 10:0.20735 11:0.01059 12:0.00281 13:0.0044 14:0.04312 15:0.03516 16:0.00643 18:0.00301 19:0.00144 21:0.00035 22:0.00961 23:0.00181 25:0.00144 26:0.01237 27:0.00516 28:0.00036 29:0.00082 30:0.00033 34:0.00261 36:0.00038 37:0.00085 38:0.005 39:0.00336 41:0.00085 46:0.00097 49:0.00044 50:0.0025 51:0.00132 52:0.00033 61:0.00032 62:0.00224 63:0.0012 70:0.0005 74:0.00184 75:0.0011 82:0.00055 86:0.00077 87:0.00151 
-8 -8 -8 0 1:1.01036 2:0.25173 3:0.11704 4:0.00211 5:0.3068 6:0.68877 8:0.00164 10:0.17566 11:0.01272 12:0.00218 13:0.01 14:0.00644 15:0.06592 16:0.01098 18:0.01514 22:0.00459 23:0.00035 25:0.00044 27:0.00253 28:0.00265 30:0.00547 31:0.0007 34:0.0034 36:0.00056 39:0.00312 40:0.00104 42:0.00152 43:0.00064 46:0.00047 48:0.00059 49:0.00059 50:0.0008 51:0.00229 52:0.00211 54:0.0003 58:0.0003 60:0.00064 63:0.00166 64:0.0004 66:0.0005 73:0.0003 75:0.00113 76:0.00068 87:0.0013 90:0.00047 
-8 -0 -0 0 1:1.10168 2:0.22787 3:0.05728 4:0.00916 5:0.13301 6:0.95836 7:0.00104 8:0.00218 9:0.00065 10:0.13323 11:0.00751 12:0.00527 13:0.00271 14:0.00987 15:0.0076 16:0.00951 17:0.00114 18:0.00477 19:0.0006 22:0.00379 24:0.00034 26:0.00159 27:0.00437 28:0.00207 31:0.00061 34:0.00431 38:0.00082 39:0.00208 40:0.00039 41:0.00058 43:0.00037 49:0.00104 50:0.0006 51:0.00084 53:0.00036 54:0.00032 58:0.00056 62:0.00053 63:0.00034 65:0.00031 70:0.00066 75:0.00038 76:0.00034 78:0.00038 87:0.00034 94:0.00052 
-8 -0 -3.304163408313804 0 1:1.37456 2:0.18062 3:0.10305 4:0.008 5:0.21648 6:0.62113 7:0.00751 8:0.00276 9:0.00218 10:0.1858 11:0.01467 12:0.01143 13:0.01834 14:0.00226 15:0.01274 16:0.01021 17:0.00111 18:0.02322 19:0.0005 21:0.00112 22:0.00146 24:0.00045 25:0.00222 26:0.00044 28:0.00343 29:0.0008 30:0.00611 34:0.00102 39:0.00083 40:0.00037 42:0.00246 46:0.00059 48:0.00037 52:0.00053 54:0.00288 58:0.00032 61:0.00277 63:0.00083 64:0.00046 66:0.00137 73:0.00112 75:0.00073 78:0.0006 81:0.00039 85:0.00075 87:0.00064 90:0.00101 
-8 -0 -0 0 1:1.46061 2:0.18233 3:0.15919 4:0.01618 5:0.24352 6:0.74355 7:0.0032 8:0.00372 9:0.00961 10:0.09873 11:0.00929 12:0.009 13:0.00896 14:0.0025 15:0.01913 16:0.01357 17:0.00057 18:0.00778 19:0.00067 22:0.00458 23:0.00067 25:0.00232 26:0.00036 27:0.00898 28:0.00407 30:0.00805 31:0.00045 37:0.00069 39:0.00221 40:0.00055 42:0.00147 43:0.00034 51:0.00041 52:0.0016 54:0.00069 55:0.0003 61:0.00058 63:0.00031 64:0.00064 66:0.0014 75:0.00072 76:0.00032 78:0.0006 85:0.00044 87:0.00056 88:0.0012 90:0.00061 
-8 -0 -8 0 1:0.69873 2:0.02623 3:0.00993 4:0.04428 5:0.27636 6:1.04281 7:0.00754 8:0.00177 10:0.2376 11:0.0115 12:0.00826 13:0.00151 14:0.02301 15:0.0477 16:0.01246 17:0.00031 18:0.00473 19:0.00032 22:0.00852 25:0.00049 26:0.00606 27:0.0117 28:0.00826 33:0.00037 34:0.00242 36:0.00094 37:0.00031 38:0.00235 39:0.0031 40:0.00505 43:0.00041 46:0.00059 48:0.00055 50:0.00283 51:0.0012 52:0.00111 55:0.00034 58:0.00041 62:0.00111 63:0.00144 64:0.00074 67:0.00031 74:0.00089 75:0.00086 83:0.00034 86:0.00064 87:0.00265 
-8 -0.7983938497667403 -8 8 1:0.79271 2:0.12297 3:0.16751 4:0.00099 5:0.43116 6:0.58621 7:0.00133 8:0.00147 10:0.13736 11:0.00637 12:0.00264 13:0.0322 14:0.01096 15:0.06775 16:0.02238 17:0.00128 18:0.03219 19:0.00479 20:0.00138 21:0.0018 22:0.01367 23:0.00105 24:0.00354 25:0.01556 26:0.00213 27:0.00246 28:0.00341 30:0.01071 32:0.00035 34:0.00073 35:0.00038 37:0.00746 38:0.00033 39:0.00188 40:0.00235 42:0.00342 43:0.00044 44:0.00032 45:0.00066 46:0.0005 48:0.00106 49:0.00235 51:0.00073 52:0.00293 54:0.00118 61:0.00136 63:0.00066 64:0.00078 66:0.00223 73:0.00342 74:0.00071 75:0.00173 76:0.00092 78:0.00154 85:0.00201 86:0.00036 87:0.00139 88:0.00095 90:0.00049 
-8 -8 -8 8 1:0.51127 2:0.30729 3:0.00378 4:0.02877 5:0.35789 6:0.74754 7:0.00978 8:0.00215 9:0.00469 10:0.17393 11:0.00825 12:0.01075 13:0.00711 14:0.0178 15:0.02754 16:0.00512 17:0.00366 18:0.01152 24:0.00051 25:0.00042 26:0.00261 27:0.00774 28:0.00327 30:0.00068 34:0.0011 37:0.00048 38:0.00195 39:0.00338 40:0.0003 42:0.00089 46:0.00034 50:0.00073 51:0.00264 54:0.00059 55:0.00039 58:0.00034 62:0.00047 63:0.00139 64:0.00034 66:0.00039 75:0.00114 78:0.00061 82:0.00066 87:0.00174 
-8 -0 -0 1.238148525399823 1:0.47761 2:0.06138 3:0.00475 4:0.06871 5:0.35785 6:1.31345 7:0.0006 8:0.00276 9:0.00445 10:0.1641 11:0.00994 12:0.00257 13:0.00727 14:0.02096 15:0.0319 16:0.0193 17:0.00086 18:0.0182 19:0.00103 22:0.00354 23:0.00049 24:0.00037 25:0.00283 26:0.00325 27:0.01107 28:0.00086 29:0.0019 30:0.00049 31:0.00049 34:0.00848 37:0.00095 38:0.00033 39:0.01247 40:0.0011 42:0.00357 46:0.00198 49:0.00051 51:0.00619 52:0.0038 54:0.00117 63:0.00415 64:0.0004 74:0.00034 75:0.002 76:0.00058 85:0.00038 87:0.00245 88:0.0003 
-8 -0 -8 1.17339963192073 1:0.96469 2:0.05048 3:0.21343 4:0.00081 5:0.32727 6:0.61012 7:0.00166 8:0.00196 9:0.0006 10:0.13741 11:0.00897 12:0.00276 13:0.0512 14:0.01049 15:0.11118 16:0.06683 17:0.00158 18:0.02732 19:0.00309 20:0.00045 21:0.00125 22:0.00706 23:0.00093 24:0.00276 25:0.00763 27:0.00787 28:0.01825 29:0.00097 30:0.00787 32:0.00037 35:0.00038 36:0.00068 37:0.0041 38:0.00039 39:0.0018 40:0.00273 41:0.00196 42:0.00325 49:0.00453 50:0.00059 51:0.0015 52:0.00365 54:0.00375 57:0.0003 60:0.00041 61:0.00354 63:0.00105 64:0.00088 66:0.00162 67:0.00087 69:0.00032 71:0.00032 73:0.002 75:0.00142 76:0.00145 78:0.00094 79:0.00031 85:0.00122 87:0.00036 88:0.00096 90:0.00086 
-8 -0 -8 8 1:0.68327 2:0.13478 3:0.10517 4:0.01055 5:0.38739 6:0.69266 7:0.00367 10:0.08221 11:0.00274 12:0.004 13:0.01641 14:0.00479 15:0.06013 16:0.0051 17:0.00097 18:0.0109 21:0.00032 22:0.00407 24:0.00036 25:0.00689 27:0.00695 28:0.00948 30:0.00221 34:0.00436 37:0.00079 39:0.00473 40:0.00452 42:0.00227 45:0.00036 49:0.00067 51:0.00371 52:0.00118 54:0.00129 58:0.00105 63:0.0028 64:0.00129 66:0.00118 75:0.00099 76:0.00104 78:0.0006 85:0.00036 87:0.00169 88:0.00113 90:0.00056 
-0 -0.8853684099276331 -0 -0 1:0.0387 2:3.56977 3:0.7528 4:2.47892 5:0.92011 6:0.55216 7:0.03877 8:0.10107 9:0.20414 10:0.16971 11:0.02027 12:0.33306 13:0.17273 14:2.59275 15:0.03249 16:0.64118 17:4.45422 18:0.5028 19:0.0331 20:0.15429 21:0.07789 22:0.01076 23:0.034 24:0.17936 25:0.16212 26:1.86783 27:0.02482 28:0.72996 29:1.67809 30:0.38226 31:0.00875 32:0.12521 33:0.03545 34:0.04537 35:0.04399 36:0.09538 37:0.05231 38:2.25298 39:0.11558 40:1.34578 41:0.8198 42:0.20139 43:0.01135 44:0.1321 45:0.03587 46:0.00357 47:0.03361 48:0.10607 49:0.02928 50:2.31834 51:0.11874 52:1.75445 53:0.4819 54:0.17248 55:0.00371 56:0.09203 57:0.03903 58:0.0506 59:0.03074 60:0.07246 61:0.0259 62:2.12285 63:0.07205 64:1.96568 65:0.27 66:0.1194 67:0.00308 68:0.05664 69:0.02278 70:0.06896 71:0.02686 72:0.04574 73:0.02175 74:1.97975 75:0.03377 76:2.02795 77:0.18651 78:0.09441 79:0.0048 80:0.04465 81:0.0086 82:0.02112 83:0.02642 84:0.03849 85:0.02265 86:1.77835 87:0.01166 88:2.00054 89:0.12401 90:0.05128 91:0.00969 92:0.03548 93:0.00336 94:0.00571 95:0.01494 96:0.03163 
-0 -2.431637652131488 -0 -0 1:2.02274 2:5.53035 3:0.98358 4:3.01388 5:1.55124 6:1.23734 7:0.0411 8:0.01112 9:0.09585 10:0.00584 11:0.01834 12:0.06491 13:0.26424 14:0.44678 15:0.03181 16:0.49246 17:1.16191 18:0.53832 19:0.01002 20:0.02807 21:0.00996 22:0.02962 23:0.03174 24:0.0006 25:0.55195 26:0.09645 27:0.27263 28:0.22691 29:1.01657 30:0.28236 31:0.05459 32:0.04515 33:0.01868 34:0.22728 35:0.04423 36:0.01095 37:0.65723 38:0.55477 39:0.57713 40:0.31886 41:1.44898 42:0.1315 43:0.06971 44:0.0551 45:0.06122 46:0.24398 47:0.02915 48:0.00939 49:0.33656 50:1.20798 51:0.89347 52:0.12581 53:2.01589 54:0.01694 55:0.08251 56:0.05437 57:0.0686 58:0.19111 59:0.02187 60:0.01644 61:0.02251 62:1.46668 63:1.04569 64:0.07598 65:2.14994 66:0.10067 67:0.0601 68:0.0542 69:0.0597 70:0.16082 71:0.01214 72:0.01952 73:0.14195 74:1.2064 75:1.04477 76:0.53486 77:1.94523 78:0.41157 79:0.03879 80:0.03201 81:0.04705 82:0.07389 83:0.00444 84:0.02545 85:0.61641 86:0.78227 87:0.88874 88:1.22551 89:1.54304 90:0.7554 91:0.03007 92:0.01588 93:0.01957 94:0.02578 95:0.00305 96:0.02099 
-0 -0.280716053849016 -0 -0 1:0.60094 2:0.88076 3:0.87194 4:1.88246 5:1.9367 6:0.59725 7:0.19661 8:0.01668 9:0.03723 10:0.16721 11:0.00929 12:0.06934 13:0.16523 14:3.32853 15:1.58158 16:6.0341 17:3.5853 18:1.34242 19:0.06951 20:0.00415 21:0.0009 22:0.29816 23:0.01834 24:0.05127 25:2.07615 26:6.47825 27:3.70568 28:2.51978 29:3.47888 30:0.45018 31:0.08042 32:0.06925 33:0.00877 34:0.50537 35:0.00165 36:0.03358 37:0.49087 38:3.08681 39:0.6979 40:1.96342 41:2.27493 42:0.50253 43:0.00103 44:0.01528 45:0.01582 46:0.03182 47:0.00766 48:0.04266 49:0.02284 50:2.47129 51:1.11484 52:2.77641 53:0.81974 54:0.19282 55:0.01782 56:0.01639 57:0.00343 58:0.00862 59:0.0117 60:0.0189 61:0.09223 62:1.32549 63:0.25781 64:2.61977 65:0.49945 66:0.21084 67:0.00983 68:0.02073 69:0.00547 70:0.01134 71:0.01258 72:0.04052 73:0.02967 74:0.80922 75:0.26719 76:0.97739 77:0.56319 78:0.47713 79:0.01143 80:0.00783 81:0.00416 82:0.0027 83:0.00681 84:0.01992 85:0.01372 86:0.41918 87:0.13161 88:0.45633 89:0.59439 90:0.18614 91:0.00221 92:0.00239 93:0.00993 94:0.00109 95:0.0055 96:0.01162 
-0 -0.4727330287572885 -0 -0 1:0.28768 2:0.87203 3:2.61416 4:0.24718 5:3.38868 6:0.77477 7:0.06281 8:0.01287 9:0.12787 10:0.05706 11:0.0187 12:0.1841 13:0.39317 14:2.95339 15:2.37146 16:0.91111 17:2.46327 18:1.62236 19:0.03661 20:0.02014 21:0.00167 22:0.17548 23:0.00105 24:0.01196 25:0.01634 26:2.54909 27:1.33929 28:1.85757 29:3.19881 30:2.248 31:0.03016 32:0.03685 33:0.03704 34:0.18414 35:0.01209 36:0.04563 37:0.03935 38:2.16175 39:0.54886 40:4.0643 41:1.48067 42:1.82073 43:0.00413 44:0.01986 45:0.09738 46:0.07994 47:0.01469 48:0.09427 49:0.10751 50:1.59018 51:0.05675 52:3.33499 53:0.36097 54:0.5248 55:0.00581 56:0.01568 57:0.03228 58:0.02903 59:0.02176 60:0.05972 61:0.13637 62:1.59863 63:0.13541 64:0.94432 65:0.97477 66:0.17672 67:0.00709 68:0.01387 69:0.01265 70:0.01926 71:0.02085 72:0.02618 73:0.05728 74:0.89947 75:0.48494 76:0.44267 77:1.57234 78:0.8896 79:0.01183 80:0.0065 81:0.02997 82:0.00438 83:0.00144 84:0.01641 85:0.01118 86:0.63057 87:0.94026 88:0.28008 89:2.26034 90:0.37182 91:0.00736 92:0.00381 93:0.01847 94:0.00503 95:0.00422 96:0.02299 
-0 -0 -0 -0.0900032100665721 1:0.69198 2:1.52902 3:0.70071 4:0.68202 5:0.26468 6:1.65365 7:0.19018 8:0.01439 9:0.01548 10:0.01286 11:0.01405 12:0.02733 13:0.02284 14:0.07593 15:0.70626 16:0.26671 17:0.72748 18:0.83642 19:0.03971 20:0.01562 21:0.00298 22:0.19717 23:0.0014 24:0.01002 25:0.27163 26:2.47596 27:0.21288 28:1.22891 29:3.02808 30:1.93095 31:0.09271 32:0.06557 33:0.02691 34:0.57479 35:0.0267 36:0.02674 37:0.49529 38:1.81647 39:1.36731 40:0.75179 41:0.80322 42:1.03568 43:0.04017 44:0.03264 45:0.04801 46:0.19026 47:0.02325 48:0.03021 49:0.55534 50:2.31439 51:1.4595 52:2.41613 53:0.74885 54:0.13953 55:0.01332 56:0.01243 57:0.01081 58:0.23232 59:0.02819 60:0.03085 61:0.87021 62:1.90496 63:1.15603 64:1.33414 65:0.60393 66:0.19285 67:0.01131 68:0.0126 69:0.01328 70:0.06862 71:0.02501 72:0.02397 73:0.86155 74:1.07415 75:0.60578 76:1.19404 77:0.28942 78:0.1563 79:0.0133 80:0.00699 81:0.00497 82:0.03384 83:0.00183 84:0.01021 85:0.37855 86:1.50749 87:0.20152 88:1.29735 89:0.22387 90:0.43484 91:0.01243 92:0.00193 93:0.01395 94:0.01205 95:0.01318 96:0.00259 
-8 -8 -8 -8 1:0.13976 2:0.61588 3:0.02 4:1.14606 5:0.3438 6:0.31718 7:0.01935 8:0.00474 9:0.05842 10:0.00059 11:0.00475 12:0.06255 13:0.14522 14:0.56068 15:0.05361 16:0.26001 17:0.27473 18:0.09146 19:0.00405 20:0.00075 21:0.00533 22:0.01835 24:0.01143 25:0.04205 26:0.23935 27:0.01962 28:0.11599 29:0.22114 30:0.02533 31:0.00344 32:0.00239 33:0.00956 34:0.00769 35:0.00181 36:0.0136 37:0.14199 38:0.16066 39:0.01092 40:0.11108 41:0.16196 42:0.00589 43:0.00135 44:0.00163 45:0.00997 46:0.00155 47:0.00206 48:0.01376 49:0.19397 50:0.12483 51:0.01828 52:0.16001 53:0.10882 54:0.01766 56:0.00047 57:0.00495 58:0.00069 59:0.0015 60:0.00375 61:0.16324 62:0.08222 63:0.01761 64:0.11957 65:0.05021 66:0.02441 67:0.00065 69:0.00033 71:0.00075 72:0.00102 73:0.11425 74:0.02056 75:0.00525 76:0.04974 77:0.02674 78:0.00941 79:0.00135 81:0.00075 82:0.0003 84:0.00318 85:0.12029 86:0.01037 87:0.0104 88:0.03417 89:0.00971 90:0.00335 91:0.00095 92:0.0007 93:0.0004 94:0.00083 95:0.00182 96:0.00165 
-3.25723412727411 -8 -0 -0 1:0.25031 2:0.5067 3:0.032 4:1.68415 5:0.35347 6:0.20996 7:0.08492 8:0.00088 9:0.05843 10:0.02094 11:0.00364 12:0.11413 13:0.19684 14:1.06803 15:0.02217 16:0.81079 17:0.53874 18:0.09851 19:0.00159 20:0.00222 22:0.00512 23:0.0008 24:0.00283 25:0.18798 26:0.46345 27:0.0364 28:0.56481 29:0.21884 30:0.04883 31:0.00243 32:0.00142 33:0.00125 34:0.00202 35:0.00246 36:0.00506 37:0.20138 38:0.23501 39:0.04001 40:0.29214 41:0.1592 42:0.0185 43:0.00296 44:0.00038 45:0.00385 47:0.00238 48:0.01456 49:0.21969 50:0.16945 51:0.02742 52:0.1984 53:0.12286 54:0.00117 55:0.00345 56:0.00044 57:0.00394 58:0.00143 59:0.0028 60:0.01734 61:0.2379 62:0.13723 63:0.02568 64:0.14409 65:0.07723 66:0.00196 67:0.00232 69:0.0022 70:0.00062 71:0.00389 72:0.01355 73:0.23791 74:0.11682 75:0.02883 76:0.14884 77:0.05064 78:0.00036 79:0.00122 81:0.00227 82:0.00083 83:0.00342 84:0.01005 85:0.23198 86:0.09163 87:0.03099 88:0.20495 89:0.02297 90:0.0034 91:0.00102 92:0.00044 93:0.00046 94:0.00098 95:0.00148 96:0.00404 
-8 -0 -8 -8 1:0.01825 2:0.69694 3:0.12193 4:1.36805 5:0.30041 6:0.23615 7:0.12457 8:0.00276 9:0.02292 10:0.01322 11:0.00138 12:0.04115 13:0.10469 14:0.28202 15:0.07432 16:0.38883 17:0.16813 18:0.08172 19:0.00293 21:0.00109 22:0.03076 24:0.00916 25:0.04873 26:0.17806 27:0.18117 28:0.53461 29:0.09933 30:0.02184 31:0.01 32:0.00093 33:0.0017 34:0.02847 36:0.01313 37:0.1414 38:0.17853 39:0.12719 40:0.34514 41:0.10601 42:0.02179 43:0.0031 44:0.00051 45:0.00514 46:0.01834 47:0.00033 48:0.01569 49:0.10751 50:0.12075 51:0.04235 52:0.23586 53:0.06413 54:0.02895 57:0.00456 58:0.00302 59:0.00049 60:0.00688 61:0.04221 62:0.06337 63:0.09963 64:0.11945 65:0.0524 66:0.0058 67:0.00139 68:0.00035 69:0.0021 72:0.00134 73:0.02202 74:0.02598 75:0.16841 76:0.0235 77:0.04494 78:0.0064 81:0.00046 82:0.00116 84:0.00138 85:0.0067 86:0.01608 87:0.1528 88:0.00871 89:0.02902 90:0.00728 93:0.00045 94:0.00095 96:0.00098 
-8 -7.088661318011106 -8 -8 1:0.05716 2:0.45252 3:0.10698 4:1.17429 5:0.31846 6:0.2368 7:0.11136 8:0.00073 9:0.06086 10:0.01501 11:0.00092 12:0.04492 13:0.1073 14:0.49536 15:0.07376 16:0.51878 17:0.27654 18:0.0769 19:0.00058 20:0.00084 21:0.0033 22:0.00838 23:0.00039 24:0.01442 25:0.04811 26:0.12376 27:0.07897 28:0.54317 29:0.13311 30:0.02029 31:0.00321 32:0.00171 33:0.00653 34:0.01706 35:0.00063 36:0.01394 37:0.09391 38:0.16028 39:0.07395 40:0.3523 41:0.16429 43:0.00175 44:0.00166 45:0.00827 46:0.01197 47:0.00177 48:0.00886 49:0.0797 50:0.19334 51:0.084 52:0.14074 53:0.18179 54:0.00314 56:0.00088 57:0.01101 58:0.00218 59:0.00044 60:0.00526 61:0.03194 62:0.13512 63:0.10657 64:0.03205 65:0.1002 66:0.00389 67:0.00343 68:0.001 69:0.0054 71:0.00076 72:0.0024 73:0.0245 74:0.0659 75:0.1147 76:0.00332 77:0.031 78:0.00379 79:0.00256 80:0.00097 81:0.00291 82:0.00168 83:0.00037 84:0.00154 85:0.04342 86:0.04153 87:0.09785 88:0.00581 89:0.01907 90:0.0021 91:0.00113 92:0.0003 93:0.00268 94:0.00124 96:0.00161 
-8 -0 -2.781301054571114 -2.321544947253981 1:0.03934 2:0.40508 3:0.07011 4:1.63965 5:0.41959 6:0.19091 7:0.10004 8:0.00047 9:0.03392 11:0.00118 12:0.07011 13:0.21056 14:0.50803 15:0.05101 16:0.5167 17:0.23775 18:0.06283 20:0.0007 21:0.00241 22:0.00046 24:0.0066 25:0.12272 26:0.15591 27:0.08039 28:0.25888 29:0.09567 30:0.01201 31:0.00317 32:0.00163 33:0.00657 34:0.00226 35:0.00099 36:0.01461 37:0.11306 38:0.10003 39:0.03808 40:0.15391 41:0.0939 42:0.00186 43:0.00252 44:0.00092 45:0.0083 46:0.0038 47:0.00056 48:0.01718 49:0.15848 50:0.082 51:0.01271 52:0.07241 53:0.07517 54:0.00215 55:0.00325 56:0.00121 57:0.00748 58:0.00452 59:0.00059 60:0.01143 61:0.1726 62:0.04339 63:0.01159 64:0.02427 65:0.06187 67:0.00339 68:0.00096 69:0.00713 70:0.00383 72:0.0062 73:0.1378 74:0.01078 75:0.03417 76:0.00394 77:0.03877 78:0.00144 79:0.00204 81:0.00684 82:0.00179 84:0.00178 85:0.07473 86:0.00588 87:0.06041 88:0.00697 89:0.02667 90:0.0045 91:0.00145 92:0.00031 93:0.00269 94:0.00061 
-8 -0 -8 -8 1:0.01656 2:0.68921 3:0.03611 4:1.5346 5:0.30544 6:0.33417 7:0.12003 8:0.00177 9:0.03451 10:0.0041 11:0.00095 12:0.05655 13:0.11029 14:0.19821 15:0.12231 16:0.25751 17:0.08029 18:0.05559 19:0.00096 20:0.00053 21:0.00117 22:0.00725 24:0.0098 25:0.05318 26:0.04693 27:0.07452 28:0.19349 29:0.037 30:0.01066 31:0.00281 32:0.00038 33:0.00282 34:0.00556 35:0.00034 36:0.00917 37:0.0828 38:0.02719 39:0.01556 40:0.13357 41:0.04899 42:0.01834 43:0.00163 44:0.00039 45:0.00279 46:0.00717 47:0.00049 48:0.00821 49:0.10517 50:0.00949 51:0.0127 52:0.06897 53:0.02766 54:0.0039 57:0.00185 58:0.00195 60:0.00179 61:0.07183 62:0.00037 63:0.03389 64:0.03045 65:0.0128 66:0.00435 69:0.00049 70:0.00087 73:0.03067 74:0.00076 75:0.0276 76:0.00722 77:0.00441 78:0.00766 81:0.00039 84:0.00117 85:0.00658 86:0.00245 87:0.02219 88:0.00147 89:0.00382 90:0.00639 93:0.00066 94:0.00034 
