svm_type c_svc
kernel_type rbf
gamma 0.0078125
nr_class 3
total_sv 31
rho 1.04489 1.10315 -0.36401
label 46 49 53
nr_sv 12 6 13
SV
0 8 1:0.06445 2:0.03223 3:-0.02417 4:-0.08862 5:-0.01611 6:0.06445 7:-0.00806 8:-0.06445 9:-0.0564 10:0.09668 11:0.07251 12:-0.00806 13:0.04834 14:0.02417 15:0.00806 16:-0.10474 17:-0.00806 18:0.04834 19:0.00806 20:-0.06445 21:-0.06445 22:0.11279 23:0.04834 24:-0.03223 25:0.04834 26:0.02417 27:0.02417 28:-0.16113 29:-0.01611 30:0.03223 31:-0.01611 32:-0.04028 33:-0.06445 34:0.12891 35:0.07251 36:-0.02417 37:0.03223 38:0.03223 39:0.02417 40:-0.14502 41:-0.01611 42:0.04834 43:-0.02417 44:-0.04028 45:-0.04834 46:0.12891 47:0.07251 48:-0.02417 49:0.00806 50:0.03223 51:0.04834 52:-0.14502 53:-0.01611 54:0.0564 55:-0.02417 56:-0.04028 57:-0.04834 58:0.12891 59:0.07251 60:-0.01611 61:-0.01611 62:0.04834 63:0.0564 64:-0.12085 66:0.04834 67:-0.02417 68:-0.03223 69:-0.06445 70:0.12891 71:0.07251 72:-0.02417 73:-0.02417 74:0.04028 75:0.03223 76:-0.10474 77:0.01611 78:0.0564 79:-0.02417 80:-0.02417 81:-0.07251 82:0.12891 83:0.09668 84:-0.01611 85:-0.00806 86:0.04028 88:-0.12085 89:0.02417 90:0.04028 91:-0.04028 92:-0.02417 93:-0.08057 94:0.12891 95:0.07251 96:-0.03223 97:-0.00806 98:0.02417 99:-0.00806 100:-0.12085 101:-0.00806 102:0.02417 103:-0.04028 104:-0.00806 105:-0.07251 106:0.12085 107:0.08057 108:-0.02417 109:0.02417 110:0.01611 111:-0.00806 112:-0.08862 113:-0.01611 114:0.01611 115:-0.04834 116:-0.00806 117:-0.07251 118:0.09668 119:0.08057 120:-0.01611 121:0.03223 122:0.01611 123:-0.00806 124:-0.07251 125:-0.01611 126:0.01611 127:-0.04834 128:-0.02417 129:-0.06445 130:0.10474 131:0.08862 132:-0.00806 133:0.03223 134:0.00806 135:0.00806 136:-0.0564 137:-0.01611 138:0.01611 139:-0.0564 140:-0.03223 141:-0.06445 142:0.10474 143:0.08057 145:0.03223 146:0.01611 147:0.00806 148:-0.0564 149:-0.00806 150:0.01611 151:-0.09668 152:-0.02417 153:-0.0564 154:0.11279 155:0.08862 156:0.00806 157:0.02417 158:0.02417 160:-0.06445 161:0.01611 163:-0.11279 164:-0.04834 165:-0.03223 166:0.0564 167:0.09668 168:0.02417 169:0.01611 170:0.03223 171:-0.00806 172:-0.0564 173:0.02417 174:-0.00806 175:-0.12891 176:-0.04834 177:-0.04834 178:0.04028 179:0.08862 180:0.02417 181:0.00806 182:0.04028 183:-0.00806 184:-0.03223 185:0.01611 186:-0.02417 187:-0.12891 188:-0.04028 189:-0.07251 190:0.0564 191:0.09668 192:0.03223 193:0.00806 194:0.04028 195:-0.01611 196:-0.01611 197:0.01611 198:-0.04028 199:-0.12085 200:-0.04834 201:-0.0564 202:0.07251 203:0.09668 204:0.04028 205:0.02417 206:0.02417 207:-0.02417 208:-0.01611 209:0.01611 210:-0.02417 211:-0.11279 212:-0.04028 213:-0.04834 214:0.06445 215:0.10474 216:0.04028 217:0.03223 218:0.02417 219:-0.01611 221:0.00806 222:-0.01611 223:-0.13696 224:-0.0564 225:-0.04028 226:0.0564 227:0.10474 228:0.04834 229:0.02417 230:0.02417 231:-0.01611 234:-0.02417 235:-0.13696 236:-0.04028 237:-0.02417 238:0.07251 239:0.09668 240:0.0564 241:0.02417 242:0.02417 243:-0.04028 244:-0.01611 245:-0.01611 246:-0.02417 247:-0.15308 248:-0.0564 249:-0.03223 250:0.06445 251:0.08862 252:0.04028 253:0.02417 254:0.01611 255:-0.01611 256:-0.00806 258:-0.02417 259:-0.13696 260:-0.04834 261:-0.04028 262:0.07251 263:0.08862 264:0.06445 265:0.04028 266:0.02417 267:-0.00806 270:-0.02417 271:-0.13696 272:-0.04028 273:-0.04028 274:0.10474 275:0.08862 276:0.06445 277:0.02417 278:0.02417 279:-0.01611 281:0.00806 282:-0.02417 283:-0.13696 284:-0.02417 285:-0.04028 286:0.12085 287:0.08862 288:0.0564 
0 8 1:0.17725 2:0.00806 3:0.04028 4:0.06445 5:-0.00806 6:0.04834 7:0.03223 8:-0.04834 9:-0.06445 10:0.21753 11:0.04028 12:-0.04834 13:0.1853 14:0.01611 15:0.03223 16:0.01611 17:-0.00806 18:0.04834 19:0.0564 20:-0.06445 21:-0.06445 22:0.23364 23:0.04028 24:-0.0564 25:0.16919 26:0.02417 29:-0.00806 30:0.06445 31:0.04834 32:-0.0564 33:-0.0564 34:0.22559 35:0.04834 36:-0.03223 37:0.16113 38:0.02417 39:-0.02417 41:0.00806 42:0.07251 43:0.04834 44:-0.06445 45:-0.0564 46:0.21753 47:0.04834 48:-0.03223 49:0.15308 50:0.02417 51:-0.0564 52:-0.04028 53:-0.00806 54:0.0564 55:0.01611 56:-0.0564 57:-0.04028 58:0.1853 59:0.0564 61:0.22559 62:0.03223 63:-0.08057 64:-0.08862 65:-0.02417 66:0.02417 67:0.04028 68:-0.03223 69:-0.04834 70:0.16919 71:0.06445 72:-0.01611 73:0.04028 74:0.04028 75:0.01611 76:-0.02417 77:0.00806 78:0.04834 79:0.02417 80:-0.03223 81:-0.04028 82:0.17725 83:0.0564 84:-0.00806 86:0.02417 87:-0.03223 88:0.00806 89:0.03223 90:0.07251 91:0.01611 92:-0.04028 93:-0.04834 94:0.1853 95:0.07251 97:0.06445 98:0.04834 99:-0.02417 100:-0.06445 101:0.00806 102:0.06445 103:0.02417 104:-0.04834 105:-0.0564 106:0.1853 107:0.07251 108:-0.01611 109:0.08862 110:0.07251 111:0.04028 112:-0.08862 113:0.03223 114:0.06445 115:0.04834 116:-0.07251 117:-0.09668 118:0.16919 119:0.04834 120:-0.0564 121:0.08862 122:0.0564 123:0.04834 124:-0.08057 125:0.04028 126:0.06445 127:0.0564 128:-0.04834 129:-0.10474 130:0.16919 131:0.0564 132:-0.0564 133:0.08862 134:0.04834 135:0.02417 136:-0.04834 137:0.04028 138:0.08057 139:0.04834 140:-0.0564 141:-0.11279 142:0.1853 143:0.04028 144:-0.09668 145:0.08057 146:0.04028 148:-0.02417 149:0.01611 150:0.0564 151:-0.01611 152:-0.01611 153:-0.08862 154:0.13696 155:0.07251 156:-0.12085 157:0.08862 158:0.04028 159:-0.00806 160:-0.04834 161:-0.00806 162:0.01611 163:-0.04834 164:-0.02417 165:-0.08862 166:0.08057 167:0.08057 168:-0.11279 169:0.08057 170:0.02417 171:-0.02417 172:-0.04834 173:-0.02417 174:0.00806 175:-0.06445 176:-0.03223 177:-0.09668 178:0.04028 179:0.07251 180:-0.10474 181:0.04834 182:0.02417 183:-0.03223 184:-0.01611 185:-0.01611 186:-0.01611 187:-0.11279 188:-0.01611 189:-0.10474 190:0.04834 191:0.07251 192:-0.10474 193:0.00806 194:0.01611 195:-0.0564 196:-0.08057 197:-0.01611 199:-0.02417 200:-0.20142 201:-0.19336 202:0.11279 203:0.08057 204:0.1853 205:0.03223 206:0.02417 207:-0.01611 208:-0.12085 209:-0.01611 210:0.01611 211:-0.24976 212:0.04028 213:0.10474 214:0.03223 215:0.12891 216:0.09668 217:0.01611 218:0.04028 219:0.00806 220:-0.12891 222:0.02417 223:-0.08862 224:0.01611 225:0.11279 226:0.04834 227:0.09668 228:0.10474 229:0.01611 230:0.02417 231:-0.00806 232:-0.12891 233:-0.00806 234:0.03223 235:-0.08862 236:0.01611 237:0.04028 238:0.14502 239:0.10474 240:0.11279 241:-0.01611 242:0.00806 243:-0.04028 244:-0.12085 246:0.03223 247:-0.07251 248:0.00806 249:-0.04028 250:0.16113 251:0.09668 252:0.11279 253:0.02417 254:0.02417 255:0.00806 256:-0.11279 259:-0.07251 260:0.00806 261:-0.04028 262:0.13696 263:0.09668 264:0.08862 265:-0.02417 266:0.03223 267:-0.03223 268:-0.11279 269:-0.00806 270:-0.0564 271:-0.10474 272:0.00806 273:-0.0564 274:0.09668 275:0.09668 276:0.07251 277:-0.0564 279:-0.11279 280:-0.14502 281:-0.04028 282:-0.12085 283:-0.10474 284:-0.02417 285:-0.03223 286:0.04834 287:0.08862 288:0.0564 
0 8 1:0.12085 2:0.04028 3:-0.03223 5:0.02417 6:0.03223 7:-0.08057 8:-0.02417 9:-0.03223 10:0.17725 11:0.08057 12:0.06445 13:0.12891 14:0.04028 15:-0.03223 16:0.01611 17:0.03223 18:0.04028 19:-0.08862 20:-0.04028 21:-0.08862 22:0.09668 23:0.0564 24:-0.02417 25:0.11279 26:0.03223 27:-0.02417 28:0.00806 29:0.01611 30:0.04028 31:-0.07251 32:-0.06445 33:-0.10474 34:0.08057 35:0.06445 36:-0.06445 37:0.11279 38:0.02417 39:-0.02417 40:0.00806 41:0.02417 42:0.04834 43:-0.0564 44:-0.0564 45:-0.08862 46:0.10474 47:0.06445 48:-0.06445 49:0.11279 50:0.02417 51:-0.04028 52:0.00806 53:0.02417 54:0.04028 55:-0.0564 56:-0.0564 57:-0.07251 58:0.12085 59:0.07251 60:-0.07251 61:0.11279 62:0.03223 63:-0.01611 64:0.00806 65:0.02417 66:0.04834 67:-0.04834 68:-0.04028 69:-0.07251 70:0.11279 71:0.08057 72:-0.0564 73:0.12891 74:0.02417 75:-0.01611 77:0.00806 78:0.07251 79:-0.04834 80:-0.04834 81:-0.09668 82:0.13696 83:0.08057 84:-0.06445 85:0.12891 86:0.02417 87:-0.01611 89:0.01611 90:0.08057 91:-0.04028 92:-0.04028 93:-0.10474 94:0.12085 95:0.08057 96:-0.08057 97:0.15308 98:0.04028 100:0.01611 101:0.02417 102:0.10474 103:-0.00806 104:-0.0564 105:-0.12891 106:0.11279 107:0.06445 108:-0.08862 109:0.15308 110:0.03223 111:-0.01611 112:0.04834 113:0.03223 114:0.10474 115:-0.01611 116:-0.06445 117:-0.11279 118:0.12085 119:0.07251 120:-0.09668 121:0.16113 122:0.02417 123:-0.01611 124:0.04834 125:0.0564 126:0.09668 128:-0.06445 129:-0.12085 130:0.14502 131:0.0564 132:-0.08862 133:0.15308 134:0.02417 135:-0.03223 136:0.08057 137:0.04028 138:0.09668 139:-0.07251 140:-0.02417 141:-0.09668 142:0.15308 143:0.0564 144:-0.07251 145:0.15308 146:0.00806 147:-0.02417 148:0.12085 149:0.02417 150:0.06445 151:-0.04834 152:-0.02417 153:-0.04834 154:0.12085 155:0.09668 156:-0.04028 157:0.16919 158:0.02417 159:-0.02417 160:0.09668 161:0.00806 162:0.04834 163:-0.08862 164:-0.03223 165:-0.0564 166:0.11279 167:0.09668 168:-0.03223 169:0.11279 170:0.00806 171:-0.04834 172:0.06445 174:0.02417 175:-0.06445 176:-0.03223 177:-0.06445 178:0.08862 179:0.08057 180:-0.04028 181:0.10474 182:0.02417 183:-0.01611 184:0.04028 185:0.00806 186:-0.01611 187:-0.0564 188:-0.04028 189:-0.07251 190:0.08862 191:0.08862 192:-0.04028 193:0.09668 194:-0.01611 195:-0.02417 196:0.01611 197:0.00806 199:-0.01611 200:-0.06445 201:-0.08862 202:0.0564 203:0.08862 204:-0.03223 205:0.11279 206:0.02417 208:0.01611 209:-0.00806 210:0.03223 211:-0.08862 212:-0.01611 213:-0.04834 214:0.06445 215:0.10474 216:-0.00806 217:0.14502 218:0.04028 219:0.00806 220:-0.03223 221:-0.00806 222:0.07251 223:-0.04028 224:-0.02417 225:-0.03223 226:0.10474 227:0.08057 228:0.03223 229:0.08057 230:0.04028 231:0.02417 232:-0.0564 234:0.09668 235:-0.04834 236:-0.03223 237:-0.02417 238:0.1853 239:0.06445 240:0.04834 241:-0.01611 242:0.01611 243:0.04028 244:-0.04834 245:0.01611 246:0.08057 247:-0.04028 248:-0.01611 249:-0.04834 250:0.23364 251:0.04834 252:0.01611 254:0.03223 255:0.00806 256:-0.15308 257:-0.01611 258:0.01611 260:-0.02417 261:-0.03223 262:0.26587 263:0.07251 264:-0.00806 265:0.01611 266:0.01611 267:-0.00806 268:-0.20947 269:-0.04028 270:-0.00806 271:0.04028 272:-0.04028 273:-0.03223 274:0.29004 275:0.04028 276:-0.03223 277:0.00806 278:0.00806 279:-0.02417 280:-0.19336 281:-0.02417 283:0.0564 284:-0.04028 285:-0.03223 286:0.33032 287:0.02417 288:-0.0564 
6.988669342347171 0 1:0.16113 3:-0.00806 4:0.0564 6:0.04834 7:-0.06445 8:-0.0564 9:-0.08862 10:0.08057 11:0.06445 12:-0.08057 13:0.15308 14:0.02417 15:0.02417 16:0.00806 17:-0.04834 18:0.0564 19:-0.04834 20:-0.0564 21:-0.08862 22:0.09668 23:0.06445 24:-0.07251 25:0.13696 26:0.02417 27:0.02417 28:-0.03223 29:-0.01611 30:0.10474 31:-0.02417 32:-0.03223 33:-0.09668 34:0.14502 35:0.04834 36:-0.04834 37:0.11279 38:0.04028 39:0.01611 40:-0.08057 41:-0.01611 42:0.12085 43:0.01611 44:-0.04834 45:-0.08057 46:0.21753 47:0.04028 48:-0.03223 49:0.08057 50:0.04834 51:0.02417 52:-0.10474 53:-0.01611 54:0.11279 55:0.04028 56:-0.04028 57:-0.07251 58:0.23364 59:0.0564 60:-0.02417 61:0.09668 62:0.03223 63:0.01611 64:-0.11279 66:0.09668 67:0.03223 68:-0.04028 69:-0.06445 70:0.24976 71:0.03223 72:-0.03223 73:0.10474 74:0.04028 75:0.02417 76:-0.15308 78:0.0564 79:0.0564 80:-0.04834 81:-0.06445 82:0.24976 83:0.04028 84:-0.04028 85:0.08862 86:0.04834 87:0.03223 88:-0.16919 90:0.04834 91:0.08057 92:-0.0564 93:-0.0564 94:0.24976 95:0.03223 96:-0.04834 97:0.03223 98:0.01611 99:0.04028 100:-0.17725 101:-0.00806 102:0.04834 103:0.09668 104:-0.0564 105:-0.08057 106:0.28198 107:0.01611 108:-0.08862 109:-0.01611 110:0.02417 111:0.00806 112:-0.1853 113:-0.03223 114:0.0564 115:0.08057 116:-0.0564 117:-0.08057 118:0.32227 119:0.03223 120:-0.08057 121:-0.03223 123:-0.02417 124:-0.20947 125:-0.0564 126:0.03223 127:0.04028 128:-0.04028 129:-0.04028 130:0.32227 131:0.04834 132:-0.04028 133:-0.03223 135:-0.01611 136:-0.21753 137:-0.04028 138:0.03223 139:0.04834 140:-0.04028 141:-0.02417 142:0.32227 143:0.0564 144:-0.04028 145:-0.02417 146:0.00806 148:-0.1853 149:-0.01611 150:0.02417 151:0.0564 152:-0.04028 153:-0.04028 154:0.29004 155:0.06445 156:-0.06445 157:-0.02417 160:-0.16919 161:-0.04028 162:0.03223 163:0.01611 164:-0.03223 165:-0.0564 166:0.26587 167:0.04834 168:-0.07251 169:-0.02417 170:0.00806 171:0.00806 172:-0.16113 173:-0.02417 174:0.03223 175:-0.00806 176:-0.01611 177:-0.07251 178:0.2417 179:0.04834 180:-0.07251 181:-0.03223 182:0.01611 183:0.01611 184:-0.15308 185:-0.01611 186:0.02417 187:-0.02417 188:-0.03223 189:-0.0564 190:0.1853 191:0.0564 192:-0.06445 194:0.01611 195:-0.00806 196:-0.15308 197:-0.01611 198:0.02417 199:-0.04028 200:-0.03223 201:-0.0564 202:0.14502 203:0.0564 204:-0.04834 205:0.02417 206:0.02417 207:-0.02417 208:-0.14502 209:-0.02417 210:0.03223 211:-0.03223 212:-0.02417 213:-0.03223 214:0.12891 215:0.04834 216:-0.04028 217:0.01611 218:0.01611 219:-0.00806 220:-0.12085 221:-0.01611 222:0.02417 223:-0.04028 224:-0.04028 225:-0.04834 226:0.12891 227:0.04028 228:-0.03223 229:0.00806 230:0.01611 231:-0.01611 232:-0.09668 233:-0.01611 234:0.02417 235:-0.0564 236:-0.04028 237:-0.04834 238:0.12891 239:0.0564 240:-0.03223 241:0.00806 242:0.01611 243:-0.02417 244:-0.11279 245:-0.02417 247:-0.0564 248:-0.02417 249:-0.04028 250:0.12891 251:0.02417 252:-0.02417 253:-0.00806 254:0.00806 255:-0.03223 256:-0.12891 257:-0.03223 258:-0.01611 259:-0.0564 260:-0.04028 261:-0.03223 262:0.15308 263:0.04834 265:-0.00806 266:0.00806 267:-0.04834 268:-0.14502 269:-0.01611 270:-0.03223 271:-0.06445 272:-0.03223 273:-0.03223 274:0.12891 275:0.0564 277:-0.00806 279:-0.0564 280:-0.16919 281:-0.04834 282:-0.03223 283:-0.08057 284:-0.04028 285:-0.04028 286:0.07251 287:0.0564 288:0.00806 
0 4.393340441617847 1:0.09668 2:0.02417 3:-0.00806 4:-0.08057 6:0.04028 7:0.06445 8:-0.04834 9:-0.06445 10:0.1853 11:0.03223 12:-0.04834 13:0.11279 14:0.04028 15:0.01611 16:-0.12085 18:0.08862 19:0.09668 20:-0.0564 21:-0.06445 22:0.23364 23:0.04028 24:-0.03223 25:0.07251 26:0.04834 27:0.0564 28:-0.14502 29:0.00806 30:0.09668 31:0.11279 32:-0.04834 33:-0.04028 34:0.2981 35:0.04028 36:-0.03223 37:0.02417 38:0.04834 39:0.04834 40:-0.14502 41:0.00806 42:0.09668 43:0.10474 44:-0.0564 45:-0.04028 46:0.30615 47:0.04028 48:-0.04028 49:0.04028 50:0.03223 51:0.04028 52:-0.17725 53:-0.00806 54:0.10474 55:0.11279 56:-0.04834 57:-0.03223 58:0.32227 59:0.06445 60:-0.04028 61:0.04028 62:0.03223 63:0.04834 64:-0.16919 65:-0.02417 66:0.09668 67:0.10474 68:-0.04028 69:-0.01611 70:0.33032 71:0.07251 72:-0.03223 73:0.03223 74:0.03223 76:-0.15308 77:-0.02417 78:0.07251 79:0.10474 80:-0.04834 81:-0.02417 82:0.31421 83:0.06445 84:-0.0564 85:0.00806 86:0.02417 87:0.02417 88:-0.13696 89:-0.00806 90:0.04834 91:0.11279 92:-0.04834 93:-0.04028 94:0.29004 95:0.0564 96:-0.0564 97:-0.02417 98:0.00806 99:0.00806 100:-0.09668 101:-0.01611 102:0.03223 103:0.13696 104:-0.06445 105:-0.08862 106:0.23364 107:0.04028 108:-0.08862 109:-0.03223 111:-0.00806 112:-0.08862 113:-0.02417 114:0.00806 115:0.12891 116:-0.08862 117:-0.13696 118:0.1853 119:0.02417 120:-0.12891 122:0.00806 123:-0.01611 124:-0.0564 125:-0.01611 126:0.00806 127:-0.00806 128:-0.04028 129:-0.12891 130:0.16113 131:0.03223 132:-0.12085 133:0.00806 134:0.01611 135:-0.02417 136:-0.06445 137:-0.00806 138:-0.00806 139:-0.09668 140:-0.03223 141:-0.07251 142:0.14502 143:0.04834 144:-0.08862 146:0.03223 147:-0.02417 148:-0.09668 149:-0.01611 150:-0.01611 151:-0.15308 153:0.01611 154:0.09668 155:0.11279 156:-0.00806 157:-0.03223 158:0.02417 159:-0.04028 160:-0.09668 162:-0.02417 163:-0.12085 164:0.01611 165:0.04834 166:0.10474 167:0.12891 168:0.01611 169:-0.03223 170:0.00806 171:-0.02417 172:-0.11279 173:-0.01611 174:-0.04028 175:-0.12085 176:0.01611 177:0.03223 178:0.12085 179:0.10474 180:0.0564 181:-0.00806 182:0.02417 183:-0.00806 184:-0.12085 185:-0.01611 186:-0.02417 187:-0.01611 188:-0.00806 189:-0.00806 190:0.16113 191:0.0564 192:0.00806 193:-0.01611 194:0.02417 196:-0.09668 197:0.02417 198:0.00806 199:0.00806 200:-0.03223 201:-0.07251 202:0.14502 203:0.04028 204:-0.0564 205:-0.00806 206:0.02417 208:-0.11279 209:-0.00806 210:-0.00806 211:-0.04028 212:-0.02417 213:-0.08057 214:0.12891 215:0.03223 216:-0.0564 218:0.01611 219:-0.00806 220:-0.12085 221:-0.01611 223:-0.0564 224:-0.02417 225:-0.06445 226:0.12891 227:0.06445 228:-0.04834 229:-0.00806 231:-0.02417 232:-0.14502 233:-0.01611 234:-0.02417 235:-0.08057 236:-0.01611 237:-0.04028 238:0.04834 239:0.11279 240:0.00806 241:-0.03223 242:0.01611 243:-0.01611 244:-0.15308 245:-0.00806 246:-0.02417 247:-0.09668 248:0.00806 249:-0.00806 250:-0.03223 251:0.12085 252:0.03223 253:-0.03223 254:0.00806 255:-0.02417 256:-0.16919 257:-0.00806 258:-0.02417 259:-0.10474 260:0.00806 261:-0.00806 262:-0.00806 263:0.09668 264:0.00806 265:-0.01611 266:0.01611 267:-0.01611 268:-0.12891 270:-0.01611 271:-0.07251 272:0.00806 274:0.09668 275:0.11279 276:-0.01611 277:-0.01611 278:0.01611 279:-0.01611 280:-0.14502 281:-0.00806 282:-0.00806 283:-0.07251 284:0.01611 285:-0.02417 286:0.12891 287:0.12891 288:0.02417 
3.904963364415426 0 1:-0.01611 2:0.02417 3:-0.02417 4:-0.16919 6:0.02417 7:0.03223 8:-0.04834 9:-0.04028 10:0.16113 11:0.08862 13:-0.02417 14:0.02417 15:-0.00806 16:-0.16113 17:-0.02417 18:0.01611 19:0.08057 20:-0.0564 21:-0.07251 22:0.15308 23:0.07251 24:-0.03223 25:-0.07251 26:0.00806 27:-0.01611 28:-0.20947 29:-0.04028 30:0.02417 31:0.11279 32:-0.07251 33:-0.10474 34:0.17725 35:0.04834 36:-0.03223 37:-0.07251 39:-0.02417 40:-0.21753 41:-0.02417 42:0.03223 43:0.11279 44:-0.0564 45:-0.08057 46:0.20142 47:0.06445 48:-0.02417 49:-0.11279 50:-0.00806 51:-0.06445 52:-0.31421 53:-0.04834 54:0.00806 55:0.08862 56:-0.04834 57:-0.04834 58:0.1853 59:0.07251 60:-0.04028 61:-0.13696 62:-0.01611 63:-0.06445 64:-0.35449 65:-0.04028 66:-0.00806 67:0.08862 68:-0.04028 69:-0.04834 70:0.16919 71:0.07251 72:-0.04028 73:-0.12085 75:-0.01611 76:-0.37061 77:-0.04834 78:0.00806 79:0.06445 80:-0.04028 81:-0.0564 82:0.1853 83:0.0564 84:-0.02417 85:-0.10474 87:0.03223 88:-0.32227 90:0.09668 91:0.08057 92:-0.04028 93:-0.04834 94:0.20142 95:0.04834 96:-0.03223 97:-0.07251 98:0.01611 99:0.04834 100:-0.31421 101:0.00806 102:0.12085 103:0.08057 104:-0.0564 105:-0.04834 106:0.20947 107:0.04834 108:-0.03223 109:-0.01611 110:0.04834 111:0.14502 112:-0.2417 113:0.03223 114:0.12891 115:0.08057 116:-0.04028 117:-0.04834 118:0.22559 119:0.0564 120:-0.02417 121:-0.02417 122:0.03223 123:0.10474 124:-0.21753 126:0.10474 127:0.07251 128:-0.03223 129:-0.02417 130:0.22559 131:0.0564 132:-0.00806 133:-0.0564 134:0.01611 135:0.04028 136:-0.20947 137:-0.04028 138:0.03223 139:0.0564 140:-0.03223 141:-0.02417 142:0.21753 143:0.0564 144:-0.00806 145:-0.08057 146:-0.01611 147:-0.04028 148:-0.12085 149:-0.0564 150:-0.01611 151:0.06445 152:-0.02417 153:-0.00806 154:0.19336 155:0.06445 156:-0.00806 157:-0.0564 158:-0.00806 159:-0.04834 160:-0.12085 161:-0.07251 162:-0.04028 163:0.02417 164:-0.03223 165:-0.02417 166:0.16113 167:0.07251 168:-0.01611 169:0.01611 170:-0.00806 171:-0.04028 172:-0.11279 173:-0.0564 174:-0.02417 175:0.00806 176:-0.04028 177:-0.04834 178:0.14502 179:0.0564 180:-0.00806 181:0.04028 182:0.02417 184:-0.09668 185:-0.00806 187:0.02417 188:-0.03223 189:-0.04834 190:0.13696 191:0.06445 192:-0.00806 193:0.04834 194:0.02417 195:0.00806 196:-0.07251 198:0.03223 199:0.03223 200:-0.03223 201:-0.04834 202:0.14502 203:0.06445 204:-0.02417 205:0.0564 206:0.02417 207:0.01611 208:-0.0564 209:-0.00806 210:0.02417 211:0.03223 212:-0.03223 213:-0.07251 214:0.15308 215:0.07251 216:-0.02417 217:0.07251 218:0.03223 220:-0.07251 221:-0.01611 222:0.04028 223:0.00806 224:-0.02417 225:-0.07251 226:0.15308 227:0.08862 228:-0.02417 229:0.0564 230:0.03223 231:-0.01611 232:-0.07251 233:-0.03223 234:0.02417 235:-0.02417 236:-0.01611 237:-0.0564 238:0.13696 239:0.09668 240:-0.03223 241:0.07251 242:0.02417 243:-0.03223 244:-0.06445 245:-0.01611 246:0.00806 247:-0.01611 248:-0.04028 249:-0.08057 250:0.12891 251:0.07251 252:-0.04028 253:0.08057 254:0.01611 255:-0.04028 256:-0.04834 257:-0.01611 258:0.00806 259:-0.01611 260:-0.04028 261:-0.08057 262:0.12891 263:0.0564 264:-0.04028 265:0.11279 266:0.02417 267:-0.02417 268:-0.02417 270:0.00806 272:-0.03223 273:-0.06445 274:0.1853 275:0.04028 276:-0.0564 277:0.12085 278:0.01611 279:-0.02417 280:-0.02417 282:0.01611 283:-0.00806 284:-0.01611 285:-0.04028 286:0.1853 287:0.0564 288:-0.0564 
0 8 1:-0.02417 2:0.04028 3:0.01611 4:-0.13696 5:0.01611 6:0.02417 7:-0.04028 8:-0.01611 9:-0.04028 10:-0.02417 11:0.08862 13:-0.03223 14:0.01611 15:-0.00806 16:-0.15308 17:0.00806 18:0.01611 19:-0.01611 20:-0.02417 21:-0.06445 23:0.08057 24:-0.00806 25:-0.07251 26:-0.01611 28:-0.19336 29:-0.04028 30:0.00806 32:-0.0564 33:-0.06445 34:0.06445 35:0.04834 36:-0.02417 37:-0.13696 38:-0.02417 39:-0.0564 40:-0.16919 41:-0.08862 42:-0.02417 43:-0.01611 44:-0.0564 45:-0.04028 46:0.10474 47:0.03223 48:0.00806 49:-0.16113 50:-0.04028 51:-0.11279 52:-0.20947 53:-0.07251 54:-0.02417 56:-0.0564 57:-0.00806 58:0.12085 59:0.03223 60:0.03223 61:-0.1853 62:-0.04028 63:-0.07251 64:-0.29004 65:-0.07251 66:-0.0564 67:0.02417 68:-0.04834 69:-0.02417 70:0.11279 71:0.0564 72:-0.00806 73:-0.15308 74:-0.03223 75:-0.00806 76:-0.2981 77:-0.02417 78:-0.0564 79:0.03223 80:-0.03223 81:-0.01611 82:0.12085 83:0.08057 84:-0.03223 85:-0.08057 86:0.00806 87:0.04834 88:-0.26587 89:0.01611 90:0.02417 91:0.0564 92:-0.02417 93:-0.04028 94:0.15308 95:0.0564 96:-0.0564 97:-0.0564 98:0.02417 99:0.04028 100:-0.25781 102:0.04028 103:0.09668 104:-0.06445 105:-0.03223 106:0.25781 107:0.07251 108:-0.04834 109:-0.0564 110:0.03223 111:0.02417 112:-0.24976 113:-0.01611 114:0.01611 115:0.17725 116:-0.0564 117:-0.04028 118:0.38672 119:0.12085 120:-0.04028 121:-0.04834 122:0.00806 123:-0.03223 124:-0.25781 125:-0.02417 126:-0.02417 127:0.14502 128:-0.04834 129:-0.02417 130:0.34644 131:0.12085 132:-0.03223 133:-0.03223 134:0.00806 135:-0.04028 136:-0.24976 137:-0.04834 138:-0.04028 139:0.12085 140:-0.03223 141:-0.03223 142:0.2417 143:0.12085 144:-0.01611 145:-0.00806 146:0.01611 147:-0.02417 148:-0.1853 149:-0.03223 150:-0.0564 151:0.04028 152:-0.01611 153:-0.00806 154:0.10474 155:0.10474 156:-0.00806 157:0.09668 158:0.04834 159:-0.00806 160:-0.04834 161:-0.03223 162:0.01611 163:0.04834 164:-0.04834 165:-0.03223 166:0.0564 167:0.06445 168:0.00806 169:0.07251 170:0.03223 172:0.00806 173:-0.04028 174:0.04834 175:0.02417 176:-0.06445 177:-0.03223 178:0.07251 179:0.04028 181:0.08862 182:0.01611 183:0.01611 185:-0.13696 186:0.03223 187:0.02417 188:-0.0564 189:-0.03223 190:0.08862 191:0.0564 192:-0.00806 193:0.06445 194:0.01611 195:0.00806 196:-0.04834 198:0.00806 199:0.07251 200:-0.0564 201:-0.04834 202:0.11279 203:0.07251 204:-0.00806 205:0.06445 206:0.02417 207:0.00806 208:-0.08057 209:-0.02417 211:0.12085 212:-0.0564 213:-0.0564 214:0.12085 215:0.08862 216:-0.02417 217:0.08057 218:0.03223 219:0.00806 220:-0.07251 221:-0.03223 223:0.09668 224:-0.04834 225:-0.06445 226:0.12891 227:0.08862 228:-0.02417 229:0.09668 230:0.03223 231:-0.00806 232:-0.04028 233:-0.00806 234:0.03223 235:0.08057 236:-0.0564 237:-0.04028 238:0.15308 239:0.08057 240:-0.02417 241:0.12891 242:0.03223 244:0.03223 245:0.01611 246:0.03223 247:0.09668 248:-0.0564 249:-0.04834 250:0.1853 251:0.08057 252:-0.02417 253:0.1853 254:0.04028 255:0.01611 256:0.06445 257:0.03223 258:0.07251 259:0.10474 260:-0.0564 261:-0.04834 262:0.20947 263:0.07251 264:-0.02417 265:0.20142 266:0.04834 267:0.02417 268:0.06445 269:0.04028 270:0.09668 271:0.10474 272:-0.03223 273:-0.0564 274:0.20947 275:0.07251 276:-0.03223 277:0.16919 278:0.03223 280:0.08057 281:0.04028 282:0.09668 283:0.12085 284:-0.04834 285:-0.06445 286:0.19336 287:0.06445 288:-0.04028 
2.087913386039907 8 2:0.01611 3:-0.04028 4:-0.04028 5:-0.02417 6:-0.03223 7:-0.04834 8:-0.02417 9:-0.04028 10:0.12085 11:0.08057 12:0.02417 13:-0.02417 14:0.01611 15:-0.04028 16:-0.08057 17:-0.02417 18:-0.02417 19:-0.04834 20:-0.02417 21:-0.04834 22:0.12085 23:0.07251 24:-0.00806 25:-0.04834 27:-0.02417 28:-0.13696 29:-0.00806 30:-0.00806 31:-0.0564 32:-0.02417 33:-0.04028 34:0.12085 35:0.07251 37:-0.08862 38:-0.00806 40:-0.21753 41:-0.00806 42:0.02417 43:-0.04834 44:-0.03223 45:-0.04834 46:0.10474 47:0.08057 48:0.00806 49:-0.09668 51:0.02417 52:-0.27393 53:0.01611 54:0.04834 55:-0.0564 56:-0.02417 57:-0.02417 58:0.13696 59:0.06445 61:-0.10474 62:0.00806 63:0.04028 64:-0.25781 65:0.02417 66:0.0564 67:-0.03223 68:-0.03223 69:-0.04028 70:0.13696 71:0.04028 73:-0.11279 75:0.00806 76:-0.21753 77:0.02417 78:0.0564 79:-0.02417 80:-0.04028 81:-0.02417 82:0.12891 83:0.04834 85:-0.10474 86:0.01611 88:-0.20947 89:0.01611 90:0.03223 91:-0.00806 92:-0.04834 93:-0.04028 94:0.12891 95:0.0564 97:-0.09668 98:0.00806 99:-0.01611 100:-0.19336 101:-0.01611 103:-0.01611 104:-0.04028 105:-0.02417 106:0.12891 107:0.04834 108:-0.02417 109:-0.06445 110:0.01611 112:-0.17725 113:-0.03223 114:-0.00806 115:-0.02417 116:-0.03223 117:-0.00806 118:0.14502 119:0.07251 120:-0.01611 121:-0.06445 124:-0.16113 125:-0.00806 127:-0.03223 128:-0.01611 129:-0.02417 130:0.16919 131:0.07251 132:-0.00806 133:-0.03223 134:0.01611 135:0.00806 136:-0.12891 137:0.00806 138:-0.00806 139:-0.01611 140:-0.01611 141:-0.03223 142:0.14502 143:0.08862 144:-0.01611 145:-0.02417 146:0.01611 147:0.00806 148:-0.13696 149:-0.01611 151:-0.00806 152:-0.01611 153:-0.02417 154:0.13696 155:0.06445 156:-0.03223 157:-0.02417 158:0.02417 159:0.00806 160:-0.13696 161:-0.02417 162:0.00806 163:-0.01611 164:-0.03223 165:-0.03223 166:0.12085 167:0.07251 168:-0.02417 169:-0.02417 170:0.02417 171:0.02417 172:-0.14502 173:-0.00806 174:-0.00806 176:-0.04028 177:-0.03223 178:0.11279 179:0.07251 180:-0.00806 181:-0.03223 182:0.02417 183:0.02417 184:-0.16113 185:-0.04028 186:-0.00806 187:0.01611 188:-0.04834 189:-0.0564 190:0.11279 191:0.0564 192:-0.02417 193:-0.03223 194:0.01611 195:0.00806 196:-0.17725 197:-0.04028 198:-0.01611 199:0.04834 200:-0.04834 201:-0.04028 202:0.15308 203:0.04834 204:-0.02417 205:-0.02417 207:-0.01611 208:-0.14502 209:0.01611 210:-0.02417 211:0.07251 212:-0.06445 213:-0.0564 214:0.1853 215:0.06445 216:-0.03223 217:-0.04028 218:-0.00806 219:-0.02417 220:-0.12891 221:-0.0564 222:-0.03223 223:0.06445 224:-0.04834 225:-0.03223 226:0.20947 227:0.04834 228:-0.03223 229:-0.02417 231:-0.03223 232:-0.09668 233:-0.00806 234:-0.02417 235:0.08057 236:-0.04834 237:-0.04028 238:0.20947 239:0.06445 240:-0.04028 241:-0.00806 242:0.00806 243:-0.02417 244:-0.08862 245:-0.01611 247:0.08057 248:-0.04834 249:-0.04028 250:0.20947 251:0.04834 252:-0.0564 253:0.01611 254:0.01611 255:-0.00806 256:-0.11279 257:-0.03223 258:0.01611 259:0.08862 260:-0.04834 261:-0.0564 262:0.22559 263:0.0564 264:-0.04834 265:0.06445 266:0.02417 268:-0.12085 269:-0.01611 270:0.04834 271:0.11279 272:-0.04834 273:-0.04834 274:0.23364 275:0.06445 276:-0.04834 277:0.09668 278:0.03223 279:0.01611 280:-0.08862 281:-0.00806 282:0.06445 283:0.10474 284:-0.04028 285:-0.04028 286:0.23364 287:0.0564 288:-0.04028 
0 8 1:-0.07251 2:0.01611 4:-0.20142 5:-0.01611 6:0.03223 7:-0.03223 8:-0.00806 9:0.01611 10:0.19336 11:0.07251 12:0.00806 13:-0.08057 14:0.01611 15:0.01611 16:-0.19336 17:-0.01611 18:0.03223 20:-0.01611 21:-0.02417 22:0.1853 23:0.07251 25:-0.08862 26:0.00806 28:-0.20142 29:0.00806 30:0.04834 31:0.00806 32:-0.02417 33:-0.04028 34:0.19336 35:0.07251 36:-0.03223 37:-0.07251 38:0.00806 39:0.00806 40:-0.23364 41:-0.00806 42:0.03223 43:0.01611 44:-0.03223 45:-0.06445 46:0.21753 47:0.07251 48:-0.04028 49:-0.06445 50:0.01611 51:0.01611 52:-0.21753 53:-0.00806 54:0.03223 55:0.00806 56:-0.02417 57:-0.04834 58:0.21753 59:0.06445 60:-0.03223 61:-0.04834 62:0.01611 64:-0.20142 65:-0.00806 66:0.02417 67:0.00806 68:-0.02417 69:-0.04028 70:0.19336 71:0.06445 72:-0.01611 73:-0.11279 74:-0.00806 76:-0.20947 77:-0.01611 78:-0.01611 79:0.10474 80:-0.06445 81:-0.0564 82:0.19336 83:0.04834 84:-0.03223 85:-0.09668 86:-0.00806 87:-0.00806 88:-0.23364 89:-0.02417 90:-0.02417 91:0.08057 92:-0.0564 93:-0.06445 94:0.20947 95:0.04834 96:-0.03223 97:-0.04028 98:0.00806 99:-0.00806 100:-0.2417 101:-0.04834 102:0.00806 103:0.08862 104:-0.06445 105:-0.03223 106:0.21753 107:0.03223 108:-0.01611 109:-0.01611 110:0.01611 111:0.04028 112:-0.19336 113:-0.01611 114:0.01611 115:0.10474 116:-0.0564 118:0.21753 119:0.02417 120:-0.02417 121:-0.04028 122:-0.00806 123:0.02417 124:-0.19336 125:-0.03223 127:0.11279 128:-0.06445 129:0.00806 130:0.22559 131:0.04028 132:-0.00806 133:-0.04028 134:-0.00806 135:0.00806 136:-0.19336 137:-0.04834 139:0.04834 140:-0.0564 141:-0.01611 142:0.25781 143:0.03223 144:-0.00806 145:-0.08057 148:-0.1853 149:-0.0564 151:0.01611 152:-0.01611 153:-0.04834 154:0.2417 155:0.08057 157:-0.07251 158:0.00806 159:-0.02417 160:-0.17725 161:-0.02417 162:-0.02417 164:-0.03223 165:-0.03223 166:0.14502 167:0.07251 169:-0.04028 170:-0.00806 171:-0.04028 172:-0.12085 173:-0.04028 174:-0.01611 175:0.01611 176:-0.04028 177:-0.03223 178:0.12891 179:0.07251 180:0.00806 181:0.03223 182:0.02417 183:-0.04028 184:-0.09668 185:-0.04834 186:-0.00806 187:0.00806 188:-0.04028 189:-0.04028 190:0.12891 191:0.07251 193:0.07251 194:0.01611 195:-0.03223 196:-0.0564 197:-0.01611 198:-0.00806 199:-0.00806 200:-0.04028 201:-0.04028 202:0.09668 203:0.07251 205:0.08057 206:0.02417 207:-0.02417 208:-0.04028 210:0.00806 211:-0.02417 212:-0.04028 213:-0.04834 214:0.08862 215:0.07251 217:0.0564 218:0.01611 219:-0.04028 220:-0.00806 221:0.00806 223:-0.04834 224:-0.03223 225:-0.03223 226:0.10474 227:0.07251 228:0.00806 229:0.07251 230:-0.01611 231:-0.0564 232:-0.03223 233:-0.01611 234:-0.00806 235:-0.02417 236:-0.02417 237:-0.02417 238:0.10474 239:0.07251 240:0.01611 241:0.08057 242:0.02417 243:-0.04028 244:-0.03223 245:-0.00806 246:-0.00806 247:0.01611 248:-0.02417 249:-0.01611 250:0.15308 251:0.07251 252:0.00806 253:0.12085 254:0.02417 255:-0.04028 256:-0.04028 257:0.00806 258:0.00806 259:0.00806 260:-0.03223 261:-0.04028 262:0.16113 263:0.08057 265:0.11279 266:0.03223 267:-0.03223 268:-0.04028 269:0.00806 270:0.01611 271:0.00806 272:-0.02417 273:-0.03223 274:0.15308 275:0.07251 276:-0.00806 277:0.11279 278:0.03223 279:-0.02417 280:-0.03223 281:0.01611 282:0.04834 283:-0.02417 284:-0.03223 285:-0.0564 286:0.12891 287:0.08862 
0 2.652292452370136 1:-0.04834 2:0.01611 4:-0.17725 5:0.00806 6:0.02417 7:-0.15308 8:-0.08057 9:-0.04028 10:-0.12085 11:0.08862 12:0.03223 13:-0.04028 14:0.02417 16:-0.16113 17:-0.00806 18:0.02417 19:-0.12085 20:-0.0564 21:-0.01611 22:-0.10474 23:0.08862 24:-0.02417 25:-0.03223 27:-0.01611 28:-0.16919 29:-0.02417 31:-0.0564 32:-0.01611 33:-0.04028 34:-0.03223 35:0.08862 36:-0.07251 37:-0.04028 38:0.01611 39:-0.02417 40:-0.16919 41:-0.03223 42:-0.02417 43:-0.04834 44:0.02417 45:-0.03223 46:0.08862 47:0.13696 48:-0.00806 49:-0.02417 50:0.02417 51:-0.04028 52:-0.16113 53:-0.01611 54:-0.04028 55:-0.10474 56:0.04834 57:0.02417 58:0.15308 59:0.13696 60:0.08862 61:-0.01611 62:0.01611 63:-0.04028 64:-0.13696 65:-0.00806 66:-0.03223 67:-0.08862 68:0.03223 69:0.04028 70:0.12891 71:0.08862 72:0.0564 73:-0.00806 74:0.00806 75:-0.03223 76:-0.11279 77:-0.03223 78:-0.03223 79:-0.0564 80:-0.02417 82:0.09668 83:0.03223 84:-0.02417 85:0.01611 86:0.00806 87:-0.02417 88:-0.12891 89:-0.02417 90:-0.02417 91:-0.02417 92:-0.06445 93:-0.08057 94:0.08862 96:-0.08057 97:-0.04028 98:-0.04028 99:-0.07251 100:-0.11279 101:-0.01611 102:0.04834 103:-0.03223 104:-0.04028 105:-0.08057 106:0.12891 107:0.02417 108:-0.04834 109:0.06445 110:0.02417 111:0.0564 112:-0.10474 113:-0.01611 114:0.00806 115:0.02417 116:-0.0564 117:-0.07251 118:0.16113 119:0.04834 120:-0.03223 121:0.04028 122:0.02417 123:0.04834 124:-0.13696 125:-0.03223 126:0.04028 127:0.07251 128:-0.04834 129:-0.0564 130:0.19336 131:0.0564 132:-0.04834 133:0.04834 134:0.02417 135:0.01611 136:-0.17725 137:-0.01611 138:0.04834 139:0.15308 140:-0.07251 141:-0.06445 142:0.2981 143:0.0564 144:-0.07251 145:0.04834 146:0.03223 147:-0.00806 148:-0.17725 149:-0.02417 150:0.04834 151:0.1853 152:-0.07251 153:-0.08057 154:0.36255 155:0.08057 156:-0.07251 157:0.03223 158:0.04028 159:-0.04028 160:-0.16919 161:-0.03223 162:0.00806 163:0.16113 164:-0.06445 165:-0.0564 166:0.35449 167:0.08862 168:-0.07251 169:0.01611 170:0.04028 171:-0.04834 172:-0.08057 173:-0.00806 175:0.16113 176:-0.04834 177:-0.04028 178:0.30615 179:0.11279 180:-0.0564 181:0.00806 183:-0.08057 184:-0.06445 185:-0.04834 186:-0.04028 187:0.15308 188:-0.04834 189:-0.04028 190:0.25781 191:0.09668 192:-0.04028 193:0.04834 194:0.00806 195:-0.08862 196:-0.07251 197:-0.02417 198:-0.09668 199:0.11279 200:-0.04834 201:-0.0564 202:0.21753 203:0.08057 204:-0.04028 205:0.08862 206:0.01611 207:-0.04834 208:-0.08862 210:-0.10474 211:0.08862 212:-0.04028 213:-0.04834 214:0.20142 215:0.08862 216:-0.04834 217:0.10474 218:0.02417 219:-0.04028 220:-0.08057 221:0.01611 222:-0.08862 223:0.11279 224:-0.03223 225:-0.04834 226:0.20142 227:0.08057 228:-0.03223 229:0.12891 230:0.03223 231:-0.03223 232:-0.08862 233:0.01611 234:-0.02417 235:0.11279 236:-0.04834 237:-0.04028 238:0.23364 239:0.08057 240:-0.04028 241:0.11279 242:0.02417 243:0.00806 244:-0.0564 245:0.01611 246:0.0564 247:0.09668 248:-0.0564 249:-0.06445 250:0.22559 251:0.0564 252:-0.0564 253:0.16113 254:0.04028 255:0.0564 257:0.01611 258:0.12085 259:0.11279 260:-0.0564 261:-0.04834 262:0.24976 263:0.06445 264:-0.0564 265:0.16113 266:0.02417 267:0.02417 268:0.03223 269:0.02417 270:0.16919 271:0.12085 272:-0.06445 273:-0.0564 274:0.24976 275:0.04834 276:-0.04028 277:0.22559 278:0.04028 279:0.04028 280:0.08057 281:0.04834 282:0.20142 283:0.11279 284:-0.0564 285:-0.0564 286:0.27393 287:0.02417 288:-0.0564 
8 0 1:0.04834 2:0.01611 3:0.01611 4:-0.11279 5:-0.03223 6:-0.04028 7:-0.08862 8:-0.04834 9:-0.01611 10:0.08057 11:0.08862 12:0.03223 13:0.01611 14:0.02417 15:0.00806 16:-0.09668 17:-0.01611 18:-0.02417 19:-0.07251 20:-0.01611 21:0.00806 22:0.08862 23:0.08057 24:0.04834 25:-0.0564 26:-0.00806 27:-0.04834 28:-0.12085 29:-0.02417 30:-0.02417 31:-0.06445 32:-0.01611 33:-0.00806 34:0.08057 35:0.08862 36:0.04834 37:-0.04028 38:0.01611 39:-0.03223 40:-0.17725 41:-0.0564 42:-0.06445 43:-0.07251 44:-0.03223 45:-0.02417 46:0.10474 47:0.08057 48:0.01611 49:-0.06445 50:0.02417 51:-0.04028 52:-0.17725 53:-0.0564 54:-0.0564 55:-0.08057 56:-0.04028 57:-0.02417 58:0.12085 59:0.04834 60:-0.00806 61:-0.08057 62:0.00806 63:-0.04834 64:-0.21753 65:-0.06445 66:-0.01611 67:-0.0564 68:-0.02417 69:-0.00806 70:0.17725 71:0.04028 72:-0.00806 73:-0.10474 74:-0.01611 75:-0.06445 76:-0.27393 77:-0.04028 78:0.02417 79:-0.03223 80:-0.01611 81:-0.02417 82:0.21753 83:0.04834 84:0.00806 85:-0.11279 87:-0.02417 88:-0.31421 89:-0.01611 90:0.04028 91:-0.01611 92:-0.01611 93:-0.03223 94:0.22559 95:0.06445 96:-0.00806 97:-0.10474 98:0.00806 99:0.0564 100:-0.33032 101:0.02417 102:0.04834 103:0.01611 104:-0.02417 105:-0.0564 106:0.21753 107:0.06445 108:-0.04834 109:-0.12085 111:0.04028 112:-0.32227 113:-0.01611 114:0.07251 115:0.02417 116:-0.01611 117:-0.06445 118:0.25781 119:0.04834 120:-0.04834 121:-0.12085 122:0.00806 123:0.01611 124:-0.33032 125:-0.02417 126:0.06445 127:0.03223 128:-0.03223 129:-0.0564 130:0.26587 131:0.0564 132:-0.03223 133:-0.11279 134:-0.00806 135:0.00806 136:-0.2981 137:-0.03223 138:0.02417 139:0.00806 140:-0.02417 141:-0.04834 142:0.23364 143:0.0564 144:-0.01611 145:-0.08862 146:0.00806 147:0.00806 148:-0.25781 149:-0.04028 151:0.01611 152:-0.04834 153:-0.04028 154:0.17725 155:0.06445 156:-0.01611 157:-0.09668 159:0.01611 160:-0.24976 161:-0.03223 162:0.00806 163:0.00806 164:-0.04028 165:-0.03223 166:0.17725 167:0.06445 169:-0.09668 170:-0.00806 171:0.04028 172:-0.1853 173:-0.02417 174:-0.01611 175:0.01611 176:-0.04834 177:-0.04028 178:0.16919 179:0.0564 180:-0.00806 181:-0.07251 182:-0.00806 183:0.04028 184:-0.12085 185:-0.03223 187:0.06445 188:-0.04028 189:-0.00806 190:0.21753 191:0.04028 192:0.00806 193:-0.04834 194:-0.01611 195:0.00806 196:-0.09668 197:-0.06445 198:0.01611 199:0.08057 200:-0.0564 201:-0.0564 202:0.2417 203:0.03223 204:-0.03223 205:0.0564 206:0.00806 207:-0.01611 208:-0.12085 209:-0.04834 210:0.03223 211:0.04028 212:-0.04028 213:-0.04028 214:0.28198 215:0.03223 216:-0.04028 217:0.08862 218:0.03223 219:-0.00806 220:-0.13696 221:-0.00806 222:0.03223 223:0.02417 224:-0.01611 225:-0.03223 226:0.27393 227:0.0564 228:-0.00806 229:0.08057 230:0.04834 231:0.04834 232:-0.11279 233:0.04834 234:0.02417 235:0.03223 236:-0.02417 237:-0.02417 238:0.28198 239:0.06445 241:0.06445 242:0.02417 243:0.03223 244:-0.09668 245:0.02417 246:0.08057 247:0.0564 248:-0.04028 249:-0.03223 250:0.31421 251:0.03223 253:0.09668 254:0.04834 255:0.04028 256:-0.0564 257:-0.02417 258:0.15308 259:0.0564 260:-0.03223 261:-0.02417 262:0.32227 263:0.00806 264:0.00806 265:0.13696 266:0.04028 267:0.03223 268:-0.04834 269:-0.01611 270:0.20142 271:0.0564 272:-0.02417 273:-0.01611 274:0.32227 275:0.01611 276:0.01611 277:0.1853 278:0.06445 279:0.06445 280:-0.02417 281:0.02417 282:0.21753 283:0.00806 284:-0.00806 285:-0.0564 286:0.24976 287:0.04028 288:0.0564 
5.487591027781772 8 1:0.03223 2:0.00806 4:-0.00806 5:-0.00806 6:0.07251 7:-0.08862 8:-0.0564 10:0.11279 11:0.04834 12:-0.02417 13:0.00806 14:-0.00806 15:-0.00806 16:-0.08057 17:-0.06445 18:0.04028 19:-0.08057 20:-0.0564 21:-0.02417 22:0.08057 23:0.04028 25:0.02417 27:-0.00806 28:-0.10474 29:-0.06445 30:0.04028 31:-0.0564 32:-0.04028 33:-0.04834 34:0.09668 35:0.04834 36:-0.04834 37:0.03223 38:0.02417 40:-0.12085 41:-0.03223 42:0.0564 43:-0.03223 44:-0.01611 45:-0.08862 46:0.15308 47:0.0564 48:-0.0564 49:0.04834 50:0.00806 52:-0.14502 53:-0.02417 54:0.07251 55:-0.04028 56:-0.03223 57:-0.08057 58:0.1853 59:0.06445 60:-0.04028 61:0.08862 62:0.0564 63:0.06445 64:-0.12085 65:0.03223 66:0.12891 67:-0.03223 68:-0.01611 69:-0.08057 70:0.19336 71:0.07251 72:-0.03223 73:0.09668 74:0.06445 75:0.10474 76:-0.12891 77:0.08057 78:0.15308 79:-0.02417 80:-0.01611 81:-0.0564 82:0.16113 83:0.08057 84:-0.03223 85:0.07251 86:0.0564 87:0.08057 88:-0.16919 89:0.04028 90:0.12891 91:-0.03223 92:-0.03223 93:-0.06445 94:0.12085 95:0.07251 96:-0.04834 97:0.01611 98:0.04028 99:0.06445 100:-0.16919 101:0.02417 102:0.12085 103:-0.02417 104:-0.02417 105:-0.07251 106:0.10474 107:0.08057 108:-0.04834 110:0.02417 111:0.03223 112:-0.16919 113:0.00806 114:0.11279 115:-0.03223 116:-0.04834 117:-0.08057 118:0.09668 119:0.08057 120:-0.03223 121:-0.03223 122:0.02417 123:0.03223 124:-0.16113 125:-0.02417 126:0.07251 127:-0.03223 128:-0.0564 129:-0.08862 130:0.08862 131:0.07251 132:-0.04028 133:-0.04028 134:0.01611 135:0.01611 136:-0.14502 137:-0.00806 138:0.07251 139:-0.02417 140:-0.04834 141:-0.08057 142:0.09668 143:0.0564 144:-0.04028 145:0.00806 146:0.02417 147:0.01611 148:-0.12085 149:0.00806 150:0.04834 151:-0.03223 152:-0.0564 153:-0.0564 154:0.08862 155:0.04028 156:-0.01611 157:0.04834 158:0.01611 159:0.01611 160:-0.09668 161:-0.00806 162:0.03223 163:-0.03223 164:-0.04834 165:-0.04834 166:0.06445 167:0.04028 169:0.08862 170:0.04028 171:0.02417 172:-0.06445 174:0.04834 175:-0.01611 176:-0.03223 177:-0.06445 178:0.0564 179:0.0564 180:-0.00806 181:0.09668 182:0.04834 183:0.03223 184:-0.0564 186:0.0564 188:-0.04834 189:-0.08862 190:0.07251 191:0.07251 192:-0.00806 193:0.08057 194:0.04834 195:0.02417 196:-0.0564 198:0.06445 199:0.04028 200:-0.04028 201:-0.06445 202:0.15308 203:0.0564 204:-0.00806 205:0.06445 206:0.04834 208:-0.0564 209:0.03223 210:0.06445 211:0.06445 212:-0.04834 213:-0.04028 214:0.21753 215:0.0564 216:-0.01611 217:0.07251 218:0.06445 220:-0.06445 222:0.04028 223:0.06445 224:-0.06445 225:-0.04028 226:0.22559 227:0.06445 228:-0.02417 229:0.06445 230:0.06445 231:0.01611 232:-0.06445 233:0.04028 234:0.04834 235:0.08057 236:-0.0564 237:-0.04834 238:0.21753 239:0.07251 240:-0.03223 241:0.10474 242:0.10474 243:0.0564 244:-0.06445 245:0.06445 246:0.12085 247:0.07251 248:-0.06445 249:-0.07251 250:0.14502 251:0.07251 252:-0.02417 253:0.12891 254:0.11279 255:0.08057 256:-0.07251 257:0.07251 258:0.13696 259:0.04834 260:-0.03223 261:-0.07251 262:0.09668 263:0.08862 264:-0.02417 265:0.13696 266:0.10474 267:0.10474 268:-0.04028 269:0.04834 270:0.20947 271:0.04028 272:-0.03223 273:-0.06445 274:0.07251 275:0.08862 276:-0.01611 277:0.09668 278:0.08862 279:0.07251 281:0.0564 282:0.20947 283:0.04834 284:-0.0564 285:-0.07251 286:0.06445 287:0.06445 288:-0.02417 
-0.3515572552955615 0.6630109098949333 1:-0.06445 2:-0.00806 3:0.02417 4:-0.13696 5:-0.02417 6:0.01611 7:-0.08057 8:-0.00806 9:-0.03223 10:0.01611 11:0.00806 12:0.00806 13:-0.06445 14:-0.01611 15:0.03223 16:-0.13696 17:-0.01611 18:0.02417 19:-0.08057 20:-0.01611 21:-0.04028 22:0.01611 23:-0.00806 24:-0.00806 25:-0.06445 26:-0.00806 27:0.04028 28:-0.16113 29:-0.00806 30:0.0564 31:-0.08057 32:-0.01611 33:-0.03223 34:0.00806 36:-0.00806 37:-0.08862 38:-0.00806 39:0.04028 40:-0.20947 41:-0.01611 42:0.07251 43:-0.08057 44:-0.00806 45:-0.01611 46:0.00806 47:-0.01611 49:-0.09668 51:0.0564 52:-0.25781 54:0.11279 55:-0.07251 56:-0.00806 57:-0.0564 58:-0.00806 59:-0.02417 60:-0.00806 61:-0.10474 62:0.01611 63:0.06445 64:-0.40283 66:0.17725 67:-0.06445 68:-0.00806 69:-0.01611 70:0.00806 73:-0.1853 75:0.06445 76:-0.51562 77:-0.00806 78:0.11279 79:-0.07251 80:-0.02417 81:-0.04028 83:-0.01611 84:-0.02417 85:-0.30615 86:0.01611 87:0.0564 88:-0.66064 89:-0.02417 90:0.00806 91:-0.07251 92:-0.01611 93:-0.0564 94:0.01611 96:-0.01611 97:-0.2981 98:0.06445 99:0.04028 100:-0.77344 101:0.01611 102:-0.00806 103:-0.08057 104:-0.01611 105:-0.04834 106:-0.03223 107:-0.00806 109:-0.25781 110:0.20142 111:0.15308 112:-0.89429 113:0.08862 114:0.0564 115:-0.08057 116:-0.03223 117:-0.04834 118:-0.08057 119:-0.02417 120:-0.02417 121:-0.31421 122:0.32227 123:0.21753 124:-0.95874 125:0.16919 126:0.1853 127:-0.11279 128:-0.04028 129:-0.0564 130:-0.12891 131:-0.00806 132:-0.00806 133:-0.37061 134:0.54785 135:0.20142 136:-1.16016 137:0.29004 138:0.427 139:-0.16113 140:-0.04028 141:-0.08057 142:-0.20142 144:-0.02417 145:-0.6687 146:0.98291 147:0.27393 148:-1.03125 149:0.55591 150:0.7251 151:-0.1853 152:-0.0564 153:-0.04834 154:-0.1853 155:0.01611 156:0.01611 157:-0.7251 158:0.95068 159:0.15308 160:-0.2417 161:0.55591 162:0.22559 163:-0.13696 164:-0.07251 165:-0.07251 166:-0.13696 167:-0.04028 168:0.00806 169:0.50757 170:0.76538 171:-0.70898 172:-0.28198 173:0.57202 174:-0.12891 175:-0.0564 176:0.0564 177:-0.12085 178:0.01611 179:0.07251 180:-0.16113 181:0.75732 182:1.04736 183:-0.71704 184:-0.34644 185:0.58008 186:0.0564 187:-0.0564 188:0.10474 189:-0.14502 190:0.16919 191:0.12891 192:-0.20142 193:0.59619 194:0.854 195:-0.64453 196:-0.25781 197:0.58008 198:0.11279 199:-0.0564 200:0.10474 201:-0.12891 202:0.1853 203:0.09668 204:-0.19336 205:0.41895 206:0.64453 207:-0.49146 208:-0.08862 209:0.62842 210:0.17725 211:0.01611 213:-0.10474 214:0.23364 215:-0.04834 216:-0.1853 217:0.22559 218:0.29004 219:-0.1853 220:-0.14502 221:0.58813 222:-0.01611 223:0.04028 224:-0.02417 225:-0.08057 226:0.21753 227:-0.08057 228:-0.11279 229:0.20947 231:-0.12085 232:-0.03223 233:0.56396 234:-0.11279 235:0.01611 237:-0.03223 238:0.20142 239:-0.03223 240:-0.08057 241:0.08057 242:-0.04834 243:-0.0564 244:0.01611 245:0.45117 246:-0.12891 247:0.01611 249:-0.04834 250:0.20142 251:-0.02417 252:-0.07251 253:-0.0564 254:-0.40283 255:0.1853 256:0.20142 257:0.23364 258:-0.00806 259:-0.02417 260:-0.00806 261:-0.08057 262:0.16113 263:-0.02417 264:-0.08862 265:0.04028 266:-0.53174 267:0.20142 268:0.30615 269:-0.04028 270:0.08057 271:-0.08057 272:-0.02417 273:-0.08057 275:0.00806 276:-0.08057 277:0.08862 278:-0.57202 279:0.16113 280:0.16113 281:-0.27393 282:0.02417 283:-0.12891 284:-0.04834 285:-0.07251 286:-0.14502 287:0.00806 288:-0.06445 
-0.8608461739160188 2.447274070502056 1:-0.03223 3:0.00806 4:-0.06445 5:-0.00806 6:-0.01611 7:-0.10474 9:-0.00806 10:-0.00806 11:-0.00806 12:0.01611 13:-0.04834 14:-0.00806 15:0.00806 16:-0.07251 17:-0.00806 18:-0.01611 19:-0.10474 21:-0.00806 22:-0.00806 23:-0.01611 24:0.01611 25:-0.0564 28:-0.10474 29:-0.01611 30:-0.01611 31:-0.10474 32:-0.01611 33:-0.01611 34:-0.00806 36:0.03223 37:-0.0564 39:0.01611 40:-0.08862 41:-0.00806 42:-0.02417 43:-0.09668 44:-0.01611 45:-0.00806 47:-0.01611 48:0.01611 49:-0.04028 52:-0.10474 55:-0.08862 56:-0.01611 57:-0.00806 58:-0.00806 59:-0.01611 60:0.01611 61:-0.0564 62:-0.00806 63:0.01611 64:-0.12085 66:0.01611 67:-0.10474 68:-0.00806 69:-0.01611 70:-0.00806 71:-0.01611 72:0.02417 73:-0.0564 74:-0.00806 75:0.01611 76:-0.13696 77:-0.00806 78:0.01611 79:-0.10474 80:-0.00806 81:-0.00806 82:-0.00806 83:-0.00806 84:0.00806 85:-0.0564 86:0.00806 87:0.02417 88:-0.16113 89:0.00806 90:0.04028 91:-0.08862 92:-0.01611 93:-0.00806 94:-0.01611 95:-0.01611 96:0.00806 97:-0.08057 99:0.03223 100:-0.20947 102:0.07251 103:-0.08057 104:-0.02417 105:-0.03223 106:-0.01611 107:-0.02417 108:0.01611 109:-0.13696 110:-0.00806 111:0.01611 112:-0.36255 113:-0.01611 114:0.09668 115:-0.08862 116:-0.01611 117:-0.02417 119:-0.00806 120:0.02417 121:-0.16113 123:0.02417 124:-0.53174 125:-0.04028 126:0.04834 127:-0.11279 128:-0.01611 129:-0.04028 130:-0.04834 131:-0.00806 132:0.02417 133:-0.21753 134:0.04834 135:0.0564 136:-0.67676 137:-0.03223 138:0.08057 139:-0.12891 140:-0.02417 141:-0.03223 142:-0.08862 143:-0.00806 145:-0.27393 146:0.1853 147:0.1853 148:-0.90234 149:0.07251 150:0.12085 151:-0.14502 152:-0.00806 153:-0.03223 154:-0.12891 155:0.01611 156:0.02417 157:-0.34644 158:0.40283 159:0.21753 160:-1.00708 161:0.25781 162:0.2417 163:-0.12891 164:-0.03223 165:-0.06445 166:-0.15308 167:0.00806 168:-0.01611 169:-0.427 170:0.75732 171:0.31421 172:-1.11182 173:0.54785 174:0.51562 175:-0.12085 176:-0.0564 177:-0.10474 178:-0.12891 179:-0.01611 180:-0.04834 181:-0.67676 182:1.01514 183:0.39478 184:-0.82178 185:0.6687 186:0.74121 187:-0.12891 188:-0.08057 189:-0.08057 190:-0.08057 191:-0.06445 192:-0.03223 193:-0.54785 194:0.81372 195:-0.31421 196:-0.19336 197:0.52368 198:0.15308 199:-0.08862 200:-0.0564 201:-0.04834 202:-0.00806 203:-0.07251 204:-0.08057 205:0.24976 206:0.74121 207:-0.53174 208:-0.34644 209:0.67676 210:-0.16113 211:-0.04028 212:0.08862 213:-0.10474 214:0.11279 215:0.08862 216:-0.14502 217:0.90234 218:0.83789 219:-0.55591 220:-0.12085 221:0.58813 222:0.11279 223:-0.06445 224:0.07251 225:-0.10474 226:0.1853 227:0.08057 228:-0.14502 229:0.13696 230:0.51562 231:-0.45117 232:-0.08862 233:0.74121 234:0.12891 236:0.01611 237:-0.10474 238:0.17725 239:-0.01611 240:-0.14502 241:0.15308 242:0.20947 243:-0.24976 244:-0.06445 245:0.63647 246:-0.00806 247:-0.02417 249:-0.04834 250:0.12085 251:-0.01611 252:-0.06445 253:0.16113 255:-0.20142 256:-0.02417 257:0.50757 258:-0.13696 259:-0.06445 260:-0.00806 261:-0.03223 262:0.09668 263:-0.01611 264:-0.02417 265:0.03223 266:-0.2417 267:-0.01611 268:0.15308 269:0.33032 270:-0.01611 271:-0.08862 273:-0.0564 274:0.04834 275:0.01611 276:-0.0564 277:0.00806 278:-0.47534 279:0.10474 280:0.30615 281:0.12891 282:0.06445 283:-0.12085 284:-0.02417 285:-0.07251 286:-0.00806 288:-0.08057 
-4.37763407175165 2.656334143147514 1:-0.08862 2:-0.00806 3:0.04028 4:-0.16113 5:-0.01611 6:0.01611 7:-0.09668 8:-0.01611 9:-0.03223 12:0.00806 13:-0.08057 15:0.04834 16:-0.17725 17:-0.00806 18:0.06445 19:-0.10474 20:-0.01611 21:-0.04028 22:-0.00806 23:-0.02417 24:-0.00806 25:-0.08057 27:0.04834 28:-0.19336 29:-0.01611 30:0.07251 31:-0.10474 32:-0.02417 33:-0.03223 34:-0.00806 35:-0.01611 36:0.00806 37:-0.06445 39:0.04834 40:-0.21753 41:-0.01611 42:0.09668 43:-0.10474 44:-0.01611 45:-0.03223 46:-0.01611 47:-0.00806 49:-0.06445 51:0.04834 52:-0.24976 54:0.12891 55:-0.11279 56:-0.01611 57:-0.03223 58:-0.04834 59:-0.00806 61:-0.08057 63:0.0564 64:-0.29004 65:0.01611 66:0.12891 67:-0.11279 68:-0.01611 69:-0.01611 70:-0.04834 72:-0.00806 73:-0.15308 74:-0.00806 75:0.06445 76:-0.41895 77:0.03223 78:0.04834 79:-0.12891 80:-0.01611 81:-0.03223 82:-0.06445 84:-0.01611 85:-0.1853 86:0.02417 87:0.06445 88:-0.56396 89:0.04834 91:-0.13696 92:-0.02417 93:-0.0564 94:-0.10474 95:-0.00806 96:-0.01611 97:-0.24976 98:0.10474 99:0.13696 100:-0.74121 101:0.0564 102:0.0564 103:-0.11279 104:-0.02417 105:-0.0564 106:-0.11279 108:-0.02417 109:-0.33032 110:0.23364 111:0.20947 112:-0.82983 113:0.14502 114:0.16113 115:-0.11279 116:-0.03223 117:-0.06445 118:-0.11279 120:-0.03223 121:-0.32227 122:0.27393 123:0.23364 124:-0.84595 125:0.16113 126:0.17725 127:-0.11279 128:-0.02417 129:-0.07251 130:-0.10474 131:0.00806 132:-0.04028 133:-0.32227 134:0.47534 135:0.30615 136:-0.94263 137:0.24976 138:0.2981 139:-0.12085 140:-0.02417 141:-0.09668 142:-0.08862 143:0.01611 144:-0.06445 145:-0.49951 146:0.70093 147:0.33838 148:-0.93457 149:0.53174 150:0.37061 151:-0.11279 152:-0.07251 153:-0.09668 154:-0.04028 155:-0.04028 156:-0.08862 157:-0.52368 158:0.7251 159:0.30615 160:-0.86206 161:0.52368 162:0.45117 163:-0.10474 164:-0.0564 165:-0.08057 166:-0.02417 167:-0.02417 168:-0.08057 169:-0.38672 170:0.63647 171:-0.01611 172:-0.02417 173:0.34644 174:0.36255 175:-0.08057 176:-0.03223 177:-0.08057 179:-0.01611 180:-0.10474 181:0.37866 182:0.70093 183:-0.50757 184:-0.47534 185:0.38672 186:-0.03223 187:-0.06445 188:0.03223 189:-0.11279 190:0.08057 191:0.04028 192:-0.13696 193:0.56396 194:0.74927 195:-0.63647 196:-0.35449 197:0.58813 198:0.12891 199:-0.03223 200:0.04028 201:-0.08057 202:0.16113 203:0.02417 204:-0.12085 205:0.15308 206:0.76538 207:-0.44312 208:-0.12085 209:0.51562 210:0.16919 211:0.01611 212:0.01611 213:-0.0564 214:0.1853 215:-0.00806 216:-0.10474 217:0.12085 218:0.56396 219:-0.27393 220:-0.12085 221:0.55591 222:0.15308 223:0.00806 224:0.01611 225:-0.06445 226:0.1853 228:-0.08862 229:0.28198 230:0.33032 231:-0.1853 232:-0.24976 233:0.54785 234:-0.01611 235:-0.02417 236:-0.00806 237:-0.04834 238:0.13696 239:-0.01611 240:-0.04834 241:0.14502 242:0.13696 243:-0.16919 244:-0.14502 245:0.53174 246:-0.09668 247:-0.0564 248:-0.00806 249:-0.04834 250:0.08862 252:-0.04834 253:0.08862 254:0.06445 255:-0.11279 256:-0.11279 257:0.46729 258:-0.09668 259:-0.06445 260:-0.01611 261:-0.04834 262:0.0564 263:-0.00806 264:-0.06445 265:0.11279 266:-0.15308 267:0.00806 269:0.37866 270:-0.08057 271:-0.08057 272:-0.01611 273:-0.07251 274:0.03223 275:-0.01611 276:-0.06445 277:0.13696 278:-0.32227 279:0.08057 280:0.14502 281:0.20142 282:-0.01611 283:-0.09668 284:-0.01611 285:-0.04028 286:-0.02417 288:-0.02417 
-8 3.602059784362328 1:0.19336 2:-0.33838 3:-0.00806 4:-0.16919 5:-0.52368 6:0.11279 7:-0.14502 8:-0.01611 9:-0.08057 10:-0.07251 11:0.00806 12:-0.03223 13:0.13696 14:-0.24976 15:-0.02417 16:-0.2417 17:-0.49146 18:0.14502 19:-0.08862 20:-0.01611 21:-0.08057 22:-0.04028 23:0.00806 24:-0.0564 25:0.11279 26:-0.16113 27:-0.04028 28:-0.31421 29:-0.45923 30:0.16919 31:-0.04834 32:-0.00806 33:-0.08057 34:0.03223 35:0.00806 36:-0.08057 37:0.10474 38:-0.12085 39:-0.01611 40:-0.35449 41:-0.43506 42:0.17725 43:-0.03223 44:-0.01611 45:-0.09668 46:0.08057 47:-0.01611 48:-0.08862 49:0.08057 50:-0.09668 51:-0.00806 52:-0.40283 53:-0.41895 54:0.13696 55:-0.03223 56:-0.03223 57:-0.08862 58:0.08057 59:-0.03223 60:-0.08862 61:0.08862 62:-0.04834 63:-0.00806 64:-0.45923 65:-0.41895 66:0.11279 67:-0.04028 68:-0.03223 69:-0.08862 70:0.07251 71:-0.01611 72:-0.08057 73:0.12891 74:0.01611 75:-0.04028 76:-0.4834 77:-0.40283 78:0.11279 79:-0.04834 80:-0.01611 81:-0.09668 82:0.0564 83:-0.00806 84:-0.08862 85:0.08862 86:0.08862 87:-0.04834 88:-0.52368 89:-0.41089 90:0.13696 91:-0.04834 92:-0.01611 93:-0.08862 94:0.04834 96:-0.08057 97:0.10474 98:0.06445 99:-0.0564 100:-0.55591 101:-0.39478 102:0.11279 103:-0.0564 104:-0.03223 105:-0.10474 106:0.01611 107:-0.00806 108:-0.08862 109:0.12085 110:0.09668 111:-0.09668 112:-0.57202 113:-0.39478 114:0.11279 115:-0.0564 116:-0.02417 117:-0.10474 118:0.01611 119:0.01611 120:-0.08862 121:0.10474 122:0.08057 123:-0.09668 124:-0.56396 125:-0.40283 126:0.12891 127:-0.06445 128:-0.01611 129:-0.10474 130:0.01611 131:0.01611 132:-0.08862 133:0.06445 134:0.04834 135:-0.08057 136:-0.53174 137:-0.41895 138:0.12085 139:-0.06445 140:-0.02417 141:-0.11279 142:0.02417 143:-0.00806 144:-0.09668 145:0.06445 146:0.04834 147:-0.08057 148:-0.53174 149:-0.39478 150:0.12891 151:-0.0564 152:-0.02417 153:-0.10474 154:0.03223 155:-0.00806 156:-0.08862 157:0.06445 158:0.03223 159:-0.08057 160:-0.53174 161:-0.41895 162:0.11279 163:-0.0564 164:-0.01611 165:-0.09668 166:0.02417 167:-0.01611 168:-0.09668 169:0.11279 170:0.03223 171:-0.04028 172:-0.49146 173:-0.41089 174:0.12085 175:-0.04834 176:-0.00806 177:-0.09668 178:0.04834 180:-0.08057 181:0.08862 182:-0.02417 183:-0.02417 184:-0.4834 185:-0.41895 186:0.10474 187:-0.06445 188:-0.02417 189:-0.11279 190:0.01611 191:0.00806 192:-0.08862 193:0.08862 194:-0.02417 195:-0.04028 196:-0.46729 197:-0.41895 198:0.12085 199:-0.06445 200:-0.03223 201:-0.11279 202:0.03223 203:-0.00806 204:-0.09668 205:0.07251 206:-0.02417 207:-0.00806 208:-0.44312 209:-0.41895 210:0.13696 211:-0.06445 212:-0.02417 213:-0.09668 214:0.00806 216:-0.08862 217:0.07251 218:-0.07251 220:-0.41895 221:-0.43506 222:0.12891 223:-0.06445 224:-0.01611 225:-0.08862 226:0.00806 227:-0.00806 228:-0.08057 229:0.06445 230:-0.10474 231:-0.00806 232:-0.38672 233:-0.44312 234:0.12891 235:-0.07251 236:-0.02417 237:-0.09668 239:-0.01611 240:-0.08057 241:0.08862 242:-0.12085 243:-0.00806 244:-0.35449 245:-0.44312 246:0.13696 247:-0.06445 248:-0.01611 249:-0.10474 250:0.00806 251:0.00806 252:-0.07251 253:0.11279 254:-0.21753 256:-0.26587 257:-0.4834 258:0.15308 259:-0.0564 260:-0.00806 261:-0.09668 262:0.03223 263:0.01611 264:-0.07251 265:0.16113 266:-0.2981 267:0.00806 268:-0.17725 269:-0.51562 270:0.15308 271:-0.04834 272:-0.00806 273:-0.10474 274:0.04834 276:-0.08057 277:0.16113 278:-0.33032 279:0.02417 280:-0.15308 281:-0.53174 282:0.16113 283:-0.04028 284:-0.01611 285:-0.10474 286:0.04834 288:-0.08057 
-5.071290727257171 2.571035803742987 1:-0.08057 2:-0.01611 3:0.04834 4:-0.12891 5:-0.01611 6:0.02417 7:-0.12085 8:-0.01611 9:-0.04834 10:-0.01611 11:-0.00806 12:-0.01611 13:-0.07251 15:0.04028 16:-0.12085 17:-0.00806 18:0.03223 19:-0.11279 20:-0.00806 21:-0.06445 22:-0.01611 23:-0.01611 24:-0.02417 25:-0.09668 26:-0.02417 27:0.03223 28:-0.13696 29:-0.02417 30:0.04028 31:-0.10474 32:-0.01611 33:-0.04834 34:-0.02417 35:-0.00806 36:-0.02417 37:-0.08862 38:-0.02417 39:0.04028 40:-0.15308 41:-0.02417 42:0.04028 43:-0.11279 44:-0.01611 45:-0.04028 48:-0.02417 49:-0.09668 51:0.0564 52:-0.16113 53:-0.00806 54:0.07251 55:-0.10474 57:-0.04028 59:0.00806 60:-0.00806 61:-0.09668 62:-0.01611 63:0.04834 64:-0.16919 65:-0.01611 66:0.06445 67:-0.11279 68:-0.01611 69:-0.04834 70:-0.01611 71:-0.00806 73:-0.08057 74:-0.01611 75:0.06445 76:-0.1853 78:0.11279 79:-0.10474 80:-0.01611 81:-0.04028 82:-0.02417 83:-0.00806 84:-0.00806 85:-0.09668 87:0.07251 88:-0.20142 89:0.00806 90:0.13696 91:-0.10474 92:-0.00806 93:-0.04028 94:-0.04834 95:-0.00806 96:0.00806 97:-0.15308 98:0.00806 99:0.06445 100:-0.33838 101:0.04834 102:0.13696 103:-0.12891 104:-0.01611 105:-0.03223 106:-0.08862 107:-0.00806 108:0.01611 109:-0.17725 111:0.0564 112:-0.46729 113:0.04028 114:0.11279 115:-0.12891 116:-0.00806 117:-0.01611 118:-0.09668 120:0.02417 121:-0.2417 122:0.02417 123:0.11279 124:-0.69287 125:0.08057 126:-0.11279 127:-0.14502 128:-0.03223 129:-0.03223 130:-0.15308 131:-0.00806 132:0.00806 133:-0.32227 134:0.08057 135:0.15308 136:-0.73315 137:0.03223 139:-0.13696 140:-0.03223 141:-0.07251 142:-0.13696 143:0.00806 144:-0.01611 145:-0.33838 146:0.27393 147:0.20947 148:-0.77344 149:0.1853 150:0.19336 151:-0.12085 152:-0.03223 153:-0.08862 154:-0.08862 156:-0.04028 157:-0.33838 158:0.35449 159:0.23364 160:-0.76538 161:0.20142 162:0.23364 163:-0.13696 164:-0.02417 165:-0.09668 166:-0.08862 167:0.00806 168:-0.04834 169:-0.36255 170:0.53174 171:0.30615 172:-1.03931 173:0.24976 174:0.47534 175:-0.16919 176:-0.04028 177:-0.08057 178:-0.12085 179:0.00806 180:-0.01611 181:-0.55591 182:0.65259 183:0.21753 184:-0.24976 185:0.4834 186:0.62036 187:-0.10474 188:-0.07251 189:-0.06445 190:-0.04834 191:-0.07251 192:-0.0564 193:-0.41089 194:0.68481 195:-0.10474 196:0.02417 197:0.2981 198:0.10474 199:-0.06445 200:-0.02417 201:-0.09668 202:0.08057 203:-0.00806 204:-0.12891 205:0.66064 206:0.68481 207:-0.49146 208:-0.58008 209:0.46729 211:-0.07251 212:0.08862 213:-0.11279 214:0.21753 215:0.09668 216:-0.16113 217:0.70093 218:0.79761 219:-0.84595 220:-0.45923 221:0.53979 222:0.23364 223:-0.03223 224:0.04834 225:-0.08862 226:0.2417 227:0.01611 228:-0.16113 229:0.06445 230:0.78955 231:-0.51562 232:-0.15308 233:0.47534 234:0.26587 235:0.02417 236:0.00806 237:-0.09668 238:0.2417 239:-0.04028 240:-0.15308 241:0.09668 242:0.45923 243:-0.07251 244:-0.25781 245:0.50757 246:0.00806 247:0.00806 248:-0.01611 249:-0.06445 250:0.20142 251:-0.07251 252:-0.09668 253:0.25781 254:0.34644 255:-0.27393 256:-0.44312 257:0.46729 258:-0.08862 259:-0.04834 260:-0.00806 261:-0.03223 262:0.10474 263:-0.03223 264:-0.04834 265:0.12891 266:0.11279 267:-0.08862 268:-0.2417 269:0.44312 270:-0.12891 271:-0.08057 272:0.00806 273:-0.04834 274:0.06445 275:0.02417 276:-0.03223 277:0.06445 278:0.06445 279:-0.07251 280:-0.21753 281:0.38672 282:-0.16113 283:-0.10474 284:-0.00806 285:-0.0564 286:0.04834 287:0.01611 288:-0.06445 
-7.807808892363873 8 1:0.12891 2:-0.25781 3:0.04028 4:-0.23364 5:-0.46729 6:0.10474 7:-0.09668 8:-0.02417 9:-0.08862 10:-0.06445 11:0.00806 12:-0.04028 13:0.12085 14:-0.20947 15:0.04834 16:-0.29004 17:-0.45923 18:0.15308 19:-0.10474 20:-0.00806 21:-0.07251 22:-0.08057 23:0.01611 24:-0.02417 25:0.12891 26:-0.20142 27:0.01611 28:-0.32227 29:-0.43506 30:0.14502 31:-0.09668 32:-0.03223 33:-0.08862 34:-0.08057 35:0.01611 36:-0.04834 37:0.12891 38:-0.09668 39:0.00806 40:-0.33838 41:-0.427 42:0.16113 43:-0.07251 44:0.00806 45:-0.08862 46:-0.01611 47:0.00806 48:-0.06445 49:0.11279 50:-0.10474 51:-0.04028 52:-0.40283 53:-0.41895 54:0.13696 55:-0.06445 57:-0.09668 58:0.02417 59:-0.00806 60:-0.07251 61:0.10474 62:-0.04834 63:-0.06445 64:-0.43506 65:-0.41895 66:0.11279 67:-0.0564 68:-0.01611 69:-0.08862 70:0.0564 71:0.00806 72:-0.06445 73:0.13696 74:-0.03223 75:-0.0564 76:-0.45117 77:-0.427 78:0.10474 79:-0.04028 80:-0.01611 81:-0.09668 82:0.04834 83:-0.00806 84:-0.08862 85:0.13696 86:-0.02417 87:-0.09668 88:-0.46729 89:-0.40283 90:0.12891 91:-0.06445 92:-0.03223 93:-0.10474 94:0.04028 95:-0.01611 96:-0.09668 97:0.09668 98:-0.00806 99:-0.10474 100:-0.49146 101:-0.38672 102:0.12891 103:-0.0564 104:-0.03223 105:-0.11279 106:0.03223 107:-0.02417 108:-0.10474 109:0.09668 110:-0.00806 111:-0.08862 112:-0.50757 113:-0.37866 114:0.12085 115:-0.0564 116:-0.02417 117:-0.10474 118:0.01611 119:-0.00806 120:-0.09668 121:0.09668 122:0.03223 123:-0.08862 124:-0.51562 125:-0.37061 126:0.12085 127:-0.08057 128:-0.01611 129:-0.08862 130:-0.00806 131:0.00806 132:-0.08057 133:0.07251 134:0.04834 135:-0.0564 136:-0.51562 137:-0.38672 138:0.12891 139:-0.08057 140:-0.00806 141:-0.08057 143:0.02417 144:-0.0564 145:0.06445 146:0.0564 147:-0.02417 148:-0.50757 149:-0.37866 150:0.11279 151:-0.07251 152:-0.02417 153:-0.09668 154:0.00806 155:-0.00806 156:-0.07251 157:0.0564 158:0.06445 159:-0.03223 160:-0.51562 161:-0.38672 162:0.12085 163:-0.07251 164:-0.02417 165:-0.09668 166:0.01611 168:-0.07251 169:0.06445 170:0.02417 171:-0.03223 172:-0.49951 173:-0.39478 174:0.10474 175:-0.0564 176:-0.02417 177:-0.10474 178:0.03223 180:-0.07251 181:0.07251 183:-0.04028 184:-0.49146 185:-0.39478 186:0.09668 187:-0.04834 188:-0.00806 189:-0.08057 190:0.04834 191:-0.00806 192:-0.07251 193:0.07251 195:-0.0564 196:-0.49146 197:-0.40283 198:0.10474 199:-0.07251 200:-0.01611 201:-0.08057 202:0.04028 203:-0.01611 204:-0.08057 205:0.08057 206:-0.02417 207:-0.08862 208:-0.4834 209:-0.40283 210:0.10474 211:-0.0564 212:-0.01611 213:-0.08057 214:0.03223 216:-0.08862 217:0.09668 218:-0.0564 219:-0.09668 220:-0.45923 221:-0.41089 222:0.11279 223:-0.07251 224:-0.02417 225:-0.10474 226:0.02417 227:0.00806 228:-0.08862 229:0.07251 230:-0.03223 231:-0.07251 232:-0.45923 233:-0.40283 234:0.12085 235:-0.08057 236:-0.02417 237:-0.10474 238:-0.00806 240:-0.07251 241:0.08057 242:-0.04028 243:-0.04028 244:-0.44312 245:-0.40283 246:0.12891 247:-0.08862 248:-0.02417 249:-0.10474 250:-0.00806 251:-0.00806 252:-0.07251 253:0.08862 254:-0.04028 255:-0.04028 256:-0.44312 257:-0.41089 258:0.12891 259:-0.06445 260:-0.02417 261:-0.10474 262:-0.01611 264:-0.07251 265:0.07251 266:-0.07251 267:-0.02417 268:-0.41895 269:-0.41895 270:0.12085 271:-0.07251 272:-0.02417 273:-0.09668 274:-0.01611 275:-0.00806 276:-0.07251 277:0.08862 278:-0.07251 279:-0.01611 280:-0.41089 281:-0.427 282:0.12891 283:-0.08057 284:-0.03223 285:-0.09668 286:-0.00806 287:-0.01611 288:-0.06445 
-8 -0 1:-0.01611 2:0.01611 3:-0.04028 4:-0.04028 6:-0.07251 7:-0.0564 8:-0.00806 9:0.01611 10:0.10474 11:0.11279 12:0.07251 13:-0.01611 14:0.01611 15:-0.04028 16:-0.03223 17:0.00806 18:-0.06445 19:-0.08057 20:-0.02417 22:0.10474 23:0.11279 24:0.06445 25:-0.01611 26:0.01611 27:-0.04028 28:-0.04834 30:-0.06445 31:-0.10474 32:-0.02417 33:-0.00806 34:0.08862 35:0.09668 36:0.08057 39:-0.04834 40:-0.03223 41:-0.00806 42:-0.07251 43:-0.15308 44:-0.03223 45:-0.01611 46:0.06445 47:0.08057 48:0.04834 50:0.02417 51:-0.04028 52:-0.01611 53:-0.00806 54:-0.08057 55:-0.14502 56:-0.04028 57:-0.02417 58:0.04834 59:0.08057 60:0.04834 62:0.02417 63:-0.04834 64:-0.00806 65:-0.00806 66:-0.08057 67:-0.12085 68:-0.07251 69:-0.01611 70:0.04834 71:0.08057 72:0.04028 73:-0.00806 74:0.00806 75:-0.04834 76:-0.00806 78:-0.07251 79:-0.12891 80:-0.09668 81:-0.00806 82:0.03223 83:0.06445 84:0.06445 86:0.01611 87:-0.04834 88:0.00806 89:0.00806 90:-0.06445 91:-0.13696 92:-0.11279 94:0.03223 95:0.06445 96:0.07251 97:0.00806 98:0.00806 99:-0.04834 100:0.00806 101:-0.00806 102:-0.06445 103:-0.12891 104:-0.10474 105:0.00806 106:0.04028 107:0.04834 108:0.07251 109:0.00806 110:0.00806 111:-0.04834 112:0.00806 114:-0.07251 115:-0.11279 116:-0.11279 118:0.04028 119:0.04028 120:0.07251 121:0.01611 122:0.03223 123:-0.03223 124:0.01611 125:0.00806 126:-0.0564 127:-0.10474 128:-0.10474 129:0.02417 130:0.0564 131:0.02417 132:0.06445 133:-0.00806 134:0.00806 135:-0.04028 136:0.01611 137:-0.01611 138:-0.06445 139:-0.10474 140:-0.12085 141:0.01611 142:0.04028 143:0.04028 144:0.06445 146:0.01611 147:-0.04834 150:-0.06445 151:-0.09668 152:-0.10474 153:0.02417 154:0.0564 155:0.04834 156:0.0564 158:0.01611 159:-0.04028 160:-0.00806 162:-0.06445 163:-0.09668 164:-0.11279 165:0.01611 166:0.06445 167:0.04834 168:0.0564 169:0.00806 170:0.01611 171:-0.04028 172:-0.00806 174:-0.0564 175:-0.08862 176:-0.11279 178:0.08057 179:0.04028 180:0.04028 181:0.00806 182:0.00806 183:-0.04028 184:-0.00806 186:-0.06445 187:-0.06445 188:-0.11279 190:0.08057 191:0.06445 192:0.01611 194:0.03223 195:-0.03223 198:-0.06445 199:-0.00806 200:-0.13696 201:0.01611 202:-0.01611 203:0.08862 204:0.04834 205:0.01611 206:0.04028 207:-0.03223 208:0.00806 209:0.01611 210:-0.0564 211:0.09668 212:-0.20947 213:0.08862 214:-0.27393 215:0.04834 216:0.0564 218:0.02417 219:-0.04834 221:0.00806 222:-0.06445 223:0.11279 224:-0.23364 225:0.08057 226:-0.28198 227:0.06445 228:0.02417 229:0.00806 230:0.02417 231:-0.04834 232:0.00806 233:0.00806 234:-0.06445 235:0.16113 236:-0.16113 237:0.03223 238:-0.15308 239:0.06445 240:0.08057 241:0.01611 242:0.01611 243:-0.04834 244:0.01611 245:0.00806 246:-0.07251 247:0.03223 248:0.09668 249:-0.15308 250:0.04834 251:0.04028 252:0.07251 253:-0.0564 254:0.06445 255:-0.12085 256:-0.07251 257:-0.00806 258:-0.14502 259:-0.39478 260:1.10376 261:-0.20947 262:1.35352 263:0.41089 264:-0.15308 265:0.02417 266:-0.00806 268:-0.0564 269:-0.01611 270:-0.04834 272:-0.21753 273:0.07251 274:-0.37866 275:0.23364 276:0.24976 277:-0.02417 278:0.03223 279:0.00806 280:-0.02417 281:0.03223 282:0.00806 283:-0.2417 284:-0.03223 285:-0.08057 286:0.26587 287:-0.0564 288:-0.0564 
-8 -0 1:0.04028 2:0.03223 3:-0.02417 4:-0.06445 6:-0.04028 7:-0.08862 8:-0.01611 9:-0.04028 10:0.13696 11:0.09668 12:0.06445 13:0.01611 14:0.02417 15:-0.04028 16:-0.08057 17:-0.01611 18:-0.04028 19:-0.17725 20:-0.03223 21:-0.08862 22:0.06445 23:0.09668 24:0.04028 25:0.00806 26:0.03223 27:-0.03223 28:-0.11279 29:-0.00806 30:-0.04028 31:-0.22559 32:-0.03223 33:-0.11279 34:0.0564 35:0.10474 36:0.02417 37:-0.00806 38:0.03223 39:-0.02417 40:-0.13696 42:-0.03223 43:-0.20947 44:-0.04028 45:-0.06445 46:0.02417 47:0.10474 49:-0.01611 50:0.01611 51:-0.03223 52:-0.12891 53:-0.00806 54:-0.03223 55:-0.16919 56:-0.08057 57:-0.04028 58:0.00806 59:0.09668 60:0.03223 61:-0.02417 63:-0.04834 64:-0.14502 65:-0.00806 66:-0.04834 67:-0.17725 68:-0.13696 69:-0.00806 70:0.01611 71:0.06445 72:0.04834 73:-0.01611 74:0.00806 75:-0.03223 76:-0.13696 78:-0.02417 79:-0.14502 80:-0.12891 81:0.00806 82:0.03223 83:0.07251 84:0.07251 85:-0.01611 86:0.01611 87:-0.03223 88:-0.11279 89:-0.00806 90:-0.04028 91:-0.14502 92:-0.15308 93:0.02417 94:0.01611 95:0.04834 96:0.07251 97:0.00806 98:0.02417 99:-0.03223 100:-0.10474 101:-0.01611 102:-0.04834 103:-0.14502 104:-0.17725 105:0.03223 107:0.03223 108:0.06445 109:0.00806 110:0.03223 111:-0.03223 112:-0.0564 114:-0.0564 115:-0.11279 116:-0.19336 117:0.02417 118:-0.02417 119:0.02417 120:0.0564 121:0.02417 122:0.01611 123:-0.04028 124:-0.0564 125:-0.00806 126:-0.0564 127:-0.12085 128:-0.19336 129:0.02417 130:-0.02417 131:0.03223 132:0.0564 133:0.01611 134:0.02417 135:-0.04028 136:-0.04028 137:-0.00806 138:-0.0564 139:-0.12085 140:-0.20142 141:0.01611 142:-0.03223 143:0.02417 144:0.0564 145:0.02417 146:0.01611 147:-0.04028 148:-0.02417 149:-0.00806 150:-0.0564 151:-0.11279 152:-0.19336 153:0.00806 154:-0.02417 155:0.02417 156:0.0564 157:0.02417 159:-0.04028 160:-0.0564 161:-0.00806 162:-0.04834 163:-0.11279 164:-0.1853 165:0.00806 166:-0.01611 167:0.01611 168:0.04834 169:0.01611 170:0.02417 171:-0.04028 172:-0.04834 174:-0.0564 175:-0.09668 176:-0.15308 177:0.00806 178:0.00806 179:0.04028 180:0.04834 181:0.01611 182:0.02417 183:-0.04028 184:-0.04834 185:-0.00806 186:-0.0564 187:-0.09668 188:-0.15308 189:-0.00806 190:0.01611 191:0.0564 192:0.0564 193:0.01611 194:0.03223 195:-0.04028 196:-0.0564 198:-0.04834 199:-0.06445 200:-0.16113 203:0.08057 204:0.04834 205:0.02417 206:0.02417 207:-0.04028 208:-0.0564 209:0.01611 210:-0.03223 211:-0.03223 212:-0.1853 214:-0.04028 215:0.06445 216:0.0564 217:0.02417 218:0.03223 219:-0.04028 220:-0.04834 221:0.02417 222:-0.04028 223:0.0564 224:-0.22559 225:0.03223 226:-0.16919 227:0.04834 228:0.08057 229:0.04834 230:0.04834 231:-0.03223 232:-0.04028 233:0.02417 234:-0.04028 235:0.12891 236:-0.20142 237:0.0564 238:-0.22559 239:0.0564 240:0.08057 241:0.03223 242:0.03223 243:-0.03223 244:-0.0564 245:0.01611 246:-0.06445 247:0.14502 248:-0.15308 249:0.03223 250:-0.21753 251:0.04028 252:0.06445 253:0.01611 254:0.00806 255:-0.01611 256:-0.06445 257:0.00806 258:-0.02417 259:-0.64453 260:-0.21753 261:-0.57202 262:0.08862 263:0.01611 264:0.0564 265:-0.09668 266:0.08057 267:-0.12891 268:-0.17725 269:-0.00806 270:-0.12085 271:0.49951 272:1.17627 273:0.78955 274:1.69995 275:0.62036 276:-0.14502 277:0.03223 278:0.02417 279:0.00806 280:-0.17725 281:0.00806 282:-0.01611 283:-0.17725 284:-0.09668 285:0.12085 286:-0.0564 287:0.6123 288:0.35449 
-2.791223842652502 -2.092457266377037 1:0.03223 2:0.03223 3:-0.04028 4:-0.06445 6:-0.0564 7:-0.07251 8:-0.01611 9:-0.01611 10:0.12085 11:0.08057 12:0.06445 13:0.01611 14:0.02417 15:-0.03223 16:-0.04028 17:-0.00806 18:-0.06445 19:-0.08862 20:-0.04028 21:-0.04028 22:0.09668 23:0.09668 24:0.0564 25:0.01611 26:0.03223 27:-0.03223 28:-0.04834 30:-0.04834 31:-0.14502 32:-0.03223 33:-0.06445 34:0.0564 35:0.11279 36:0.04834 37:0.03223 38:0.04028 39:-0.03223 40:-0.08057 41:0.00806 42:-0.03223 43:-0.16113 44:-0.02417 45:-0.06445 46:0.0564 47:0.10474 48:0.04028 50:0.02417 51:-0.04028 52:-0.11279 53:-0.00806 54:-0.0564 55:-0.15308 56:-0.04834 57:-0.03223 58:0.04028 59:0.10474 60:0.01611 62:0.02417 63:-0.04834 64:-0.11279 66:-0.06445 67:-0.14502 68:-0.06445 69:-0.01611 70:0.04834 71:0.09668 72:0.02417 74:0.01611 75:-0.04028 76:-0.12085 77:-0.01611 78:-0.04028 79:-0.13696 80:-0.08862 81:0.00806 82:0.0564 83:0.07251 84:0.0564 85:-0.01611 86:0.00806 87:-0.03223 88:-0.12891 89:-0.01611 90:-0.04028 91:-0.13696 92:-0.12085 93:0.00806 94:0.04028 95:0.0564 96:0.0564 97:-0.01611 98:0.00806 99:-0.03223 100:-0.13696 101:-0.01611 102:-0.03223 103:-0.12085 104:-0.12085 105:0.01611 106:0.04028 107:0.04028 108:0.08057 109:-0.01611 111:-0.02417 112:-0.12891 113:-0.00806 114:-0.03223 115:-0.12891 116:-0.13696 117:0.00806 118:0.01611 119:0.03223 120:0.07251 122:0.01611 123:-0.03223 124:-0.10474 126:-0.04028 127:-0.12085 128:-0.12085 129:0.01611 130:0.03223 131:0.04028 132:0.06445 133:0.00806 134:0.02417 135:-0.03223 136:-0.08862 137:-0.00806 138:-0.04028 139:-0.12891 140:-0.13696 141:-0.00806 142:0.01611 143:0.04028 144:0.04834 145:0.01611 146:0.02417 147:-0.03223 148:-0.08057 149:-0.00806 150:-0.0564 151:-0.13696 152:-0.15308 153:-0.02417 154:0.03223 155:0.04028 156:0.04834 157:0.00806 158:0.02417 159:-0.04028 160:-0.06445 161:0.00806 162:-0.04834 163:-0.12891 164:-0.15308 165:-0.02417 166:0.03223 167:0.03223 168:0.04028 169:0.02417 170:0.03223 171:-0.02417 172:-0.04028 173:0.00806 174:-0.03223 175:-0.11279 176:-0.12891 177:-0.02417 178:0.04834 179:0.04028 180:0.0564 181:0.00806 182:0.01611 183:-0.03223 184:-0.0564 186:-0.04028 187:-0.10474 188:-0.12891 189:-0.02417 190:0.0564 191:0.03223 192:0.02417 193:0.01611 194:0.02417 195:-0.04028 196:-0.04834 198:-0.0564 199:-0.06445 200:-0.13696 201:-0.00806 202:0.0564 203:0.04028 204:0.04028 205:0.01611 206:0.03223 207:-0.03223 208:-0.03223 209:0.01611 210:-0.04834 211:0.00806 212:-0.1853 213:0.03223 214:-0.04028 215:0.04834 216:0.0564 217:0.02417 218:0.02417 219:-0.03223 220:-0.03223 221:0.00806 222:-0.04028 223:0.11279 224:-0.2981 225:0.09668 226:-0.33032 227:0.03223 228:0.08862 229:0.03223 230:0.02417 231:-0.02417 232:-0.01611 233:0.01611 234:-0.02417 235:0.14502 236:-0.31421 237:0.09668 238:-0.33838 239:0.03223 240:0.04834 241:0.02417 242:0.01611 243:-0.02417 244:-0.02417 245:0.00806 246:-0.01611 247:0.1853 248:-0.14502 249:0.02417 250:-0.21753 251:0.06445 252:0.06445 253:0.02417 254:0.00806 255:-0.02417 256:-0.04834 257:-0.01611 258:-0.08057 259:-0.88623 260:0.1853 261:-0.63647 262:0.44312 263:0.07251 264:0.0564 265:-0.06445 266:0.03223 267:-0.11279 268:-0.09668 269:-0.0564 270:-0.20142 271:-0.93457 272:2.14307 273:-1.12793 274:1.98999 275:0.33032 276:-0.2417 277:-0.01611 278:0.07251 279:0.02417 280:-0.20142 281:0.0564 282:-0.02417 283:0.77344 284:-0.4834 285:0.73315 287:0.65259 288:0.4834 
-0.1324313611728523 -0 1:0.04028 2:0.04028 3:-0.04834 4:-0.09668 5:-0.00806 6:-0.04028 7:-0.01611 9:-0.0564 10:0.15308 11:0.09668 12:0.0564 13:0.04028 14:0.04834 15:-0.01611 16:-0.08862 17:0.00806 18:-0.0564 19:-0.08057 20:-0.00806 21:-0.08862 22:0.16113 23:0.11279 24:0.0564 25:0.03223 26:0.04028 27:-0.03223 28:-0.0564 29:0.00806 30:-0.04834 31:-0.16113 32:0.00806 33:-0.08057 34:0.12891 35:0.09668 36:0.04028 38:0.02417 39:-0.02417 40:-0.08057 42:-0.0564 43:-0.15308 44:-0.01611 45:-0.02417 46:0.03223 47:0.10474 48:0.02417 50:0.02417 51:-0.03223 52:-0.12085 53:-0.00806 54:-0.04834 55:-0.12085 56:-0.04028 57:-0.02417 58:0.01611 59:0.10474 60:0.04028 61:0.00806 62:0.02417 63:-0.03223 64:-0.13696 65:-0.00806 66:-0.04028 67:-0.12085 68:-0.07251 69:-0.00806 70:0.03223 71:0.08862 72:0.04834 74:0.02417 75:-0.02417 76:-0.11279 77:-0.00806 78:-0.03223 79:-0.11279 80:-0.08862 81:-0.00806 82:0.04028 83:0.04834 84:0.04028 85:-0.01611 86:0.00806 87:-0.03223 88:-0.11279 89:-0.01611 90:-0.03223 91:-0.12085 92:-0.09668 93:0.03223 94:0.0564 95:0.04834 96:0.04834 97:-0.00806 98:0.00806 99:-0.02417 100:-0.12085 101:-0.01611 102:-0.03223 103:-0.12085 104:-0.12085 105:0.03223 106:0.04028 107:0.03223 108:0.04028 109:-0.00806 110:0.00806 111:-0.01611 112:-0.12085 113:-0.01611 114:-0.03223 115:-0.11279 116:-0.13696 117:0.02417 118:0.03223 119:0.02417 120:0.0564 121:-0.00806 122:0.00806 123:-0.02417 124:-0.09668 125:-0.00806 126:-0.04028 127:-0.10474 128:-0.14502 129:0.02417 130:0.00806 131:0.03223 132:0.06445 133:-0.00806 134:0.01611 135:-0.03223 136:-0.08862 137:-0.00806 138:-0.03223 139:-0.09668 140:-0.14502 141:0.00806 142:-0.00806 143:0.03223 144:0.0564 146:0.01611 147:-0.03223 148:-0.08862 149:-0.00806 150:-0.04834 151:-0.08862 152:-0.15308 153:0.01611 154:-0.01611 155:0.04028 156:0.04834 157:0.00806 158:0.04028 159:-0.02417 160:-0.08057 161:0.00806 162:-0.04028 163:-0.08057 164:-0.13696 165:0.01611 166:-0.00806 167:0.06445 168:0.04028 169:0.00806 170:0.01611 171:-0.04028 172:-0.08057 174:-0.04834 175:-0.10474 176:-0.13696 178:0.03223 179:0.08057 180:0.04834 181:0.00806 182:0.02417 183:-0.03223 184:-0.06445 185:0.00806 186:-0.04834 187:-0.10474 188:-0.12891 190:0.03223 191:0.07251 192:0.04834 193:0.00806 194:0.02417 195:-0.04028 196:-0.06445 197:0.00806 198:-0.04028 199:-0.08862 200:-0.11279 201:-0.00806 202:0.06445 203:0.06445 204:0.04028 205:0.03223 206:0.04028 207:-0.02417 208:-0.04834 209:0.01611 210:-0.04028 211:-0.04028 212:-0.11279 214:0.08862 215:0.08057 216:0.04028 217:0.00806 218:0.02417 219:-0.04028 220:-0.0564 221:0.00806 222:-0.04834 223:0.0564 224:-0.17725 225:0.04028 226:-0.15308 227:0.0564 228:0.12891 229:0.03223 230:0.02417 231:-0.04028 232:-0.04834 233:0.00806 234:-0.04834 235:0.12085 236:-0.2417 237:0.07251 238:-0.28198 239:0.04028 240:0.08057 241:0.03223 242:0.01611 243:-0.04028 244:-0.04834 246:-0.04028 247:0.17725 248:-0.15308 249:0.03223 250:-0.1853 251:0.0564 252:0.09668 253:-0.04834 254:0.0564 255:-0.11279 256:-0.09668 257:-0.04028 258:-0.16113 259:-0.87012 260:1.65161 261:-0.74927 262:1.54688 263:0.29004 264:-0.20947 265:0.07251 266:0.04834 267:0.02417 268:-0.16919 269:0.06445 270:0.00806 271:0.20947 272:-0.2417 273:0.25781 274:-0.33032 275:0.40283 276:0.37061 277:-0.01611 278:0.01611 279:0.00806 280:-0.19336 281:-0.03223 282:0.0564 283:-0.33032 285:-0.15308 286:0.34644 287:-0.08057 288:-0.16919 
-0 -2.774107115885916 1:0.0564 2:0.04028 3:-0.01611 4:-0.09668 5:0.00806 6:-0.02417 7:-0.12085 8:-0.04028 9:-0.03223 10:0.08862 11:0.08057 12:0.06445 13:0.04028 14:0.04028 15:-0.03223 16:-0.10474 17:-0.01611 18:-0.03223 19:-0.21753 20:-0.04834 21:-0.0564 22:0.04834 23:0.09668 24:0.04028 25:0.02417 26:0.02417 27:-0.03223 28:-0.09668 29:-0.00806 30:-0.04028 31:-0.19336 32:-0.03223 33:-0.06445 34:0.04028 35:0.10474 36:0.04834 37:0.02417 38:0.02417 39:-0.03223 40:-0.10474 42:-0.04028 43:-0.16919 44:-0.08057 45:-0.02417 46:0.01611 47:0.10474 48:0.00806 49:0.02417 50:0.03223 51:-0.03223 52:-0.08862 54:-0.0564 55:-0.16113 56:-0.10474 57:-0.02417 58:0.01611 59:0.07251 60:0.03223 61:0.03223 62:0.01611 63:-0.03223 64:-0.07251 65:0.00806 66:-0.03223 67:-0.17725 68:-0.12085 70:0.03223 71:0.04834 72:0.03223 73:0.00806 74:0.00806 75:-0.04834 76:-0.08057 77:-0.01611 78:-0.04028 79:-0.14502 80:-0.12085 82:0.04028 83:0.03223 84:0.03223 85:0.01611 86:0.01611 87:-0.04028 88:-0.08862 89:-0.01611 90:-0.04028 91:-0.14502 92:-0.13696 93:0.01611 94:0.03223 95:0.03223 96:0.07251 97:0.02417 98:0.01611 99:-0.04028 100:-0.08057 101:-0.00806 102:-0.04028 103:-0.13696 104:-0.14502 105:0.02417 106:0.03223 107:0.04028 108:0.08862 109:0.02417 110:0.01611 111:-0.04028 112:-0.09668 113:-0.00806 114:-0.04028 115:-0.11279 116:-0.15308 117:0.03223 118:0.01611 119:0.04028 120:0.08057 121:0.01611 122:0.01611 123:-0.04028 124:-0.08862 125:-0.01611 126:-0.04028 127:-0.11279 128:-0.16919 129:0.04028 130:0.00806 131:0.02417 132:0.06445 133:0.01611 134:0.00806 135:-0.04028 136:-0.08862 137:-0.01611 138:-0.04834 139:-0.11279 140:-0.16919 141:0.03223 142:0.01611 143:0.03223 144:0.04028 145:0.00806 146:0.01611 147:-0.03223 148:-0.09668 150:-0.03223 151:-0.10474 152:-0.16113 153:0.02417 154:0.03223 155:0.04028 156:0.03223 157:0.00806 158:0.01611 159:-0.03223 160:-0.10474 161:-0.00806 162:-0.04028 163:-0.10474 164:-0.12891 165:0.02417 166:0.03223 167:0.04834 168:0.01611 169:0.00806 170:0.02417 171:-0.04028 172:-0.09668 173:-0.00806 174:-0.04028 175:-0.09668 176:-0.12891 177:0.02417 178:0.03223 179:0.0564 180:0.00806 181:0.01611 182:0.02417 183:-0.04028 184:-0.10474 185:-0.00806 186:-0.03223 187:-0.07251 188:-0.15308 191:0.08057 192:0.03223 193:0.01611 194:0.02417 195:-0.03223 196:-0.09668 198:-0.02417 199:-0.0564 200:-0.16919 202:-0.00806 203:0.06445 204:0.03223 205:0.02417 206:0.03223 207:-0.03223 208:-0.08862 209:0.00806 210:-0.03223 211:0.01611 212:-0.19336 213:0.03223 214:-0.11279 215:0.06445 216:0.08862 217:0.04834 218:0.04028 219:-0.03223 220:-0.06445 221:0.01611 222:-0.03223 223:0.09668 224:-0.1853 225:0.0564 226:-0.17725 227:0.0564 228:0.10474 229:0.04834 230:0.02417 231:-0.04028 232:-0.07251 233:0.00806 234:-0.04028 235:0.14502 236:-0.16113 237:0.03223 238:-0.20142 239:0.04028 240:0.10474 241:0.0564 242:0.01611 243:-0.04028 244:-0.06445 245:0.00806 246:-0.03223 247:-0.16919 249:-0.35449 250:0.11279 251:0.03223 252:0.06445 253:0.01611 254:0.0564 255:-0.08862 256:-0.07251 257:-0.04028 258:-0.13696 259:-0.95068 260:1.66772 261:-0.95874 262:1.69189 263:0.30615 264:-0.1853 265:0.07251 266:0.04834 267:0.04834 268:-0.13696 269:0.08862 270:-0.00806 271:0.24976 272:-0.25781 273:0.34644 274:-0.32227 275:0.43506 276:0.35449 277:0.12085 278:0.04028 279:0.00806 280:-0.10474 281:0.00806 283:-0.39478 284:-0.13696 285:-0.33032 286:-0.12085 287:-0.02417 288:-0.11279 
-8 -0.7981312654123688 1:0.00806 2:0.02417 3:-0.04028 4:-0.08862 5:-0.01611 6:-0.04834 7:-0.06445 8:-0.00806 9:0.01611 10:0.16919 11:0.08057 12:0.06445 13:0.02417 14:0.02417 15:-0.04028 16:-0.08057 17:-0.00806 18:-0.04028 19:-0.07251 20:-0.01611 21:0.02417 22:0.10474 23:0.08862 24:0.07251 25:0.04028 26:0.02417 27:-0.04834 28:-0.12085 29:-0.01611 30:-0.0564 31:-0.15308 32:-0.04028 33:-0.02417 34:0.06445 35:0.10474 36:0.04028 37:0.00806 38:0.02417 39:-0.04834 40:-0.13696 42:-0.0564 43:-0.20947 44:-0.04028 45:-0.0564 46:0.01611 47:0.10474 48:0.02417 49:0.00806 50:0.02417 51:-0.04834 52:-0.13696 53:-0.00806 54:-0.0564 55:-0.19336 56:-0.06445 57:-0.0564 59:0.10474 61:0.00806 62:0.01611 63:-0.03223 64:-0.10474 65:-0.00806 66:-0.04834 67:-0.19336 68:-0.11279 69:-0.08862 70:0.02417 71:0.08057 72:-0.00806 73:0.00806 74:0.01611 75:-0.02417 76:-0.08862 78:-0.04834 79:-0.19336 80:-0.13696 81:-0.06445 82:0.02417 83:0.06445 84:0.03223 85:0.01611 86:0.02417 87:-0.04028 88:-0.08862 90:-0.04028 91:-0.16919 92:-0.14502 93:-0.07251 95:0.0564 96:0.0564 97:0.02417 98:0.02417 99:-0.03223 100:-0.06445 101:-0.00806 102:-0.04028 103:-0.19336 104:-0.1853 105:-0.04028 106:-0.02417 107:0.04028 108:0.06445 109:0.04028 110:0.02417 111:-0.03223 112:-0.06445 114:-0.04834 115:-0.16919 116:-0.17725 117:-0.00806 118:-0.04028 119:0.04028 120:0.08057 121:0.03223 122:0.03223 123:-0.03223 124:-0.08057 125:-0.00806 126:-0.04028 127:-0.12085 128:-0.17725 129:0.03223 130:-0.03223 131:0.04028 132:0.08862 133:0.01611 134:0.01611 135:-0.03223 136:-0.06445 138:-0.04028 139:-0.12085 140:-0.20947 141:0.03223 142:-0.03223 143:0.02417 144:0.06445 145:0.00806 146:0.01611 147:-0.03223 148:-0.08057 150:-0.04028 151:-0.11279 152:-0.20142 153:0.00806 154:-0.00806 155:0.02417 156:0.04028 157:0.01611 158:0.01611 159:-0.03223 160:-0.06445 161:0.00806 162:-0.04028 163:-0.13696 164:-0.19336 165:-0.01611 166:-0.00806 167:0.02417 168:0.03223 169:0.01611 170:0.01611 171:-0.04028 172:-0.07251 174:-0.04834 175:-0.11279 176:-0.16113 177:-0.02417 178:-0.01611 179:0.02417 180:0.01611 181:0.02417 182:0.02417 183:-0.04834 184:-0.0564 186:-0.0564 187:-0.10474 188:-0.16113 189:-0.02417 190:-0.02417 191:0.04834 192:0.01611 193:0.04028 194:0.02417 195:-0.04028 196:-0.04028 197:0.00806 198:-0.04834 199:-0.07251 200:-0.16919 201:-0.01611 202:-0.02417 203:0.07251 204:0.04028 205:0.04028 206:0.02417 207:-0.04834 208:-0.03223 209:0.00806 210:-0.0564 211:-0.00806 212:-0.19336 213:0.01611 214:-0.11279 215:0.08057 216:0.07251 217:0.04028 218:0.02417 219:-0.04834 220:-0.01611 221:0.00806 222:-0.0564 223:0.07251 224:-0.19336 225:0.04834 226:-0.21753 227:0.07251 228:0.08057 229:0.04028 230:0.02417 231:-0.04834 232:-0.01611 233:0.02417 234:-0.04028 235:0.14502 236:-0.16113 237:0.04834 238:-0.23364 239:0.07251 240:0.08057 241:0.04834 242:0.02417 243:-0.04834 244:-0.01611 246:-0.04834 247:-0.11279 248:-0.09668 249:-0.04834 250:-0.12085 251:0.07251 252:0.07251 253:-0.04834 254:0.08057 255:-0.12891 256:-0.11279 257:-0.00806 258:-0.13696 259:0.62036 260:0.7251 261:0.68481 262:1.18433 263:0.53979 264:0.0564 265:0.04028 266:0.07251 268:-0.14502 269:0.00806 270:-0.03223 271:-0.21753 272:0.00806 273:-0.12085 274:0.20947 275:0.37866 276:0.1853 277:0.00806 278:0.04834 279:0.03223 280:-0.12085 281:0.0564 282:0.08057 283:-0.14502 284:-0.17725 285:0.10474 286:0.2981 287:-0.30615 288:0.08057 
-0.6022686803048164 -0.3390598522984575 1:0.0564 2:0.04028 3:-0.04834 4:-0.02417 5:0.00806 6:-0.04834 7:-0.12891 8:-0.0564 9:-0.04834 10:0.09668 11:0.08057 12:0.08057 13:0.0564 14:0.02417 15:-0.0564 16:-0.01611 18:-0.06445 19:-0.19336 20:-0.0564 21:-0.0564 22:0.08057 23:0.08862 24:0.06445 25:0.04834 26:0.02417 27:-0.06445 28:-0.08862 29:-0.01611 30:-0.07251 31:-0.22559 32:-0.0564 33:-0.03223 34:0.02417 35:0.11279 36:0.06445 37:0.03223 38:0.03223 39:-0.04834 40:-0.08057 41:-0.00806 42:-0.04834 43:-0.21753 44:-0.08862 45:0.00806 46:-0.02417 47:0.10474 48:0.0564 49:0.00806 50:0.01611 51:-0.04834 52:-0.08862 53:-0.00806 54:-0.04028 55:-0.1853 56:-0.11279 57:0.02417 58:-0.02417 59:0.08862 60:0.06445 61:0.01611 62:0.01611 63:-0.03223 64:-0.10474 65:-0.01611 66:-0.02417 67:-0.1853 68:-0.12085 69:0.04028 70:-0.03223 71:0.0564 72:0.06445 73:0.03223 74:0.02417 75:-0.02417 76:-0.08862 78:-0.01611 79:-0.16919 80:-0.14502 81:0.04028 83:0.04028 84:0.06445 85:0.00806 86:0.01611 87:-0.03223 88:-0.10474 89:-0.01611 90:-0.03223 91:-0.17725 92:-0.16919 93:0.02417 94:0.00806 95:0.04028 96:0.06445 97:0.01611 98:0.01611 99:-0.04028 100:-0.10474 101:-0.01611 102:-0.03223 103:-0.16919 104:-0.1853 105:0.01611 107:0.03223 108:0.07251 109:0.02417 110:0.00806 111:-0.04028 112:-0.08057 113:-0.01611 114:-0.04028 115:-0.16113 116:-0.19336 117:0.01611 118:-0.03223 119:0.02417 120:0.06445 121:0.03223 122:0.02417 123:-0.02417 124:-0.0564 125:0.00806 126:-0.03223 127:-0.16113 128:-0.21753 129:0.00806 130:-0.04028 131:0.02417 132:0.0564 133:0.02417 134:0.00806 135:-0.04028 136:-0.06445 137:-0.00806 138:-0.03223 139:-0.16113 140:-0.20947 141:0.00806 142:-0.03223 143:0.02417 144:0.0564 145:0.03223 146:0.02417 147:-0.04028 148:-0.06445 149:-0.00806 150:-0.04834 151:-0.16113 152:-0.19336 153:0.00806 154:-0.00806 155:0.02417 156:0.04834 157:0.03223 158:0.01611 159:-0.04834 160:-0.07251 161:-0.00806 162:-0.04834 163:-0.15308 164:-0.16919 165:-0.00806 167:0.03223 168:0.03223 169:0.02417 170:0.03223 171:-0.04834 172:-0.06445 174:-0.04834 175:-0.14502 176:-0.15308 177:-0.02417 178:0.02417 179:0.06445 180:0.04028 181:0.03223 182:0.03223 183:-0.04834 184:-0.0564 186:-0.04834 187:-0.12085 188:-0.15308 189:-0.04028 190:0.04028 191:0.07251 192:0.04028 193:0.04028 194:0.02417 195:-0.04834 196:-0.06445 197:0.00806 198:-0.04834 199:-0.11279 200:-0.15308 201:-0.04028 202:0.00806 203:0.06445 204:0.02417 205:0.03223 206:0.02417 207:-0.04834 208:-0.07251 209:0.01611 210:-0.0564 211:-0.0564 212:-0.1853 213:-0.02417 214:-0.08862 215:0.06445 216:0.04834 217:0.04834 218:0.04028 219:-0.03223 220:-0.04834 221:0.02417 222:-0.03223 223:-0.00806 224:-0.1853 225:0.00806 226:-0.10474 227:0.08057 228:0.06445 229:0.04028 230:0.03223 231:-0.04834 232:-0.04028 233:0.00806 234:-0.04028 235:0.08862 236:-0.22559 237:0.07251 238:-0.2417 239:0.09668 240:0.11279 241:0.04834 242:0.02417 243:-0.04028 244:-0.04834 245:-0.00806 246:-0.04834 247:-0.37866 248:0.31421 249:-0.38672 250:0.21753 251:0.08057 252:0.03223 253:-0.00806 255:-0.03223 256:-0.04834 257:-0.02417 258:-0.12891 259:-1.51465 260:1.01514 261:-1.12793 262:1.21655 263:0.12085 264:0.02417 265:-0.10474 266:0.10474 267:-0.09668 268:-0.2417 269:0.07251 270:-0.02417 271:0.75732 272:-0.27393 273:0.78149 274:0.52368 275:0.77344 276:0.41089 277:0.12085 278:0.06445 279:0.02417 280:-0.12891 281:0.02417 282:0.01611 283:-0.41895 284:-0.16919 285:-0.26587 286:-0.04834 287:-0.19336 288:-0.27393 
-8 -8 1:0.02417 2:0.04028 3:-0.04834 4:-0.04834 5:0.01611 6:-0.0564 7:-0.07251 8:0.00806 9:-0.04028 10:0.19336 11:0.12085 12:0.04834 13:0.03223 14:0.03223 15:-0.04028 16:-0.0564 17:0.00806 18:-0.04028 19:-0.16113 20:0.00806 21:-0.08057 22:0.16113 23:0.09668 24:0.0564 25:0.02417 26:0.02417 27:-0.03223 28:-0.08057 29:-0.03223 30:-0.0564 31:-0.19336 32:-0.00806 33:-0.08057 34:0.11279 35:0.09668 36:0.04834 37:0.01611 38:0.02417 39:-0.04028 40:-0.07251 41:-0.00806 42:-0.0564 43:-0.16919 44:-0.01611 45:-0.03223 46:0.07251 47:0.09668 48:0.03223 49:0.01611 50:0.00806 51:-0.04834 52:-0.08862 53:-0.01611 54:-0.0564 55:-0.13696 56:-0.0564 58:0.04834 59:0.08862 60:0.0564 61:0.01611 62:0.03223 63:-0.02417 64:-0.07251 65:-0.01611 66:-0.04028 67:-0.14502 68:-0.08057 69:0.02417 70:0.0564 71:0.07251 72:0.06445 73:0.01611 74:0.01611 75:-0.03223 76:-0.08057 78:-0.02417 79:-0.12891 80:-0.09668 81:0.04028 82:0.06445 83:0.04834 84:0.06445 86:0.01611 87:-0.03223 88:-0.08862 90:-0.03223 91:-0.12085 92:-0.11279 93:0.04028 94:0.0564 95:0.04028 96:0.0564 98:0.01611 99:-0.04028 100:-0.08862 101:-0.01611 102:-0.04834 103:-0.13696 104:-0.11279 105:0.04028 106:0.0564 107:0.03223 108:0.06445 109:0.00806 110:0.02417 111:-0.04028 112:-0.08862 113:-0.01611 114:-0.04028 115:-0.13696 116:-0.13696 117:0.02417 118:0.04834 119:0.04028 120:0.06445 121:0.01611 122:0.02417 123:-0.04028 124:-0.08057 126:-0.04834 127:-0.10474 128:-0.12891 129:0.03223 130:0.03223 131:0.04028 132:0.06445 133:0.02417 134:0.03223 135:-0.02417 136:-0.06445 137:0.00806 138:-0.03223 139:-0.12085 140:-0.15308 141:0.02417 143:0.02417 144:0.04028 145:0.00806 146:0.03223 147:-0.02417 148:-0.0564 149:-0.00806 150:-0.04834 151:-0.12085 152:-0.15308 153:0.01611 154:0.00806 155:0.04028 156:0.04028 157:0.00806 158:0.02417 159:-0.04028 160:-0.06445 161:-0.00806 162:-0.0564 163:-0.11279 164:-0.16113 165:0.01611 166:0.00806 167:0.04834 168:0.04834 169:0.01611 170:0.02417 171:-0.04028 172:-0.06445 173:0.00806 174:-0.04834 175:-0.12085 176:-0.15308 177:0.01611 178:0.02417 179:0.04834 180:0.04028 181:0.01611 182:0.03223 183:-0.02417 184:-0.04834 185:0.00806 186:-0.04028 187:-0.10474 188:-0.14502 189:-0.01611 190:0.01611 191:0.03223 192:0.04834 193:0.00806 194:0.02417 195:-0.03223 196:-0.0564 198:-0.04028 199:-0.10474 200:-0.14502 201:0.01611 202:0.03223 203:0.04834 204:0.03223 205:0.00806 206:0.02417 207:-0.02417 208:-0.06445 210:-0.04028 211:-0.10474 212:-0.13696 213:0.00806 214:0.0564 215:0.04834 216:0.01611 218:0.03223 219:-0.03223 220:-0.0564 221:0.01611 222:-0.03223 223:-0.0564 224:-0.13696 225:0.02417 226:0.07251 227:0.06445 228:0.04028 229:0.00806 230:0.02417 231:-0.02417 232:-0.0564 234:-0.04834 235:0.02417 236:-0.20947 237:0.04834 238:-0.08862 239:0.04834 240:0.07251 241:0.03223 242:0.03223 243:-0.03223 244:-0.04028 245:0.01611 246:-0.04028 247:0.09668 248:-0.28198 249:0.10474 250:-0.27393 251:0.04028 252:0.08057 253:0.02417 254:0.02417 255:-0.02417 256:-0.04028 257:0.01611 258:-0.04028 259:0.12085 260:-0.2981 261:0.11279 262:-0.29004 263:0.04834 264:0.08057 265:0.04028 266:0.02417 267:-0.02417 268:-0.04028 270:-0.01611 271:0.1853 272:-0.24976 273:0.11279 274:-0.29004 275:0.07251 276:0.08057 277:0.02417 278:0.01611 279:-0.02417 280:-0.0564 281:-0.01611 282:-0.02417 283:0.16919 284:-0.01611 285:-0.00806 286:-0.08057 287:0.01611 288:0.08057 
-0.756421802495077 -0 1:0.02417 2:0.04028 3:-0.01611 4:-0.07251 5:-0.00806 6:-0.06445 7:-0.16113 8:-0.04028 9:-0.04834 10:0.07251 11:0.08862 12:0.06445 13:0.01611 14:0.04028 15:-0.02417 16:-0.08057 17:-0.00806 18:-0.06445 19:-0.14502 20:-0.0564 21:-0.01611 22:0.04834 23:0.08057 24:0.04028 25:0.00806 26:0.03223 27:-0.04028 28:-0.08862 29:-0.00806 30:-0.06445 31:-0.12891 32:-0.07251 33:0.00806 34:0.04028 35:0.08057 36:0.04028 37:0.03223 38:0.02417 39:-0.04834 40:-0.08057 41:-0.01611 42:-0.04834 43:-0.12085 44:-0.10474 45:0.02417 46:0.04028 47:0.0564 48:0.04028 49:0.04028 50:0.03223 51:-0.01611 52:-0.0564 53:0.00806 54:-0.03223 55:-0.13696 56:-0.10474 57:0.03223 58:0.04028 59:0.04028 60:0.0564 61:0.04028 62:0.03223 63:-0.01611 64:-0.06445 65:0.00806 66:-0.02417 67:-0.13696 68:-0.09668 69:0.04028 70:0.04028 71:0.04834 72:0.06445 73:0.01611 74:0.02417 75:-0.02417 76:-0.07251 77:-0.00806 78:-0.02417 79:-0.14502 80:-0.12085 81:0.04028 82:0.03223 83:0.03223 84:0.06445 85:0.00806 86:0.01611 87:-0.02417 88:-0.09668 89:-0.01611 90:-0.03223 91:-0.14502 92:-0.13696 93:0.01611 94:0.02417 95:0.03223 96:0.08862 97:0.00806 98:0.01611 99:-0.03223 100:-0.08862 101:-0.01611 102:-0.04028 103:-0.13696 104:-0.12891 105:0.00806 106:0.03223 107:0.04028 108:0.08862 109:0.00806 110:0.02417 111:-0.02417 112:-0.09668 113:-0.00806 114:-0.02417 115:-0.12891 116:-0.12085 118:0.03223 119:0.03223 120:0.07251 121:0.00806 122:0.01611 123:-0.02417 124:-0.08862 125:-0.00806 126:-0.03223 127:-0.12085 128:-0.12085 129:-0.00806 130:0.03223 131:0.04028 132:0.0564 133:0.01611 134:0.02417 135:-0.02417 136:-0.10474 137:-0.02417 138:-0.04834 139:-0.13696 140:-0.12891 142:0.04834 143:0.04028 144:0.02417 145:0.02417 146:0.02417 147:-0.01611 148:-0.10474 149:-0.00806 150:-0.04028 151:-0.12891 152:-0.10474 153:0.00806 154:0.07251 155:0.0564 156:0.04028 157:0.00806 158:0.02417 159:-0.02417 160:-0.08862 162:-0.04834 163:-0.12085 164:-0.11279 166:0.06445 167:0.04834 168:0.03223 169:0.01611 170:0.02417 171:-0.01611 172:-0.08057 174:-0.04834 175:-0.11279 176:-0.10474 178:0.08862 179:0.04834 180:0.01611 181:0.01611 182:0.02417 183:-0.02417 184:-0.08057 186:-0.03223 187:-0.08057 188:-0.10474 190:0.08862 191:0.06445 192:0.02417 193:0.01611 194:0.02417 195:-0.01611 196:-0.08057 198:-0.04028 199:-0.06445 200:-0.14502 202:0.0564 203:0.07251 204:0.04834 205:0.03223 206:0.04028 207:-0.02417 208:-0.07251 210:-0.03223 211:0.03223 212:-0.20142 213:0.04834 214:-0.16113 215:0.0564 216:0.09668 217:0.04028 218:0.04028 219:-0.02417 220:-0.04834 222:-0.03223 223:0.1853 224:-0.26587 225:0.12891 226:-0.34644 227:0.08057 228:0.06445 229:0.03223 230:0.01611 231:-0.02417 232:-0.04834 234:-0.03223 235:0.22559 236:-0.27393 237:0.12085 238:-0.33838 239:0.09668 240:0.0564 241:0.04028 242:0.01611 243:-0.03223 244:-0.04834 245:-0.00806 246:-0.04028 247:-0.33032 248:-0.20947 249:-0.46729 250:-0.02417 251:0.06445 252:0.04834 253:-0.02417 254:0.07251 255:-0.09668 256:-0.09668 257:-0.03223 258:-0.19336 259:-0.74121 260:1.70801 261:-0.68481 262:1.42603 263:0.19336 264:-0.25781 265:0.01611 266:0.02417 267:0.04834 268:-0.09668 269:0.00806 270:0.09668 271:-0.16113 272:-0.13696 273:0.07251 274:0.40283 275:-0.2417 276:0.04834 277:0.0564 278:0.02417 279:0.0564 280:-0.00806 281:0.01611 282:0.08057 283:-0.04028 284:-0.0564 285:-0.00806 286:-0.10474 287:-0.17725 288:0.04834 
-2.763287207362735 -0 1:-0.01611 3:0.02417 4:-0.09668 5:-0.00806 7:0.01611 8:0.07251 9:0.02417 10:0.02417 12:0.04028 13:-0.02417 15:0.02417 16:-0.09668 17:0.00806 18:-0.00806 19:0.04028 20:0.07251 21:0.04834 22:0.00806 23:0.02417 24:0.0564 25:-0.02417 26:-0.00806 27:0.02417 28:-0.08862 29:0.00806 30:-0.00806 31:0.06445 32:0.04028 33:0.08057 34:-0.02417 36:0.02417 37:-0.02417 38:-0.00806 39:0.02417 40:-0.09668 41:-0.00806 42:-0.00806 43:0.07251 44:0.02417 45:0.08862 46:-0.01611 47:-0.00806 48:0.04834 49:-0.00806 50:0.00806 51:0.03223 52:-0.08862 53:-0.00806 55:0.0564 56:0.01611 57:0.09668 58:-0.00806 59:-0.02417 60:0.04834 61:-0.00806 62:0.00806 63:0.03223 64:-0.0564 65:0.00806 66:0.00806 67:0.07251 68:0.01611 69:0.11279 70:-0.04028 71:-0.04028 72:0.04028 73:-0.00806 75:0.02417 76:-0.06445 79:0.07251 81:0.10474 82:-0.00806 83:-0.02417 84:0.0564 86:0.00806 87:0.01611 88:-0.04834 89:0.00806 91:0.08057 92:-0.00806 93:0.08862 95:-0.03223 96:0.04834 99:0.01611 100:-0.04028 101:-0.00806 102:-0.00806 103:0.08862 104:-0.01611 105:0.08862 106:-0.01611 107:-0.04028 108:0.04028 109:0.00806 111:0.02417 112:-0.03223 113:-0.00806 115:0.08862 116:-0.03223 117:0.08862 118:-0.03223 119:-0.04834 120:0.03223 123:0.01611 124:-0.04028 127:0.10474 128:-0.02417 129:0.09668 130:-0.04834 131:-0.04834 132:0.04028 135:0.02417 136:-0.04028 139:0.12085 140:-0.03223 141:0.08862 142:-0.04028 143:-0.04834 144:0.03223 146:-0.00806 147:0.01611 148:-0.04834 149:-0.00806 150:-0.00806 151:0.11279 152:-0.04834 153:0.08057 154:-0.03223 155:-0.04028 156:0.04028 158:0.00806 159:0.02417 160:-0.04028 161:-0.00806 162:-0.00806 163:0.12891 164:-0.0564 165:0.07251 166:-0.03223 167:-0.04834 168:0.04028 170:0.01611 171:0.03223 172:-0.04028 173:-0.00806 174:-0.00806 175:0.12891 176:-0.0564 177:0.06445 178:-0.03223 179:-0.04834 180:0.03223 181:-0.00806 183:0.01611 184:-0.0564 185:0.00806 187:0.15308 188:-0.06445 189:0.06445 190:-0.04028 191:-0.04834 192:0.02417 195:0.02417 196:-0.0564 197:0.01611 198:0.00806 199:0.17725 200:-0.08057 201:0.07251 202:-0.07251 203:-0.03223 204:0.00806 205:-0.00806 207:0.01611 208:-0.0564 211:0.22559 212:-0.09668 213:0.10474 214:-0.15308 215:-0.03223 216:0.02417 219:0.02417 220:-0.0564 223:0.29004 224:-0.13696 225:0.13696 226:-0.2417 227:-0.03223 228:0.01611 229:0.00806 230:0.00806 231:0.03223 232:-0.04028 233:0.00806 234:0.00806 235:0.35449 236:-0.08057 237:0.11279 238:-0.29004 240:0.07251 241:0.00806 243:0.02417 244:-0.04834 245:0.01611 246:0.02417 247:0.37061 248:0.04028 249:0.0564 250:-0.22559 251:-0.00806 252:0.06445 253:0.01611 254:0.00806 255:0.07251 256:-0.03223 257:-0.02417 258:-0.03223 259:-1.84497 260:0.54785 261:-0.79761 262:0.83789 263:0.00806 264:0.12891 265:0.01611 266:-0.04028 267:0.06445 268:-0.11279 269:-0.02417 270:0.01611 271:0.02417 272:-0.25781 273:0.01611 274:-0.57202 275:-0.12891 276:0.08862 277:-0.03223 278:0.02417 279:0.08862 280:-0.07251 281:0.04028 282:0.10474 283:0.11279 284:-0.00806 285:0.00806 286:0.15308 287:-0.2417 288:-0.10474 
-8 -5.935959211676041 1:-0.00806 2:0.01611 3:0.02417 4:-0.04834 5:0.00806 6:-0.00806 7:0.22559 8:0.10474 9:0.02417 10:0.06445 11:0.02417 12:0.01611 13:0.02417 14:0.03223 15:0.03223 16:-0.03223 17:0.02417 18:-0.00806 19:0.22559 20:0.12085 21:0.02417 22:0.04028 23:0.03223 24:0.02417 25:0.00806 26:0.02417 27:0.02417 28:-0.04834 30:-0.01611 31:0.22559 32:0.14502 33:0.02417 34:0.07251 35:0.0564 36:0.04028 37:-0.03223 38:0.00806 39:0.01611 40:-0.04834 41:0.00806 42:-0.00806 43:0.16113 44:0.12891 45:0.04028 46:0.09668 47:0.04834 48:0.03223 49:-0.01611 50:0.00806 51:0.02417 52:-0.06445 53:0.00806 54:0.00806 55:0.12085 56:0.10474 57:0.02417 58:0.0564 59:0.03223 60:0.0564 61:-0.00806 62:-0.00806 63:0.02417 64:-0.07251 67:0.08862 68:0.11279 69:0.01611 70:0.04028 71:0.03223 72:0.0564 73:-0.01611 74:0.01611 75:0.04028 76:-0.08862 77:-0.00806 79:0.03223 80:0.10474 81:0.01611 82:0.03223 83:0.02417 84:0.04834 85:-0.01611 86:0.00806 87:0.03223 88:-0.08862 91:0.0564 92:0.08862 93:0.04834 94:0.00806 96:0.03223 97:-0.02417 99:0.03223 100:-0.08057 101:0.00806 102:0.00806 103:0.07251 104:0.08057 105:0.08057 106:-0.00806 107:0.02417 108:0.04834 109:-0.01611 110:0.00806 111:0.02417 112:-0.09668 115:0.08057 116:0.01611 117:0.08862 118:-0.03223 119:0.01611 120:0.0564 121:-0.00806 122:-0.00806 123:0.02417 124:-0.08057 126:-0.00806 127:0.0564 128:-0.00806 129:0.10474 130:-0.04028 131:-0.00806 132:0.04028 135:0.02417 136:-0.0564 137:0.00806 138:-0.00806 139:0.08862 140:-0.01611 141:0.11279 142:-0.04028 143:-0.03223 144:0.04834 146:0.00806 147:0.04028 148:-0.04028 151:0.08862 152:-0.02417 153:0.09668 154:-0.04028 155:-0.04028 156:0.04028 157:0.00806 159:0.02417 160:-0.04834 161:0.00806 163:0.09668 164:-0.04028 165:0.10474 166:-0.03223 167:-0.04834 168:0.04028 169:0.00806 170:0.01611 171:0.04028 172:-0.02417 173:0.00806 174:0.00806 175:0.10474 176:-0.04028 177:0.10474 178:-0.03223 179:-0.04834 180:0.03223 181:-0.00806 182:0.00806 183:0.03223 184:-0.03223 187:0.11279 188:-0.06445 189:0.10474 190:-0.06445 191:-0.06445 192:0.02417 194:0.00806 195:0.03223 196:-0.00806 197:0.01611 198:0.01611 199:0.12891 200:-0.0564 201:0.12085 202:-0.07251 203:-0.0564 204:0.04834 205:0.00806 206:0.00806 207:0.02417 208:-0.04028 209:0.00806 211:0.12085 212:-0.08057 213:0.10474 214:-0.06445 215:-0.06445 216:0.04834 217:0.00806 219:0.01611 220:-0.0564 221:-0.00806 223:0.12085 224:-0.08862 225:0.08862 226:-0.08057 227:-0.0564 228:0.04028 229:0.00806 230:0.00806 231:0.01611 232:-0.0564 235:0.13696 236:-0.08862 237:0.08862 238:-0.07251 239:-0.04834 240:0.03223 241:0.00806 243:0.02417 244:-0.04834 247:0.15308 248:-0.08862 249:0.10474 250:-0.06445 251:-0.04834 252:0.03223 255:0.04028 256:-0.0564 258:0.00806 259:0.17725 260:-0.09668 261:0.08862 262:-0.08862 263:-0.04028 264:0.03223 265:-0.01611 267:0.02417 268:-0.06445 271:0.21753 272:-0.11279 273:0.09668 274:-0.14502 275:-0.04028 276:0.02417 277:-0.00806 279:0.03223 280:-0.06445 282:0.00806 283:0.2417 284:-0.12085 285:0.10474 286:-0.1853 287:-0.03223 288:0.01611 
-8 -0 1:-0.00806 2:0.02417 3:0.02417 4:-0.04834 5:0.01611 6:-0.00806 7:0.20142 8:0.13696 9:0.04028 10:0.03223 11:0.08057 12:0.02417 13:0.00806 14:0.03223 15:0.01611 16:-0.0564 17:0.01611 18:-0.02417 19:0.21753 20:0.17725 21:0.12891 22:0.10474 23:0.08862 24:0.0564 25:-0.01611 26:0.01611 27:0.01611 28:-0.08057 29:0.00806 30:-0.02417 31:0.1853 32:0.13696 33:0.07251 34:0.12085 35:0.06445 36:0.04834 37:-0.02417 38:0.00806 39:0.01611 40:-0.08862 42:-0.01611 43:0.12085 44:0.11279 45:0.04834 46:0.0564 47:0.04834 48:0.07251 49:-0.04028 50:-0.00806 51:0.02417 52:-0.09668 53:-0.00806 54:-0.01611 55:0.01611 56:0.10474 57:0.02417 58:-0.00806 59:0.04028 60:0.08057 61:-0.01611 62:0.00806 63:0.01611 64:-0.11279 65:0.00806 66:-0.01611 67:-0.00806 68:0.08862 69:0.00806 70:-0.01611 71:0.02417 72:0.07251 73:-0.02417 74:-0.01611 75:0.02417 76:-0.11279 77:-0.00806 78:-0.02417 79:0.03223 80:0.06445 81:0.01611 82:-0.02417 83:0.02417 84:0.07251 85:-0.03223 86:-0.00806 87:0.01611 88:-0.09668 89:-0.00806 90:-0.02417 91:0.04028 92:0.01611 93:0.06445 94:-0.02417 96:0.01611 97:-0.02417 99:0.02417 100:-0.08057 102:-0.00806 103:0.04834 104:-0.00806 105:0.07251 106:-0.03223 107:-0.00806 108:0.04028 109:-0.01611 111:0.02417 112:-0.06445 114:-0.00806 115:0.04028 116:-0.02417 117:0.08862 118:-0.03223 119:-0.04028 120:0.04834 121:-0.00806 123:0.03223 124:-0.0564 127:0.07251 128:-0.04028 129:0.11279 130:-0.04834 131:-0.04834 132:0.0564 133:0.00806 134:0.00806 135:0.03223 136:-0.0564 137:-0.00806 138:0.00806 139:0.08057 140:-0.0564 141:0.11279 142:-0.04028 143:-0.0564 144:0.04028 146:0.00806 147:0.02417 148:-0.0564 150:-0.00806 151:0.09668 152:-0.06445 153:0.11279 154:-0.04028 155:-0.07251 156:0.04028 159:0.01611 160:-0.04834 161:-0.00806 163:0.09668 164:-0.08057 165:0.12891 166:-0.04028 167:-0.06445 168:0.04834 171:0.02417 172:-0.04834 175:0.10474 176:-0.08862 177:0.12085 178:-0.04834 179:-0.0564 180:0.04834 183:0.02417 184:-0.04834 185:0.00806 186:0.02417 187:0.12085 188:-0.08862 189:0.12085 190:-0.04028 191:-0.0564 192:0.0564 194:-0.00806 195:0.02417 196:-0.0564 197:0.00806 198:0.00806 199:0.09668 200:-0.10474 201:0.08862 202:-0.0564 203:-0.07251 204:0.04028 205:0.00806 207:0.02417 208:-0.04834 209:0.00806 211:0.11279 212:-0.09668 213:0.07251 214:-0.0564 215:-0.06445 216:0.03223 217:0.00806 218:0.01611 219:0.03223 220:-0.04834 223:0.12085 224:-0.10474 225:0.07251 226:-0.06445 227:-0.0564 228:0.01611 229:0.00806 230:0.01611 231:0.03223 232:-0.04834 235:0.14502 236:-0.11279 237:0.07251 238:-0.09668 239:-0.04834 240:0.00806 241:0.00806 242:0.00806 243:0.03223 244:-0.04028 245:-0.02417 246:-0.00806 247:0.13696 248:-0.12085 249:0.07251 250:-0.10474 251:-0.04028 252:0.01611 253:0.00806 254:0.00806 255:0.01611 256:-0.04834 259:0.17725 260:-0.12891 261:0.08862 262:-0.15308 263:-0.04834 265:0.00806 267:0.01611 268:-0.04834 269:0.00806 271:0.22559 272:-0.15308 273:0.12891 274:-0.22559 275:-0.04028 276:0.02417 277:0.01611 279:0.02417 280:-0.04834 281:0.00806 282:0.00806 283:0.29004 284:-0.14502 285:0.13696 286:-0.2981 287:-0.01611 288:0.07251 
