svm_type c_svc
kernel_type rbf
gamma 0.0078125
nr_class 3
total_sv 30
rho 0.0290523 0.0588722 0.023432
label 46 49 50
nr_sv 9 8 13
SV
8 0 1:0.99501 2:0.72339 3:0.00646 4:-0.00064 5:-0.0094 6:0.03329 
0 8 1:1.16963 2:0.47828 3:-0.01957 4:0.0619 5:-0.02871 6:0.01853 
0 7.495783845440935 1:1.16269 2:0.5235 3:-0.02499 4:0.08541 5:-0.03418 6:0.01308 
0 8 1:1.14634 2:0.27299 3:-0.05969 4:-0.00952 5:-0.00076 6:-0.0214 
0 8 1:1.20013 2:0.42809 3:-0.03493 4:0.02221 5:-0.00349 6:0.00385 
0 8 1:1.20057 2:0.41634 3:-0.03389 4:0.02285 5:-0.0067 6:0.01006 
1.527058945451897 8 1:1.18793 2:0.0589 3:-0.03013 4:-0.10572 5:0.03368 6:-0.03224 
8 8 1:1.16864 2:0.07527 3:-0.03095 4:-0.09283 5:0.03038 6:-0.02815 
8 0 1:1.01686 2:0.66647 3:-0.00545 4:-0.04439 5:0.01672 6:-0.11553 
-8 4.88055619991048 1:-1.08138 2:0.68413 3:-0.05078 4:0.03487 5:0.00546 6:-0.17917 
-1.974673808576419 0 1:-1.34293 2:0.59701 3:0.07302 4:-0.00122 5:-0.01583 6:0.0372 
-0 8 1:-1.2102 2:-0.66998 3:0.10122 4:-0.17113 5:0.0271 6:0.19986 
-0 8 1:-1.06751 2:-0.61509 3:0.11096 4:-0.17771 5:0.03187 6:0.18386 
-0 8 1:-1.1236 2:-0.66623 3:0.11696 4:-0.18265 5:0.03937 6:0.20329 
-7.85495448648315 8 1:-1.05339 2:-0.49706 3:0.10478 4:-0.15358 5:0.01856 6:0.16077 
-7.697430650392327 8 1:-1.01899 2:-0.62891 3:0.10515 4:-0.15422 5:0.02852 6:0.18842 
-0 8 1:-1.11281 2:-0.49552 3:0.10558 4:-0.13019 5:-0.01175 6:0.19779 
-0 -8 1:0.18595 2:-0.86431 3:-0.01572 4:0.04577 5:-0.00251 6:-0.02851 
-0 -8 1:0.12945 2:-0.95102 3:-0.00702 4:0.01075 5:-0.00073 6:-0.00788 
-0 -8 1:0.2069 2:-0.93256 3:-0.01155 4:0.00731 5:0.0023 6:-0.01089 
-0 -8 1:0.12136 2:-0.92959 3:-0.01107 4:0.04083 5:-0.01301 6:-0.00886 
-0 -8 1:0.13084 2:-0.95063 3:-0.01202 4:0.04471 5:-0.02006 6:-0.003 
-8 -8 1:0.27325 2:-0.83511 3:-0.01271 4:0.02693 5:-0.00993 6:-0.03064 
-0 -4.88055619991048 1:0.29374 2:-0.99709 3:-0.0048 4:-0.003 5:0.00202 6:0.01235 
-8 -0 1:0.44968 2:-0.92194 3:0.00651 4:-0.02753 5:0.00933 6:-0.0035 
-7.495783845440935 -0 1:0.394 2:-0.92479 3:0.01287 4:-0.02553 5:0.00507 6:0.00403 
-8 -0 1:0.49027 2:-0.92188 3:0.01918 4:-0.03441 5:0.01226 6:0.0074 
-8 -0 1:0.48441 2:-0.89207 3:-0.00391 4:0.00889 5:-0.00875 6:-0.01268 
-8 -0 1:0.42776 2:-0.90867 3:-0.00275 4:-0.0012 6:-0.00809 
-8 -0 1:0.54865 2:-0.86162 3:0.01074 4:-0.00135 5:-0.00434 6:0.00087 
