svm_type c_svc
kernel_type rbf
gamma 0.0078125
nr_class 2
total_sv 30
rho 0.177478
label 46 49
nr_sv 15 15
SV
32 1:0.2419 2:0.0029 3:-0.03907 4:-0.00371 6:-0.03695 7:0.01268 8:0.00409 9:0.00549 10:0.01058 11:-0.10405 12:0.03266 13:0.03905 14:-0.02101 15:0.03295 16:0.01068 17:-0.04401 18:-0.11871 19:-0.01753 20:0.10297 21:0.00955 22:-0.00063 23:-0.05003 24:0.10182 25:-0.01631 26:-0.01257 27:0.052 28:-0.01411 29:0.01781 30:0.00452 31:0.01587 32:-0.0382 
32 1:0.20965 2:-0.01344 3:-0.02792 4:0.01639 5:-0.00904 6:-0.02687 7:0.01302 8:-0.00045 10:-0.00067 11:-0.06625 12:0.02281 13:0.03006 14:0.00338 15:0.02671 16:0.0138 17:-0.02306 18:-0.09493 19:-0.01761 20:0.08312 21:-0.01062 22:-0.00518 23:-0.022 24:0.08063 25:-0.00117 26:-0.01212 27:0.04539 28:-0.01618 29:0.0272 30:0.00295 31:0.0081 32:-0.03033 
32 1:0.20966 2:-0.00609 3:-0.01896 4:0.01826 5:-0.01662 6:-0.02222 7:0.01946 8:0.00455 9:-0.00123 10:0.00749 11:-0.05593 12:0.02647 13:0.04257 14:-0.00796 15:0.01588 16:0.00257 17:-0.03009 18:-0.09506 19:-0.01768 20:0.08905 21:-0.0121 22:-0.01713 23:-0.02786 24:0.06761 25:-0.01158 26:-0.02546 27:0.04338 28:-0.01959 29:0.02479 30:0.00045 31:0.01947 32:-0.01628 
32 1:0.20968 2:-0.0063 3:-0.02038 4:0.01571 5:-0.02073 6:-0.02571 7:0.0149 8:0.00994 9:0.00515 11:-0.06256 12:0.01446 13:0.04777 14:-0.00609 15:0.02705 16:0.01126 17:-0.02097 18:-0.09521 19:-0.01167 20:0.08259 21:0.00158 22:-0.00515 23:-0.02668 24:0.06922 25:-0.00817 26:-0.00798 27:0.04055 28:-0.03024 29:0.02907 30:0.00416 31:0.00774 32:-0.02141 
32 1:0.2177 2:-0.00339 3:-0.02465 4:0.02095 5:-0.02059 6:-0.02308 7:0.0155 8:0.01356 9:-0.00126 10:0.00667 11:-0.0638 12:0.02428 13:0.04213 14:-0.01223 15:0.01425 16:0.01118 17:-0.03126 18:-0.09053 19:-0.00628 20:0.08593 21:-0.00998 22:-0.01591 23:-0.03675 24:0.06665 25:-0.003 26:-0.02366 27:0.03978 28:-0.01561 29:0.02077 30:-0.00442 31:0.01666 32:-0.02296 
32 1:-0.01595 2:-0.02867 3:0.03502 4:-0.00869 5:0.00857 6:0.00481 7:-0.01989 8:0.00334 9:-0.01941 10:-0.00389 11:-0.03645 12:0.00299 13:0.00681 14:0.00138 15:0.00547 16:-0.00437 17:0.01516 18:-0.01791 19:0.02341 20:-0.00403 22:0.00996 23:-0.0183 24:0.02396 25:-0.00889 26:-0.01861 27:0.00763 28:-0.00319 29:0.00133 30:-0.01082 31:0.00955 32:0.03353 
32 1:0.10476 2:-0.035 3:-0.17321 4:0.00312 5:-0.07449 6:-0.20361 7:0.04117 8:0.07014 9:0.02544 10:-0.16552 11:0.21232 12:-0.0575 13:-0.10042 14:-0.01231 15:-0.05428 16:-0.12858 17:0.18543 18:0.0595 19:0.0587 20:0.06184 21:-0.2583 22:-0.12725 23:0.15408 24:-0.05173 25:-0.01133 26:0.00386 27:-0.06091 28:0.02065 29:0.03109 30:-0.00154 31:-0.06026 32:-0.00988 
9.82886680112559 1:0.25052 2:0.06156 3:-0.1571 4:0.14814 5:-0.09147 6:-0.16139 7:0.08724 8:0.0439 9:0.00127 10:-0.07699 11:0.15215 12:-0.04226 13:0.03047 14:-0.03776 15:-0.06505 16:-0.07325 17:0.12498 18:-0.03013 19:0.01638 20:0.14369 21:-0.17479 22:-0.00993 23:0.01046 24:-0.10317 25:0.03475 26:0.00775 27:0.02184 28:-0.06437 29:0.14146 30:0.02972 31:-0.03629 32:0.03212 
32 1:0.17724 2:-0.06299 3:0.0571 4:0.04862 5:-0.04977 6:0.04864 7:-0.02088 8:0.00369 9:-0.01536 10:-0.01519 11:0.06649 12:0.00267 13:0.06283 14:0.00744 15:0.01884 16:-0.00435 17:0.04608 18:-0.01708 19:0.01198 20:0.02725 21:-0.06235 22:0.00868 23:0.0398 24:-0.0533 25:-0.00143 26:-0.0249 27:0.04798 28:-0.06611 29:0.04143 30:-0.00934 31:-0.00163 32:0.05943 
32 1:0.00833 2:0.00264 3:0.01501 4:0.01543 5:0.01764 6:-0.02794 7:-0.00047 8:-0.00257 9:-0.01533 10:0.00804 11:-0.02889 12:0.03217 13:0.01614 14:-0.00231 15:-0.0044 16:0.01093 17:0.02076 18:-0.0111 19:0.03427 20:0.00069 21:-0.00842 22:0.02364 23:-0.00247 24:-0.00081 25:-0.01684 26:-0.03804 27:0.01144 28:-0.00932 29:0.02308 30:-0.01836 31:-0.00089 32:0.03865 
32 1:0.17785 2:0.07447 3:-0.00178 4:0.06548 5:-0.03571 6:-0.02593 7:0.01082 8:0.01303 9:-0.02746 10:0.01543 11:0.00956 12:0.0164 13:0.1088 14:-0.01679 15:0.01579 16:0.03045 17:0.02324 18:-0.09803 19:-0.02665 20:0.09946 21:-0.01202 22:0.0275 23:-0.05284 24:0.00667 25:0.01041 26:-0.036 27:0.08621 28:-0.08239 29:0.08917 30:0.00298 31:0.01754 32:0.09063 
32 1:0.22593 2:0.01433 3:0.0017 4:0.01223 5:0.00728 6:-0.04777 7:-0.00427 8:0.01054 9:-0.0146 10:-0.01658 11:-0.04198 12:0.04079 13:0.02252 14:-0.02118 15:0.00512 16:0.03346 17:0.04545 18:-0.04332 19:0.03552 20:0.01573 21:-0.01734 22:0.0386 23:-0.0271 24:0.02182 25:-0.02831 26:-0.05777 27:0.04398 28:-0.0171 29:0.03703 30:-0.01754 31:0.01592 32:0.08129 
32 1:0.0969 2:-0.00489 3:0.01237 4:-0.00272 5:-0.00168 6:-0.02611 8:0.00122 9:-0.01835 10:-0.00042 11:-0.01421 12:0.0139 13:0.00703 14:-0.00949 15:0.00331 16:0.01055 18:-0.02809 19:-0.00226 20:0.01792 21:-0.00282 22:-0.00411 23:-0.01227 24:0.0051 25:0.00079 26:-0.0142 27:0.01445 28:-0.01502 29:0.00451 30:-0.00488 31:0.0074 32:0.01359 
32 1:0.11322 2:0.03555 3:-0.0134 4:0.03528 5:0.00429 6:-0.0632 7:0.01575 8:-0.00142 9:-0.00698 10:0.02517 11:-0.01381 12:-0.00111 13:0.03956 14:-0.00813 15:-0.02883 17:0.00977 18:-0.00308 19:0.02004 20:0.01824 21:-0.01011 22:0.0293 23:0.00539 24:-0.05027 25:0.01787 26:-0.01485 27:0.03123 28:-0.03355 29:0.04567 30:-0.00451 31:-0.00882 32:0.0311 
32 1:0.21776 3:-0.03405 4:0.01762 5:-0.01472 6:-0.03067 7:0.0041 8:0.02087 9:0.00534 10:-0.00766 11:-0.05322 12:0.02632 13:0.04966 14:-0.00866 15:0.02377 16:0.00324 17:-0.0205 18:-0.08913 19:-0.01126 20:0.09296 21:-0.01711 22:-0.01147 23:-0.02821 24:0.07 25:-0.00969 26:-0.01618 27:0.0444 28:-0.0266 29:0.03917 30:0.01067 31:0.00783 32:-0.01404 
-32 1:-0.16914 2:-0.02118 3:0.10578 4:-0.10081 5:0.05765 6:0.06801 7:-0.0351 8:-0.02642 9:-0.0136 10:-0.00582 11:-0.02663 12:0.03018 13:-0.04781 14:-0.00078 15:-0.01625 16:0.03045 17:0.00104 18:0.0494 19:0.00618 20:-0.09567 21:0.06957 22:-0.00481 23:-0.00354 24:0.03299 25:-0.01528 26:0.01473 27:-0.03925 28:0.0194 29:-0.04375 30:-0.01247 31:0.00367 32:0.00099 
-32 1:-0.10438 2:0.02941 3:0.01935 4:-0.00552 5:0.00721 6:-0.03531 7:-0.0195 8:-0.00761 9:-0.01791 10:0.00631 11:-0.05075 12:0.02709 13:-0.01612 14:-0.00765 15:-0.00892 16:0.01608 17:0.00324 18:-0.02911 19:0.00934 20:0.01606 21:0.02049 22:0.00227 23:-0.03744 24:0.06438 25:-0.01084 26:-0.00971 27:-0.0052 28:0.01732 29:0.00583 30:-0.00974 31:-0.0049 32:0.02602 
-32 1:-0.20926 2:-0.0175 3:-0.0094 4:-0.05022 6:0.04187 7:-0.03244 8:-0.00395 9:0.02786 10:0.02201 11:0.00379 12:-0.04448 13:-0.01787 14:0.03267 15:0.03937 16:-0.01622 17:-0.06201 18:0.02716 19:-0.04781 20:-0.0323 21:0.04022 22:-0.02338 23:0.01049 24:0.03958 25:0.01752 26:0.03267 27:-0.04758 28:0.0527 29:-0.076 30:0.0023 31:0.0169 32:-0.0529 
-32 1:-0.1528 2:-0.01219 3:0.0957 4:-0.01662 5:0.06093 6:-0.00248 7:-0.05167 8:-0.00335 9:-0.0169 10:-0.00727 11:0.02339 12:0.02994 13:-0.07269 14:-0.01485 15:-0.04745 16:0.03672 17:0.08522 18:0.14813 19:0.09892 20:-0.17915 21:0.04878 22:0.05201 23:0.02871 24:-0.09868 25:-0.05227 26:-0.05739 27:-0.04323 28:0.01174 29:-0.01782 30:-0.03759 31:-0.027 32:0.1351 
-32 1:-0.19305 2:0.00444 3:-0.01027 4:-0.03387 5:0.03712 6:0.00888 7:-0.00081 8:-0.01081 9:0.04283 10:0.03206 11:0.01924 12:0.00346 13:-0.05254 14:0.00174 15:0.00038 16:0.02245 17:-0.03884 18:0.07402 19:-0.0284 20:-0.1072 21:0.06982 22:0.03 23:0.03631 24:-0.05254 25:-0.00681 26:0.01762 27:-0.01705 28:0.04228 29:-0.04714 30:0.00537 31:0.01286 32:-0.04873 
-32 1:-0.20914 2:0.00061 3:0.02934 4:0.00448 5:0.04398 6:-0.02886 7:0.01371 8:-0.01606 9:0.00775 10:0.00755 11:0.01577 12:0.03573 13:-0.03882 14:-0.01494 15:-0.03669 16:0.02173 17:0.02419 18:0.10469 19:0.05457 20:-0.1169 21:0.03148 22:0.05932 23:0.02316 24:-0.12059 25:-0.03002 26:-0.03177 27:-0.01693 28:0.00573 29:-0.00255 30:-0.00784 31:-0.02005 32:0.04516 
-32 1:-0.12865 2:-0.01366 3:0.07919 4:-0.00995 5:0.05306 6:0.01424 7:-0.03738 8:-0.02563 9:-0.01275 10:0.00135 11:0.02803 12:0.03256 13:-0.06764 14:-0.00504 15:-0.03536 16:0.03495 17:0.07218 18:0.12396 19:0.07226 20:-0.17595 21:0.02901 22:0.05663 23:0.02661 24:-0.1269 25:-0.03621 26:-0.05135 27:-0.02268 28:0.00688 29:-0.01462 30:-0.01898 31:-0.00653 32:0.09811 
-9.82886680112559 1:-0.18506 2:-0.01274 3:-0.02768 4:-0.03681 5:0.03492 6:0.04449 7:-0.00313 8:-0.01646 9:0.01436 10:0.03635 11:0.02245 12:-0.02983 13:-0.05388 14:0.01315 15:0.00383 16:0.00138 17:-0.07737 18:0.10058 19:-0.01877 20:-0.09518 21:0.05972 22:0.00345 23:0.03729 24:-0.06079 25:0.02123 26:0.06088 27:-0.0606 28:0.05711 29:-0.07626 30:0.0195 31:0.00493 32:-0.10613 
-32 1:-0.08039 2:-0.02381 3:0.05886 4:-0.0432 5:0.05561 6:0.04679 7:-0.00635 8:-0.02772 9:0.01259 10:0.00889 11:0.03654 12:0.00063 13:-0.06431 14:0.0016 15:-0.03909 16:0.02407 17:-0.00324 18:0.12929 19:0.01516 20:-0.14936 21:0.05353 22:0.00191 23:0.04113 24:-0.0689 25:-0.00567 26:0.01275 27:-0.04187 28:0.03029 29:-0.05415 30:-0.00266 31:-0.00852 32:-0.0118 
-32 1:-0.20924 2:-0.00557 3:-0.00551 4:-0.02191 5:0.01389 6:0.01168 7:-0.00083 8:-0.00769 9:0.02592 10:0.01676 11:-0.00814 12:-0.00458 13:-0.0124 14:0.00516 15:0.00875 16:0.00435 17:-0.03783 18:0.0116 19:-0.01567 20:-0.03251 21:0.02511 22:-0.00684 23:0.01203 24:0.00778 25:-0.00249 26:0.00414 27:-0.00806 28:0.02765 29:-0.0313 30:0.00184 31:0.01009 32:-0.03461 
-32 1:-0.16098 2:-0.01137 3:0.0262 4:-0.0403 5:-0.00415 6:0.03231 7:-0.00186 8:-0.01222 9:-0.01516 10:0.00215 11:-0.05654 12:-0.03159 13:0.0111 14:0.0179 15:-0.00355 16:-0.02484 17:-0.07574 18:-0.02731 19:-0.03805 20:0.05891 21:0.01679 22:-0.04939 23:-0.01614 24:0.09894 25:0.0488 26:0.08688 27:-0.07236 28:0.02595 29:-0.05183 30:0.01327 31:-0.02803 32:-0.10135 
-32 1:-0.24104 2:0.09931 3:0.03636 4:0.01942 5:-0.07016 6:0.36505 7:0.01906 8:-0.01285 9:0.00074 10:0.02417 11:0.05586 12:-0.07979 13:0.01938 14:0.05536 15:0.03511 16:-0.05556 17:-0.06596 18:-0.02828 19:-0.11585 20:0.07098 21:0.02277 22:-0.04733 23:-0.08032 24:0.05928 25:0.08027 26:0.11885 27:-0.02959 28:0.0045 29:-0.03919 30:0.03778 31:0.01293 32:-0.07083 
-32 1:-0.18499 2:-0.01832 3:-0.01793 4:-0.03123 5:-0.00316 6:0.02803 7:-0.00443 8:-0.00228 9:0.00621 10:0.0214 11:-0.01557 12:-0.04384 13:0.02917 14:0.01077 15:0.0329 16:-0.00125 17:-0.056 18:-0.02233 19:-0.04619 20:0.03019 21:0.03264 22:-0.01656 23:-0.02464 24:0.06376 25:0.01454 26:0.03701 27:-0.00579 28:0.01937 29:-0.02381 30:0.02003 31:0.00316 32:-0.04925 
-32 1:-0.15296 2:-0.01711 3:0.06303 4:-0.07065 5:0.01374 6:0.12015 7:-0.02167 8:-0.01712 9:-0.0047 10:0.01853 11:0.00051 12:-0.04656 13:-0.021 14:0.04705 15:0.00534 16:-0.01208 17:-0.05607 18:0.04097 19:-0.04032 20:-0.03597 21:0.04841 22:-0.04893 23:-0.00715 24:0.04393 25:0.04297 26:0.08883 27:-0.06639 28:0.04174 29:-0.06797 30:0.00875 31:-0.00465 32:-0.05349 
-32 1:-0.06408 2:-0.01089 3:-0.05369 4:0.03508 5:-0.0039 6:-0.04685 7:-0.0068 8:-0.00423 9:0.0198 10:0.02903 11:0.05265 12:-0.03396 13:-0.03953 14:0.00959 15:0.02504 16:-0.00984 17:-0.01376 18:0.07005 19:0.00527 20:-0.07337 21:0.01642 22:0.05075 23:0.04829 24:-0.13642 25:-0.01283 26:-0.03341 27:0.00723 28:0.03008 29:-0.03302 30:-0.00361 31:0.01697 32:-0.00353 
