svm_type c_svc
kernel_type rbf
gamma 0.0078125
nr_class 3
total_sv 39
rho -2.09992 2.14528 4.34649
label 46 49 50
nr_sv 13 10 16
SV
0 32 1:-0.24842 2:0.09439 3:0.08748 4:-0.04898 5:0.02143 6:-0.02621 7:0.04194 8:0.05373 9:-0.07051 10:-0.03931 11:0.12095 12:-0.10929 13:-0.22321 14:-0.03968 15:0.07147 16:0.10892 17:-0.1521 18:-0.05673 19:-0.09341 20:0.01959 21:-0.11077 22:-0.0252 23:-0.09507 24:-0.02151 25:-0.07498 26:0.12354 27:-0.00316 28:0.09824 29:0.21442 30:0.06729 31:-0.03566 32:-0.0447 
32 0 1:-0.22405 2:0.1205 3:0.11906 4:0.02743 5:0.01091 6:0.02159 7:0.06202 8:0.04109 9:-0.06244 10:-0.05392 11:0.08812 12:-0.11917 13:-0.24156 14:-0.06363 15:0.07587 16:0.10319 17:-0.1158 18:-0.06501 19:-0.11307 20:0.02755 21:-0.12868 22:-0.06607 23:-0.11495 24:-0.05404 25:-0.06189 26:0.12944 27:0.0082 28:0.12205 29:0.19793 30:0.08908 31:-0.08193 32:-0.06276 
32 32 1:-0.23278 2:0.13864 3:0.14936 4:-0.03217 5:-0.04256 6:-0.02921 7:0.04843 8:0.01513 9:-0.02904 10:-0.05153 11:0.10459 12:-0.11349 13:-0.27956 14:-0.04775 15:0.06825 16:0.10728 17:-0.12794 18:-0.11285 19:-0.06917 20:0.00545 21:-0.10605 22:-0.06559 23:-0.11975 24:0.01632 25:-0.09002 26:0.12697 27:-0.05172 28:0.09915 29:0.1852 30:0.09795 31:-0.0845 32:-0.02683 
13.87540574071748 32 1:-0.24028 2:0.09609 3:0.13764 4:-0.05523 5:0.05891 6:-0.01868 7:0.04673 8:0.00937 9:-0.04949 10:-0.07975 11:0.08276 12:-0.14091 13:-0.21712 14:0.02068 15:0.05237 16:0.11305 17:-0.07648 18:-0.01292 19:-0.19167 20:0.02432 21:-0.2257 22:0.06365 23:-0.02272 24:-0.00491 25:-0.11486 26:0.09416 27:0.05423 28:-0.02207 29:0.26574 30:0.1166 31:0.03346 32:-0.04029 
32 0 1:-0.21505 2:0.39327 3:0.28078 4:-0.20154 5:0.05683 6:0.10103 7:0.49244 8:0.06955 9:-0.04556 10:-0.07197 11:0.14263 12:-0.10003 13:-0.47635 14:-0.48091 15:-0.07095 16:0.54565 17:-0.30601 18:-0.08437 19:-0.08223 20:-0.01632 21:-0.15892 22:0.01606 23:-0.03452 24:0.04337 25:-0.00426 26:0.24802 27:-0.2229 28:0.26931 29:-0.17503 30:0.08599 31:-0.53375 32:0.44553 
18.71956129925366 17.86379014400729 1:-0.15283 2:0.03434 3:0.24439 4:0.08049 5:-0.09499 6:0.14804 7:0.51797 8:-0.43787 9:0.50172 10:0.86587 11:0.10901 12:-0.00881 13:-0.65404 14:-1.48808 15:-0.58642 16:0.44572 17:-0.21748 18:0.09288 19:0.52293 20:0.25451 21:-0.21195 22:0.02909 23:-0.18857 24:0.08145 25:-0.33302 26:-0.10269 27:0.28528 28:-0.06173 29:0.15381 30:-0.08466 31:-0.47215 32:-0.08208 
32 0 1:-0.26702 2:0.15718 3:0.15226 4:0.01733 5:0.07177 6:-0.38135 7:-0.19547 8:-0.03634 9:-0.10483 10:-0.36409 11:-0.10413 12:-0.07766 13:-0.25568 14:0.38208 15:0.40241 16:0.15141 17:-0.17812 18:-0.13794 19:-0.1933 20:-0.18585 21:-0.04761 22:-0.12598 23:-0.03783 24:-0.15016 25:-0.08212 26:0.1848 27:-0.3066 28:0.3082 29:0.11254 30:0.18148 31:0.00105 32:-0.00785 
32 0 1:-0.21661 2:0.01535 3:0.10813 4:0.09827 5:0.07169 6:0.12678 7:0.08313 8:0.04814 9:-0.07096 10:-0.09217 11:-0.04933 12:-0.11607 13:-0.12064 14:-0.06331 15:0.05065 16:0.13244 17:-0.15811 18:-0.01077 19:-0.24649 20:0.03355 21:-0.19097 22:0.02628 23:-0.06123 24:-0.19588 25:-0.06308 26:0.07643 27:0.00898 28:0.04919 29:0.28083 30:0.06316 31:-0.13333 32:-0.06909 
32 32 1:-0.26817 2:0.04029 3:0.14192 4:-0.07192 5:-0.03954 6:-0.02192 7:0.05372 8:-0.00505 9:-0.00108 10:-0.05703 11:0.10662 12:-0.15106 13:-0.19159 14:0.02299 15:0.05184 16:0.1164 17:-0.08778 18:0.01512 19:-0.13893 20:0.08244 21:-0.1468 22:-0.04927 23:-0.05793 24:-0.00083 25:-0.12896 26:0.063 27:-0.09602 28:-0.00981 29:0.23584 30:0.07237 31:-0.11013 32:-0.06088 
23.31840559516517 31.4469391331678 1:-0.25248 2:-0.01308 3:0.10519 4:0.01316 5:0.02596 6:0.0445 7:0.04221 8:0.03554 9:-0.10524 10:-0.03722 11:0.09438 12:-0.16033 13:-0.14587 14:-0.00872 15:0.06245 16:0.0905 17:-0.09165 18:-0.00848 19:-0.14428 20:0.0465 21:-0.10382 22:-0.03919 23:-0.10175 24:-0.10052 25:-0.11856 26:0.10519 27:-0.03973 28:0.0366 29:0.2049 30:0.06222 31:-0.14754 32:-0.09193 
31.13572261939307 32 1:0.33529 2:-0.1442 3:-0.27005 4:0.34872 5:0.03605 6:-0.13092 7:-0.61398 8:0.11114 9:-0.07755 10:-0.08395 11:0.18223 12:-0.26473 13:-0.07645 14:0.57275 15:0.49365 16:-0.64327 17:0.22502 18:-0.13669 19:-0.53471 20:-0.36388 21:0.00417 22:-0.24669 23:-0.32776 24:-0.06627 25:-0.32838 26:-0.14217 27:0.44764 28:-0.14284 29:0.66545 30:-0.03675 31:0.32361 32:-0.53703 
0 32 1:-0.28882 2:0.03846 3:-0.12304 4:0.29386 5:-0.10112 6:-0.14592 7:-0.44858 8:0.04702 9:-0.01027 10:-0.1299 11:0.09218 12:-0.17305 13:-0.19069 14:0.34145 15:0.33837 16:-0.58726 17:0.10803 18:-0.20244 19:-0.40209 20:-0.27561 21:-0.12636 22:0.03021 23:-0.11313 25:-0.25779 26:0.00795 27:0.26376 28:0.13591 29:0.49277 30:0.10746 31:0.1706 32:-0.45303 
0 32 1:-0.30693 2:-0.02323 3:-0.11543 4:0.29257 5:-0.08392 6:-0.11579 7:-0.52561 8:0.0801 9:-0.14085 10:-0.18137 11:0.1124 12:-0.15663 13:-0.12675 14:0.4217 15:0.30463 16:-0.61227 17:0.13196 18:-0.15537 19:-0.46037 20:-0.39402 21:-0.13837 22:-0.02364 23:-0.15409 24:0.02785 25:-0.31573 26:0.07432 27:0.26436 28:0.04104 29:0.51562 30:0.04989 31:0.14101 32:-0.47032 
-32 32 1:0.31472 2:-0.20045 3:0.0864 4:-0.0151 5:0.16117 6:0.0874 7:-0.15119 8:0.04198 9:-0.05302 10:-0.12195 11:-0.02293 12:-0.38198 13:-0.14128 14:-0.0894 15:0.27029 16:0.0856 17:0.00349 18:-0.03241 19:-0.09932 20:0.29286 21:-0.18633 22:0.01769 23:0.03191 24:-0.03731 25:0.11398 26:-0.24664 27:0.03278 28:-0.03737 29:-0.01531 30:0.07951 31:0.05544 32:-0.01295 
-23.04909525452938 20.5863399608628 1:0.34911 2:0.07333 3:0.1203 4:0.06032 5:0.14408 6:0.02164 7:0.04323 8:-0.04673 9:-0.06655 10:-0.05396 11:-0.12867 12:-0.08726 13:-0.13056 14:-0.02236 15:0.04037 16:0.05224 17:-0.00894 18:-0.08138 19:-0.06757 20:0.14262 21:0.06034 22:-0.06237 23:-0.06679 24:0.06022 25:0.02914 26:-0.18672 28:0.05496 29:-0.02694 30:0.01605 31:-0.10662 32:0.01694 
-0 3.035193963642853 1:0.21689 2:0.25866 3:0.24375 4:0.24335 5:0.0511 6:-0.17771 7:0.01025 8:-0.02454 9:-0.06918 10:-0.0043 11:-0.10697 12:0.09967 13:-0.10263 14:0.00665 15:-0.20366 16:0.08219 17:0.02207 18:-0.03742 19:-0.02541 20:0.06919 21:0.08262 22:-0.03225 23:0.06723 24:-0.01448 25:0.11041 26:-0.14434 27:-0.0274 28:0.06916 29:-0.10095 30:-0.00317 31:-0.19456 32:-0.01063 
-32 0 1:0.09192 2:0.11049 3:0.39205 4:0.13384 5:-0.02595 6:-0.07491 7:-0.04635 8:-0.04679 9:-0.09532 10:0.01938 11:0.0214 12:-0.09366 13:-0.2495 14:-0.00162 15:0.02199 16:0.15504 17:0.05203 18:-0.24089 19:0.07951 20:0.08607 21:-0.00573 22:-0.09087 23:-0.05865 24:0.08525 25:0.10337 26:-0.14996 27:-0.07848 28:0.01959 29:-0.05826 30:0.08585 31:-0.10897 32:0.08799 
-32 32 1:0.09651 2:0.06593 3:0.26311 4:0.06698 5:0.06482 6:-0.0372 7:-0.04014 8:0.0122 9:-0.07056 10:-0.03607 11:0.04764 12:-0.10869 13:-0.23519 14:-0.01731 15:0.02997 16:0.17266 18:-0.0892 19:0.0234 20:0.14147 21:-0.05536 22:-0.04834 23:-0.03558 24:0.05968 25:0.1223 26:-0.0985 27:-0.02618 28:-0.03509 29:0.00972 30:0.03848 31:-0.01527 32:0.04214 
-32 32 1:0.16227 2:0.08513 3:0.16489 4:0.07786 5:0.08428 6:-0.05851 7:0.01295 8:0.0114 9:-0.07962 10:-0.05572 11:-0.05895 12:-0.07912 13:-0.13272 14:0.02227 15:-0.01604 16:0.08205 17:-0.04507 18:-0.0363 19:-0.05861 20:0.0869 21:-0.03369 22:-0.07237 24:-0.02445 25:-0.01591 26:-0.07656 27:0.00351 28:0.01616 29:0.06746 30:0.02007 31:-0.07579 32:-0.00567 
-32 32 1:0.18592 2:0.16402 3:0.18842 4:0.15013 5:0.02997 6:-0.19087 7:0.00647 8:0.1143 9:-0.03736 10:-0.04632 11:0.00118 12:0.07347 13:-0.12956 14:0.04096 15:-0.16799 16:0.08349 17:-0.03208 18:-0.03899 19:0.00159 20:0.07066 21:-0.02044 22:0.01697 23:0.02736 24:0.0005 25:0.09754 26:-0.08854 27:-0.02192 28:-0.00369 29:-0.01696 30:-0.00632 31:-0.11482 32:0.03018 
-32 32 1:0.19671 2:0.10473 3:0.23003 4:0.10504 5:0.00993 6:-0.05732 7:-0.03147 8:-0.01837 9:-0.05291 10:-0.04909 11:-0.05404 12:-0.07635 13:-0.11055 14:0.06474 15:-0.01132 16:0.08496 17:-0.02132 18:-0.07014 19:-0.03099 20:0.06055 21:-0.02419 22:-0.03004 23:-0.00769 24:0.03125 25:0.01507 26:-0.1458 27:0.01372 28:-0.00299 29:-0.1488 30:-0.01927 31:-0.15446 32:0.0686 
-32 32 1:0.27219 2:0.09589 3:0.18133 4:0.16027 5:0.05423 6:-0.06798 7:0.03313 8:0.02937 9:-0.00371 10:-0.02127 11:-0.11024 12:-0.06557 13:-0.1231 14:0.00447 15:-0.09181 16:0.10487 17:-0.02304 18:-0.00148 19:-0.06136 20:0.05601 21:-0.00217 22:-0.01831 23:0.05927 25:-0.0616 26:-0.07008 27:0.02235 28:-0.00298 29:-0.01664 30:-0.06007 31:-0.14394 32:0.08246 
-32 22.98603426126953 1:0.04008 2:0.3248 3:0.25582 4:0.19336 5:-0.10412 6:-0.26225 7:-0.01069 8:0.12504 9:-0.00763 10:-0.06526 11:-0.02015 12:0.09638 13:-0.19253 14:0.05222 15:-0.16239 16:0.1852 17:0.00652 18:-0.22698 19:0.1529 20:0.11225 21:-0.09699 22:0.02758 23:-0.08214 24:0.00174 25:0.10919 26:-0.0055 27:-0.09897 28:0.05586 29:0.03407 30:0.06525 31:-0.21663 32:0.07543 
-24.9820182033345 -17.18694819041144 1:0.05121 2:0.05785 3:0.31 4:-0.04388 5:-0.16443 6:-0.19358 7:0.41676 8:0.58503 9:-0.15786 10:0.21555 11:0.18164 12:0.70166 13:-0.08528 14:0.42577 15:-0.41529 16:-0.2113 17:0.09684 18:-0.33099 19:-0.11674 20:-0.63642 21:-0.02347 22:-0.26993 23:-0.16571 24:0.15234 25:-0.41328 26:0.1366 27:0.29308 28:0.01281 29:0.35869 30:-0.10991 31:0.28695 32:-0.06037 
-32 -0 1:-0.18129 2:0.13118 3:0.42054 4:0.10199 5:-0.2954 6:-0.23317 7:0.12513 8:0.64183 9:-0.15726 10:0.14758 11:0.00478 12:0.61536 13:-0.11593 14:0.85691 15:-0.2727 16:-0.63822 17:0.12514 18:-0.53432 19:-0.38199 20:-1.07016 21:-0.18824 22:-0.4866 23:-0.3412 24:0.28256 25:-0.6029 26:0.08912 27:0.37325 28:-0.04487 29:0.51852 30:-0.03453 31:0.38446 32:-0.15927 
-32 -32 1:0.17448 2:0.17247 3:0.13008 4:0.26332 5:-0.33901 6:-0.55305 7:-0.31221 8:0.34637 9:0.16673 10:0.01338 11:0.10734 12:0.18722 13:-0.17077 14:0.29452 15:-0.20477 16:-0.29526 17:0.22565 18:-0.31251 19:-0.1268 20:-0.08718 21:-0.1819 22:0.02893 23:-0.09856 24:0.0551 25:-0.05564 26:-0.19014 27:0.01714 28:-0.143 29:0.21031 30:0.08195 31:0.13112 32:-0.2186 
-16.62188317264341 -0 1:-0.27966 2:-0.15934 3:-0.52161 4:-0.35621 5:0.15959 6:0.43784 7:0.29641 8:-0.58373 9:0.25758 10:-0.01005 11:-0.12486 12:0.31527 13:0.60418 14:-0.00928 15:-0.21474 16:-0.0694 17:0.01587 18:0.29405 19:0.10751 20:-0.00775 21:0.20842 22:0.24146 23:0.21482 24:0.0311 25:0.16986 26:0.25276 27:-0.03775 28:0.29492 29:-0.40831 30:-0.2951 31:-0.06436 32:0.03372 
-32 -32 1:-0.22822 2:-0.15067 3:-0.36602 4:-0.17414 5:0.21293 6:0.19907 7:0.23488 8:-0.319 9:0.15395 10:-0.21216 11:0.05117 12:-0.05273 13:0.29626 14:-0.04847 15:0.05627 16:-0.06935 17:-0.03065 18:0.21552 19:0.07078 20:0.21927 21:-0.00176 22:0.2029 23:0.05072 24:-0.00253 25:0.10548 26:0.33184 27:0.06058 28:-0.03227 29:0.10621 30:-0.22886 31:-0.04763 32:0.03274 
-32 -32 1:-0.20839 2:0.05744 3:0.10134 4:0.06757 5:-0.19461 6:-0.05285 7:-0.82547 8:0.00563 9:-0.15523 10:0.09161 11:0.16866 12:-0.39106 13:-0.25782 14:-0.1107 15:0.20671 16:-0.03997 17:0.11023 18:-0.30714 19:-0.58883 20:0.31457 21:-0.06876 22:0.01556 23:-0.01033 24:0.03607 25:-0.38293 26:0.13622 27:-0.02254 28:-0.14921 29:0.36702 30:0.35062 31:-0.05468 32:-0.71598 
-0 -18.31629931763392 1:0.78087 2:-0.13936 3:-0.66042 4:-0.29093 5:-0.21333 6:-0.05692 7:-0.98038 8:-0.0965 9:0.39082 10:0.01356 11:-0.1621 12:-0.71239 13:0.17744 14:0.18634 15:0.12974 16:-0.29213 17:-0.41356 18:0.19615 19:0.16858 20:0.33693 21:-0.01647 22:0.3108 23:-0.29453 24:-0.3658 25:-0.45454 26:-0.73307 27:-0.07741 28:0.0881 29:0.48013 30:0.16881 31:-0.04475 32:-0.0997 
-17.07303640913227 -2.359572822602219 1:0.77525 2:-0.07256 3:-0.4624 4:-0.1748 5:-0.25501 6:0.10783 7:-1.17516 8:-0.06465 9:0.22376 10:0.03572 11:0.136 12:-0.53057 13:0.00402 14:0.04528 15:0.29821 16:-0.2853 17:-0.38583 18:0.17273 19:0.27229 20:0.3999 21:-0.11714 22:0.36205 23:-0.46405 24:-0.25331 25:-0.46352 26:-0.33916 27:0.29662 28:-0.04992 29:0.48436 30:-0.44673 31:-0.0054 32:-0.30391 
-0 -32 1:-0.14288 2:0.23626 3:0.53704 4:0.33147 5:-0.14887 6:-0.33126 7:0.37049 8:0.30342 9:-0.13544 10:0.66757 11:0.20977 12:1.06196 13:0.47298 14:0.25736 15:-0.75316 16:-0.09567 17:0.0557 18:0.11008 19:-0.01877 20:-0.77939 21:0.13329 22:-0.10628 23:0.48367 24:-0.05924 25:0.60876 26:0.19562 27:-0.06662 28:0.11044 29:-0.53771 30:-0.34133 31:0.03637 32:0.09845 
-32 -0 1:0.03473 2:-0.16971 3:-0.28084 4:-0.0556 5:-0.16032 6:0.01763 7:-0.5489 8:-0.04288 9:0.12218 10:-0.07151 11:-0.15864 12:-0.42693 13:-0.01986 14:-0.07868 15:0.2822 16:-0.23275 17:-0.01677 18:-0.05711 19:0.11329 20:0.05627 21:0.05593 22:0.0953 23:-0.09909 24:0.0716 25:-0.55775 26:-0.21296 28:-0.05466 29:0.68274 30:0.14462 31:0.22889 32:-0.01823 
-4.985793327595321 -15.30268005242807 1:-0.24535 2:-0.27538 3:-0.2756 4:-0.67422 5:0.11506 6:0.18512 7:0.46868 8:-0.27644 9:0.06649 10:0.11285 11:-0.08285 12:-0.19116 13:0.71173 14:-0.42217 15:-0.12017 16:0.18918 17:0.01887 18:0.47707 19:0.31542 20:0.70961 21:0.35191 22:0.38588 23:0.47433 24:0.01189 25:0.36171 26:0.13991 27:-0.2478 28:-0.09182 29:-0.433 30:-0.20201 31:-0.1952 32:0.19444 
-0 -21.03927759960446 1:0.17247 2:-0.13542 3:-0.22564 4:-0.31345 5:-0.0477 6:0.21009 7:0.16813 8:-0.10859 9:-0.01489 10:0.10045 11:-0.27952 12:-0.25552 13:0.17928 14:-0.65205 15:0.0238 16:0.24899 17:0.22807 18:-0.0561 19:0.6571 20:0.59962 21:0.31426 22:0.12691 23:0.12172 24:0.14811 25:-0.34784 26:-0.02597 27:-0.20363 28:-0.452 29:0.13976 30:0.2075 31:0.16315 32:0.24724 
-32 -28.01959003650741 1:0.10787 2:-0.17669 3:-0.03769 4:0.07607 5:0.00589 6:0.03291 7:-0.22436 8:-0.16199 9:-0.02616 10:-0.04566 11:-0.09625 12:-0.37011 13:-0.19496 14:-0.33927 15:0.47434 16:-0.12692 17:0.1989 18:-0.21545 19:0.17368 20:-0.04074 21:0.26698 22:-0.26384 23:0.0747 24:0.4065 25:-0.59489 26:-0.28396 27:-0.05256 28:-0.32686 29:0.46418 30:0.31116 31:0.41656 32:0.00742 
-9.808792207410423 -0 1:0.00777 2:-0.13758 3:-0.32002 4:-0.06498 5:-0.03701 6:0.11999 7:-0.21769 8:-0.02394 9:0.16481 10:0.15539 11:0.0227 12:-0.17764 13:0.06226 14:-0.06468 15:0.26743 16:-0.05283 17:0.07941 18:-0.01889 19:0.26897 20:0.06878 21:0.16979 22:-0.02488 23:-0.00448 24:0.14867 25:-0.35423 26:-0.09333 27:0.07908 28:-0.24461 29:0.33959 30:0.02786 31:0.38287 32:-0.13588 
-0 -8.383200166587651 1:0.09844 2:-0.09446 3:-0.25546 4:-0.19633 5:-0.08029 6:0.29908 7:-0.03126 8:-0.1989 9:0.04626 10:0.05235 11:-0.06022 12:0.06925 13:0.22654 14:-0.16703 15:0.05697 16:0.13619 17:0.06835 18:0.12218 19:0.48953 20:0.00449 21:0.34124 22:-0.11497 23:0.16502 24:0.1595 25:-0.07529 26:-0.39194 27:0.0226 28:-0.11956 29:-0.05322 30:-0.04082 31:0.21472 32:-0.12472 
-7.839205957059146 -0 1:-0.19956 2:-0.10245 3:-0.21049 4:-0.09934 5:-0.13402 6:0.14741 7:-0.13224 8:-0.0291 9:0.12307 10:0.20087 11:0.33199 12:0.46547 13:0.31744 14:0.19814 15:-0.32383 16:-0.00032 17:0.06404 18:0.41016 19:0.06179 20:-0.00094 21:-0.04131 22:0.20687 23:0.30915 24:-0.01304 25:0.53626 26:0.12111 27:0.02675 28:-0.11289 29:-0.60101 30:-0.36144 31:0.22694 32:-0.09814 
